{"zero_const": [0.0], "pi_const": [3.1415927410125732], "ent_embeddings.weight": [[0.895989179611206, 0.10809685289859772, 0.35127535462379456, 0.16908104717731476, 0.16503731906414032, -0.24873866140842438, -0.020663216710090637, 0.42155879735946655, 0.03610224649310112, 0.3012012541294098, -0.278982013463974, -0.02694559469819069, -0.37893810868263245, 0.1124127134680748, 0.24973748624324799, 0.9592135548591614, 0.3724255859851837, 0.36653202772140503, 0.19407254457473755, -0.4128430485725403, -0.721771776676178, 0.36536866426467896, -0.5724903345108032, 0.06032584607601166, -0.8282061815261841, -0.31992107629776, -0.5211678743362427, 0.12280231714248657, -0.14405293762683868, 0.12637582421302795, 0.3804056644439697, 0.49101707339286804, 0.2934611141681671, -0.20696836709976196, -0.5860826373100281, 0.364425390958786, 0.0907384380698204, -0.29226434230804443, 0.3230941593647003, 0.010963862761855125, -0.9956604838371277, 0.4452691078186035, -0.14072056114673615, 0.4411631226539612, -0.6012388467788696, 0.36927852034568787, -0.47233569622039795, -0.07169754803180695, 0.17299813032150269, -0.3147071897983551], [0.5185710787773132, 0.18252386152744293, 0.7606046795845032, -0.23653922975063324, 0.2284872978925705, -0.7953252196311951, 0.7568239569664001, -0.8672853708267212, -0.3229900002479553, -0.7504254579544067, -1.036870002746582, -0.5756790637969971, -0.19516219198703766, 0.9738741517066956, -0.10668513923883438, 0.29830023646354675, 0.18099583685398102, 0.8883110880851746, -0.826343297958374, 0.07726643979549408, -0.08149345964193344, 0.04589717462658882, 0.39766108989715576, -0.09686436504125595, -0.8729625940322876, 0.045384958386421204, -0.5480064153671265, 0.36486318707466125, -0.8268160820007324, 0.04337788000702858, -1.3751685619354248, -0.43865472078323364, 0.2641140818595886, 0.09292064607143402, 0.5400553345680237, -0.786994993686676, 0.5161280035972595, -0.2178545892238617, -0.7529422640800476, 0.8148276209831238, -0.3495365381240845, 0.208938866853714, 0.1703472137451172, 0.3763473629951477, -0.4701681137084961, -1.2920145988464355, 0.13682681322097778, -1.012645959854126, 0.5472953915596008, 0.3622247278690338], [-0.12274322658777237, 0.11677338182926178, 0.6028181314468384, 0.002385268686339259, -0.2943205237388611, -0.274802029132843, -0.6246833205223083, 0.3499944508075714, -0.1615702360868454, 0.14673584699630737, -0.32404661178588867, 0.22056499123573303, -0.6927565336227417, -0.34649479389190674, 0.20681685209274292, 0.6701475381851196, 0.12375002354383469, 0.8815516829490662, 0.2071451097726822, 0.20883315801620483, -0.0676032081246376, 0.40475183725357056, -0.7374414205551147, -0.06417349725961685, -0.01974640041589737, -0.35605818033218384, 0.6395972967147827, 0.30570051074028015, 0.3396221995353699, -0.30369532108306885, -0.31861600279808044, 0.5245589017868042, 0.17121610045433044, 0.3240737318992615, -0.4060251712799072, 0.5159457921981812, -0.21108707785606384, -0.4933135211467743, 0.1822700947523117, 0.6121001243591309, -0.13102491199970245, -0.22991208732128143, -0.1112888753414154, -0.39770016074180603, 0.12378914654254913, 0.008816121146082878, -0.3308449387550354, -0.4027788043022156, 0.2939005494117737, 0.5364903807640076], [-0.2809745967388153, 0.302188903093338, -0.013441107235848904, 0.08304385095834732, -0.6559471487998962, -0.3345680832862854, 0.14170682430267334, -0.3714747726917267, -0.31925535202026367, -0.15005001425743103, -0.004192898981273174, 0.13419215381145477, 0.1315917819738388, 0.19271062314510345, 0.4008994400501251, 0.05031273886561394, -0.7510372996330261, 0.14725446701049805, -0.4422253668308258, 0.18998727202415466, 0.044270921498537064, -0.45434871315956116, 0.10639885067939758, -0.09000003337860107, 0.6095689535140991, 0.11922718584537506, -0.06116431578993797, 0.054258592426776886, 0.17554214596748352, 0.14016209542751312, -0.4393988847732544, 0.08808578550815582, -0.03891218826174736, -0.21743176877498627, 0.19199301302433014, 0.5536525845527649, 0.4162781834602356, 0.37227946519851685, -0.1482442319393158, -0.536913275718689, -0.3920333981513977, -0.6022148132324219, 0.5012304782867432, 0.3712058663368225, 0.07064707577228546, -0.47710803151130676, 0.11501771211624146, -0.12176067382097244, -0.31607767939567566, -0.5938878059387207], [-0.13847140967845917, -0.0606958270072937, 0.32313472032546997, 0.21857383847236633, -0.19554322957992554, 0.010918298736214638, 0.4457447826862335, -0.41092073917388916, -0.4027212858200073, 0.27637144923210144, -0.28021708130836487, -0.12438057363033295, 0.510578989982605, -0.18432793021202087, 0.1511121690273285, 0.08359337598085403, -0.5490185618400574, -0.3103942573070526, 0.36714068055152893, -0.1539272665977478, 0.3164743483066559, 0.27392855286598206, 0.24505285918712616, -0.010743362829089165, -0.09638997912406921, 0.2974938154220581, -0.18869219720363617, -0.2705235183238983, 0.3457064926624298, -0.10012897104024887, 0.05658244341611862, 0.1620415449142456, -0.5348992943763733, 0.21760094165802002, -0.23737536370754242, 0.3992809057235718, 0.06558821350336075, 0.14493606984615326, 0.18787795305252075, 0.12682953476905823, -0.25301897525787354, -0.15970611572265625, 0.24118421971797943, 0.34899529814720154, 0.15883900225162506, -0.27186697721481323, -0.12439858168363571, 0.37497180700302124, 0.4104556143283844, 0.04690178483724594], [-0.3212411403656006, 0.18896286189556122, -0.2528690695762634, 0.06468840688467026, -0.5260632038116455, -2.397969365119934e-05, 0.1598220318555832, 0.19547885656356812, 0.14741720259189606, -0.0820351243019104, -0.0569131001830101, 0.2622402608394623, 0.2670023739337921, 0.13942499458789825, -0.2731046676635742, -0.07467878609895706, -0.06685753911733627, -0.12454251199960709, 0.4183090329170227, 0.18309305608272552, 0.2136317789554596, -0.3733700215816498, 0.30758893489837646, 0.534494161605835, 0.12450344860553741, 0.20461022853851318, -0.19885557889938354, -0.3039034605026245, 0.1168232262134552, -0.4187982380390167, -0.332255482673645, -0.25670552253723145, 0.20504771173000336, 0.0843123346567154, 0.07532958686351776, 0.181925967335701, 0.17957216501235962, -0.06714405119419098, 0.00493583781644702, 0.096836157143116, -0.17103777825832367, -0.24885249137878418, -0.3622792959213257, 0.35303130745887756, -0.0028479655738919973, 0.030728304758667946, -0.1250518262386322, 0.27169108390808105, 0.1583978831768036, 0.0481761172413826], [-0.4392407536506653, 0.01073190476745367, 0.39725521206855774, -0.3074239492416382, -0.23000501096248627, -0.3943400979042053, 0.11065297573804855, 0.3237486779689789, -0.11383870989084244, 0.1654958724975586, 0.31263673305511475, -0.2624514698982239, -0.06352943181991577, -0.358392596244812, 0.31989938020706177, -0.17385728657245636, -0.4799356758594513, 0.13461902737617493, -0.4995289146900177, -0.31252673268318176, -0.13744795322418213, -0.223881796002388, 0.2372118979692459, -0.33999425172805786, -0.032330986112356186, 0.059227604418992996, -0.352891206741333, -0.37089845538139343, 0.321236789226532, -0.04039933532476425, 0.0834645926952362, -0.29755499958992004, 0.02903229556977749, -0.02703699842095375, 0.14472460746765137, -0.18574631214141846, -0.010826535522937775, 0.3761677145957947, 0.16688331961631775, -0.30038371682167053, -0.28940290212631226, -0.09195450693368912, -0.06254015117883682, -0.2062782198190689, -0.04432391747832298, 0.09250540286302567, 0.08391387015581131, 0.43825840950012207, 0.1280020922422409, 0.19563882052898407], [-0.3423759937286377, 0.3170381188392639, -0.5344350934028625, 0.49087148904800415, -0.43934720754623413, 0.23150946199893951, 0.11687877774238586, -0.5515901446342468, -0.10048671811819077, 0.34384018182754517, -0.22767274081707, -0.12240441143512726, 0.24750246107578278, -0.36385422945022583, -0.05203993618488312, -0.26308339834213257, 0.1938961148262024, -0.4226672947406769, -0.1274191290140152, -0.3031313717365265, 0.06984727829694748, 0.2420220673084259, 0.03002842515707016, -0.07609472423791885, -0.20447991788387299, 0.017826329916715622, -0.10521396994590759, -0.1058363988995552, 0.16969789564609528, 0.15541157126426697, -0.05670968443155289, 0.2455269992351532, 0.06700626760721207, 0.11678214371204376, 0.17011067271232605, -0.05295700579881668, 0.2920621931552887, 0.045926518738269806, 0.0825437381863594, -0.3132944405078888, -0.35035163164138794, -0.4047911763191223, 0.23845598101615906, 0.1224161684513092, 0.38682132959365845, 0.12016461044549942, 0.2520248591899872, -0.04865453392267227, 0.22952041029930115, 0.30345094203948975], [0.3809030055999756, -0.6858265399932861, -0.21146012842655182, 0.1729568988084793, -0.12350627034902573, -0.4076955020427704, 0.003329146420583129, -0.11519228667020798, 0.07940075546503067, -0.09524716436862946, 0.020640937611460686, 0.22689169645309448, -0.2977685034275055, 0.420958012342453, -0.0504133477807045, 0.2547960579395294, -0.31982019543647766, -0.06125464290380478, -0.4511532485485077, 0.3167990446090698, -0.16008736193180084, -0.5673513412475586, -0.498362272977829, -0.32137954235076904, 0.4845426678657532, 0.3398617208003998, -0.43335554003715515, -0.7316800951957703, -0.07053639739751816, -0.6459647417068481, -0.570297360420227, 0.5331902503967285, -0.20074285566806793, -0.08089575171470642, 0.3482561707496643, -0.24943171441555023, 0.1116897240281105, 0.5132835507392883, 0.7596959471702576, 0.13940787315368652, -0.4028371572494507, -0.08235182613134384, 0.12812964618206024, -0.24593842029571533, -0.24123597145080566, 0.2087893933057785, 0.706144392490387, -0.04084208235144615, 0.7322098016738892, -0.20026807487010956], [0.12624262273311615, 0.12017461657524109, -0.020054509863257408, -0.07418666034936905, 0.10294761508703232, -0.12292632460594177, 0.08951860666275024, 0.037227459251880646, -0.02029220387339592, 0.12601034343242645, -0.16082848608493805, 0.15258671343326569, 0.08321796357631683, -0.1565508395433426, 0.16431063413619995, 0.1598234623670578, 0.15792344510555267, -0.11244992166757584, -0.10368378460407257, -0.10727077722549438, 0.07164378464221954, -0.06989346444606781, 0.14225547015666962, -0.09280993789434433, -0.1194121465086937, 0.11849531531333923, -0.1460312157869339, -0.1411203294992447, 0.13985894620418549, 0.14253170788288116, -0.1556752622127533, -0.05955929681658745, -0.10163309425115585, -0.12830562889575958, -0.13633202016353607, 0.1408565640449524, -0.10292629897594452, -0.14579781889915466, -0.1261414736509323, -0.15402214229106903, 0.04657900705933571, -0.1331799328327179, 0.13311022520065308, 0.10875458270311356, 0.14001671969890594, -0.06668748706579208, -0.066254623234272, 0.14397388696670532, 0.13018089532852173, 0.15756799280643463], [-0.5651726722717285, 0.5129931569099426, 0.5629804134368896, -0.2114400565624237, -0.2188962996006012, 0.7590368986129761, -0.03325340524315834, -0.06113438680768013, -0.43442386388778687, -0.5289499163627625, 0.5782267451286316, 0.7398978471755981, -0.5227900743484497, -0.02622966282069683, -0.5569630265235901, -0.21445921063423157, -0.4077444076538086, 0.8774921298027039, 0.47274988889694214, 0.5151256918907166, 0.11592404544353485, 0.4102926552295685, -0.7233868837356567, 0.3861280083656311, 0.456312894821167, 0.3265025317668915, 0.6172517538070679, 0.25922781229019165, -0.5416185855865479, -0.20239229500293732, -0.44048553705215454, 0.8214442133903503, -0.009643424302339554, -0.5903837084770203, -0.1719016134738922, -0.1019318699836731, -0.6213979721069336, -0.5176875591278076, 0.47089096903800964, -0.07640347629785538, 0.3771555721759796, -0.023444943130016327, 0.012254927307367325, -0.703273355960846, 0.001501861377619207, 0.15459483861923218, -0.3155496418476105, 0.4140040874481201, 0.1288636177778244, -0.4551764726638794], [-0.04423455521464348, 0.3572896420955658, 0.061130691319704056, 0.4865865707397461, 0.6326408982276917, -0.11298433691263199, -0.20671114325523376, -0.09373507648706436, 0.03654502332210541, 0.3554115891456604, -0.027104754000902176, 0.45306503772735596, 0.04627697169780731, 0.15254457294940948, 0.40085047483444214, -0.3303796947002411, -0.07816430181264877, -0.1267821043729782, 0.24267467856407166, -0.48214712738990784, 0.20843225717544556, 0.19545242190361023, -0.2400602251291275, 0.031824905425310135, 0.1350952684879303, 0.40175825357437134, -0.14601734280586243, -0.15653397142887115, 0.10528247803449631, -0.021647069603204727, -0.013926620595157146, -0.6038584113121033, 0.2354649305343628, -0.08729361742734909, 0.3559471070766449, -0.0058411601930856705, 0.29117637872695923, 0.12925003468990326, -0.32915112376213074, -0.19785355031490326, -0.07220546156167984, -0.21165721118450165, 0.43975019454956055, 0.04116978123784065, 0.31779012084007263, -0.5085980892181396, 0.2965667247772217, -0.08978357911109924, -0.36352089047431946, 0.070576012134552], [-0.10358969867229462, 0.22974596917629242, -0.16630060970783234, 0.04692762345075607, -0.29793182015419006, -0.06144135445356369, 0.33155104517936707, 0.3812064826488495, -0.011083390563726425, -0.20388241112232208, 0.27771300077438354, 0.029400387778878212, 0.1362694501876831, 0.5328789949417114, 0.1277027726173401, 0.20234426856040955, 0.006887589581310749, -0.16048336029052734, 0.4291698932647705, -0.16072919964790344, 0.15214641392230988, 0.049536410719156265, 0.6248742341995239, 0.3456740379333496, -0.21253061294555664, 0.35416269302368164, 0.013105747289955616, -0.23057213425636292, -0.25403162837028503, 0.1621866375207901, -0.028491627424955368, -0.09729965776205063, 0.0740637332201004, 0.01310230977833271, 0.08465184271335602, 0.154025137424469, 0.4881645441055298, 0.11300132423639297, 0.4703179597854614, -0.10161680728197098, 0.03005267307162285, -0.29132819175720215, -0.07393315434455872, 0.10418349504470825, 0.0221638772636652, 0.2000105232000351, 0.254184752702713, 0.14864179491996765, -0.31765884160995483, 0.3194332718849182], [-0.5909032225608826, -0.1781189739704132, -0.495267391204834, 0.4008376896381378, -0.4530663788318634, 0.8197929263114929, 0.0894143357872963, -0.9033285975456238, -0.6036792397499084, 0.4052051603794098, 1.0360490083694458, -0.532085657119751, 0.5222426056861877, -0.6573664546012878, -0.49025750160217285, -0.29463550448417664, -0.2830519676208496, -0.19300462305545807, 0.6157393455505371, 0.9459270238876343, 0.22098304331302643, 0.5300703644752502, -0.911827027797699, -0.17746374011039734, 0.749495804309845, 0.422092467546463, 0.7863772511482239, 0.31085851788520813, -1.3826402425765991, -0.10312970727682114, 0.5103327035903931, 0.025057777762413025, -0.04305461421608925, -0.6256608366966248, -0.7748203277587891, -1.025310754776001, -0.8025920987129211, 0.5695308446884155, -0.05554556846618652, -0.1556471884250641, -0.028941653668880463, -0.006695881951600313, -0.003286495106294751, -0.907898485660553, 0.011949725449085236, 0.21553021669387817, 1.19305419921875, -0.37590157985687256, 0.2448338121175766, -0.46718135476112366], [-0.0033467495813965797, -0.08613904565572739, 0.39268651604652405, 0.1450069546699524, 0.5917397141456604, 0.10837240517139435, -0.6075479388237, 0.39467108249664307, -0.5969702005386353, 0.3580397665500641, 0.30245423316955566, -1.170101523399353, 0.19959166646003723, 0.42433854937553406, -0.5427801012992859, 0.2152666300535202, -0.0707027018070221, -0.16031548380851746, 0.0005162578308954835, -0.09706487506628036, -0.4055563807487488, 0.11775684356689453, 0.49973970651626587, 0.5322821140289307, 0.32263118028640747, -0.09436088800430298, 0.7977889776229858, 0.8636303544044495, 0.16885699331760406, 0.6555935144424438, 0.6272886395454407, 0.33019140362739563, -0.23443379998207092, -0.06394704431295395, 0.7446638345718384, -0.23992259800434113, -0.24696169793605804, 0.131609246134758, 0.41025519371032715, 0.5777559876441956, -0.38893353939056396, 0.5480452179908752, 0.16232922673225403, 0.08276491612195969, 0.3964114189147949, 1.054735779762268, 0.7788950204849243, 0.49671661853790283, -0.08474111557006836, 0.32432061433792114], [-0.17817731201648712, -0.0034487731754779816, 0.22516269981861115, 0.7994945645332336, 0.3911895453929901, 0.14632973074913025, -0.28469109535217285, -0.3176901340484619, -0.18119481205940247, -0.4846094250679016, -0.17927591502666473, -0.3494451940059662, -0.1819213628768921, 0.24637335538864136, -0.12787842750549316, 0.19152911007404327, 0.13316412270069122, 0.14910155534744263, 0.12240584194660187, 0.18918271362781525, 0.3824015259742737, -0.024561507627367973, -0.16411975026130676, 0.04648452252149582, 0.16382575035095215, 0.037019163370132446, -0.7735000252723694, -0.712395429611206, -0.09873481839895248, -0.02423609048128128, 1.1372075080871582, 0.25946104526519775, -0.8097195029258728, 0.5576199889183044, 0.3286536931991577, -0.47129467129707336, 0.7771003246307373, 0.014458365738391876, -0.1804913431406021, 0.16291563212871552, 0.2039310783147812, 0.036366209387779236, 0.11980818957090378, 0.2401457130908966, -0.41454800963401794, 0.2523818016052246, 0.023608066141605377, 0.06650250405073166, -0.20535778999328613, 0.6040151715278625], [-0.7442482709884644, -0.1363770067691803, 0.4884808659553528, -0.8240712881088257, -0.7819378972053528, 0.10599105060100555, -0.6498627662658691, 0.4411199688911438, -0.003697043750435114, -0.9471510052680969, 0.5560784935951233, 0.27193954586982727, 0.5483027696609497, 0.7866284251213074, -0.6908825635910034, 0.12615837156772614, -0.21784937381744385, 0.00040773663204163313, -0.10732388496398926, 0.09872258454561234, 0.6472736597061157, 0.31893429160118103, -0.15583433210849762, 0.01410636119544506, -0.16994650661945343, 0.89983731508255, 0.9986758828163147, -0.32933443784713745, -0.20204006135463715, 0.315160870552063, 0.8960643410682678, 0.6488890647888184, 0.30970627069473267, -0.4168265163898468, -0.6829395294189453, -0.7824863195419312, -0.34397780895233154, 0.09422637522220612, -0.5615983605384827, -0.7127352356910706, 0.8447949886322021, 0.23186379671096802, 0.4894995391368866, 0.040826860815286636, -0.6131216883659363, -0.21317017078399658, -0.7420627474784851, 0.9071759581565857, 0.51637864112854, -0.1801144778728485], [-0.47101205587387085, 0.03137430176138878, 0.2877785861492157, -0.3126499056816101, -0.17319603264331818, -0.11166230589151382, 0.21347525715827942, -0.24613995850086212, 0.21045242249965668, 0.21379756927490234, -0.38814643025398254, 0.30975937843322754, 0.15322597324848175, -0.11699967086315155, 0.1886189877986908, -0.0796014741063118, 0.07097496092319489, -0.4283641576766968, 0.5367529392242432, -0.16837480664253235, -0.08765171468257904, -0.11274103820323944, 0.29748252034187317, 0.32819390296936035, -0.1011982336640358, 0.12678247690200806, 0.0995132103562355, -0.7085819840431213, 0.1813766360282898, -0.3577662706375122, -0.07417111843824387, 0.010562339797616005, -0.3496477007865906, 0.019325055181980133, -0.24232155084609985, -0.16014519333839417, 0.03527435287833214, 0.2793090045452118, 0.07689745724201202, -0.13302776217460632, -0.16198739409446716, 0.038572974503040314, 0.059129782021045685, 0.2206464558839798, -0.29831627011299133, -0.0986260324716568, -0.03352421522140503, 0.32513493299484253, -0.24175484478473663, 0.42757391929626465], [-0.38362759351730347, -0.4400598704814911, -0.16696570813655853, 0.09639058262109756, -0.37524816393852234, 0.03288419172167778, -0.0766059011220932, -0.15509743988513947, 0.007815375924110413, 0.033608920872211456, 0.3900211453437805, -0.09328491985797882, 0.47819894552230835, 0.08785779029130936, -0.4251013994216919, 0.23461751639842987, 0.07090247422456741, -0.14052383601665497, -0.05830893665552139, 0.15869000554084778, 0.14489707350730896, 0.1720539778470993, -0.023071544244885445, -0.3136609196662903, -0.20088663697242737, -0.1542721390724182, -0.3666006624698639, 0.011012788861989975, -0.39719313383102417, 0.39333847165107727, 0.32826778292655945, -0.17218726873397827, 0.13334284722805023, -0.14991694688796997, -0.5510295629501343, 0.2871747612953186, -0.17757858335971832, 0.0507577508687973, -0.3990449905395508, -0.3776232600212097, 0.2959345579147339, 0.11759890615940094, 0.21138730645179749, 0.017298012971878052, 0.3318098485469818, -0.27945491671562195, 0.2695485055446625, -0.05066566541790962, 0.3065359890460968, 0.010611671954393387], [-0.38072097301483154, -0.432393342256546, -0.1129712387919426, -0.07297580689191818, -0.3772733807563782, 0.05879444628953934, -0.07825875282287598, -0.16211643815040588, 0.011020702309906483, 0.037595827132463455, 0.3968641459941864, -0.07464559376239777, 0.47913363575935364, 0.09357525408267975, -0.4297627806663513, 0.21904046833515167, 0.06733280420303345, -0.13133320212364197, -0.04193497076630592, 0.1774349808692932, 0.1312236785888672, 0.18000353872776031, -0.031998082995414734, -0.2915361523628235, -0.17977826297283173, -0.18707358837127686, -0.30896294116973877, 0.06005023047327995, -0.4075627624988556, 0.38365375995635986, -0.20717741549015045, 0.3441312909126282, 0.1297052949666977, -0.15046626329421997, -0.5573124289512634, 0.28673768043518066, -0.17831459641456604, 0.051103346049785614, -0.39114558696746826, -0.3754656910896301, 0.2980599105358124, 0.12051790207624435, 0.20794937014579773, 0.010687152855098248, 0.2678237855434418, -0.276511549949646, 0.27709630131721497, -0.06581338495016098, 0.3017737567424774, 0.016396230086684227], [0.10693063586950302, 0.14440813660621643, -0.07375919818878174, 0.08814171701669693, -0.12354706227779388, -0.11293794214725494, 0.03641175478696823, 0.13610678911209106, 0.04257283732295036, 0.16223089396953583, 0.03124319016933441, 0.1679164320230484, 0.14358463883399963, 0.1430799812078476, 0.1639285683631897, 0.15099304914474487, -0.1378762573003769, -0.17091725766658783, -0.0872359573841095, 0.1510118693113327, -0.12074362486600876, 0.16632288694381714, 0.16521380841732025, -0.11980359256267548, -0.045895982533693314, 0.09066817164421082, -0.11951558291912079, -0.1682642549276352, 0.07181344926357269, 0.13077005743980408, -0.11903056502342224, 0.15084296464920044, -0.09400417655706406, -0.045374054461717606, -0.160323366522789, 0.08701243251562119, 0.17341135442256927, 0.14947833120822906, 0.15091672539710999, 0.05636349692940712, 0.04528883844614029, -0.08563636988401413, -0.15074287354946136, -0.0733376070857048, 0.09687189012765884, -0.13270382583141327, -0.16569077968597412, 0.157085582613945, 0.07421698421239853, -0.05359282344579697], [-0.1393568366765976, 0.06557241827249527, 0.11284420639276505, -0.13808925449848175, 0.12390594184398651, 0.1225973591208458, 0.06556063890457153, 0.12074435502290726, 0.11068050563335419, 0.08740267902612686, 0.07259948551654816, -0.16843277215957642, 0.10472045838832855, -0.034410618245601654, 0.0862048864364624, -0.16391266882419586, 0.12816840410232544, -0.10492457449436188, 0.14063405990600586, -0.12737561762332916, 0.1283581703901291, -0.17112374305725098, 0.1527690589427948, -0.1251014769077301, -0.1168120801448822, 0.14165687561035156, -0.1371280997991562, -0.14442381262779236, -0.15577314794063568, 0.13249827921390533, -0.1391637921333313, -0.10671301186084747, -0.10529446601867676, -0.08843227475881577, -0.11944936960935593, 0.14889933168888092, 0.1401946246623993, 0.1012621521949768, 0.015884215012192726, -0.13826173543930054, -0.020134631544351578, 0.11690084636211395, -0.1430911123752594, -0.06821824610233307, 0.14897437393665314, -0.07052851468324661, 0.1457350254058838, -0.0569504089653492, 0.1558138132095337, -0.09179413318634033], [-0.387715607881546, 0.15312260389328003, 0.2735886871814728, 0.28956255316734314, 0.24187995493412018, 0.3030375838279724, 0.1696963757276535, 0.20253337919712067, -0.3617417812347412, 0.418216735124588, -0.3803000748157501, -0.4700460731983185, -0.03529024124145508, 0.5479580163955688, 0.05338848754763603, 0.15209178626537323, 0.20052263140678406, 0.15975777804851532, -0.03601187467575073, -0.02731076069176197, 0.06755700707435608, -0.18627968430519104, 0.2837696969509125, 0.12191221117973328, -0.3127749264240265, -0.12772507965564728, -0.11553949862718582, -0.2124760001897812, 0.10270313173532486, 0.11131182312965393, 0.0033373518381267786, -0.016463743522763252, -0.14638707041740417, -0.23562707006931305, -0.15428705513477325, -0.03254383057355881, 0.08942162990570068, 0.3030828535556793, 0.33846741914749146, -0.17466109991073608, 0.2221829891204834, -0.3071606159210205, 0.018405571579933167, 0.1012289747595787, -0.0957082137465477, 0.033574532717466354, 0.24590158462524414, 0.37362051010131836, -0.027796730399131775, 0.048034295439720154], [-0.09634870290756226, 0.10074630379676819, -0.07887150347232819, -0.11804034560918808, -0.04014133661985397, 0.15670856833457947, 0.10220513492822647, 0.11493008583784103, 0.034592628479003906, 0.14081425964832306, 0.01081091072410345, 0.12980102002620697, 0.08348610252141953, -0.07850058376789093, 0.16567163169384003, 0.17639733850955963, 0.09877592325210571, -0.03811462223529816, 0.102112777531147, -0.14648374915122986, 0.09875676780939102, -0.16714145243167877, 0.14968708157539368, 0.14707444608211517, -0.13904127478599548, 0.1273474097251892, -0.15124833583831787, -0.1295110434293747, -0.14859548211097717, -0.12881800532341003, -0.1697719246149063, 0.1311226338148117, -0.051377810537815094, 0.05311553552746773, -0.09876802563667297, 0.15343695878982544, 0.06717813014984131, -0.1737535446882248, 0.0821630209684372, -0.16463950276374817, 0.10547728091478348, -0.1101745218038559, 0.18197762966156006, -0.0814090222120285, -0.13559800386428833, -0.01785893924534321, 0.08682777732610703, -0.16632197797298431, -0.08554290980100632, 0.17584651708602905], [0.020822955295443535, -0.10701590031385422, -0.06901095807552338, -0.11638355255126953, 0.11175014823675156, 0.11298248916864395, 0.13099372386932373, 0.14049173891544342, 0.06461932510137558, 0.1303315907716751, 0.03044091910123825, 0.14149095118045807, 0.12583887577056885, 0.008276530541479588, 0.14228606224060059, 0.16672424972057343, -0.13899333775043488, -0.11273613572120667, 0.1445501744747162, -0.08202280104160309, -0.06129118427634239, -0.10711421072483063, 0.12883897125720978, -0.04529355466365814, 0.12400177866220474, 0.13378798961639404, -0.14567479491233826, -0.15344873070716858, 0.1444922387599945, 0.10490909218788147, -0.041104841977357864, -0.11793352663516998, -0.14371216297149658, -0.039657507091760635, -0.16915862262248993, 0.12586204707622528, 0.15366466343402863, -0.07864827662706375, -0.11028605699539185, 0.16115716099739075, -0.17069965600967407, -0.11955190449953079, 0.16918620467185974, -0.16516195237636566, 0.07195326685905457, -0.04632937163114548, 0.14074763655662537, 0.1340416669845581, -0.1150648295879364, -0.10548821836709976], [0.7914624810218811, -0.08939388394355774, -0.36913976073265076, -0.10480333119630814, -0.11534661054611206, 0.27656805515289307, -0.9383128881454468, -0.12896499037742615, 0.40036600828170776, 0.5483787059783936, 0.23936255276203156, -0.7996118068695068, 0.4514688551425934, -0.27798929810523987, 0.2723003923892975, 0.20797327160835266, -0.08277414739131927, -0.19101345539093018, -0.4084697365760803, -0.11235398799180984, -0.4236293137073517, 0.14483322203159332, 0.5137789249420166, 0.6766090989112854, 0.3357106149196625, -0.2896641492843628, 0.7606377601623535, 0.9896453022956848, 0.21323779225349426, -0.3086415231227875, 0.6623983979225159, 0.37427085638046265, -0.40997689962387085, -0.4557066559791565, 0.7325014472007751, -0.27868619561195374, -0.3993581235408783, -0.8441895842552185, 0.3770955204963684, 0.5923073887825012, -0.36146280169487, 0.08887007087469101, 0.18799394369125366, 0.09810346364974976, 0.40540510416030884, 0.7638781666755676, 0.828718364238739, -0.270225465297699, -0.5202070474624634, 0.4700014889240265], [-0.3235485553741455, 0.1852683424949646, -0.22528016567230225, 0.041207779198884964, -0.5139844417572021, -0.031981855630874634, 0.17179995775222778, 0.20871879160404205, 0.12940984964370728, -0.001910198014229536, -0.14607477188110352, 0.2465798258781433, 0.2556130886077881, 0.1285201460123062, -0.26820632815361023, -0.051706720143556595, -0.049315933138132095, -0.1403564214706421, 0.3942273259162903, 0.17793704569339752, 0.1968604475259781, -0.3637149930000305, 0.3008610010147095, 0.5265947580337524, 0.10434689372777939, 0.21320022642612457, -0.21094176173210144, -0.31040146946907043, 0.12227995693683624, -0.4057552218437195, -0.32298800349235535, -0.24850404262542725, 0.19093145430088043, 0.05418436601758003, 0.06787865608930588, 0.11242814362049103, 0.16821719706058502, -0.06038709357380867, 0.012193931266665459, 0.030497709289193153, -0.15109170973300934, -0.2528541088104248, -0.34515562653541565, 0.3398691415786743, -0.0023445789702236652, 0.01494918018579483, -0.07012637704610825, 0.2481212466955185, 0.16366904973983765, 0.02672629989683628], [-0.7270156741142273, 0.38523563742637634, 0.007344534154981375, 0.013812173157930374, -0.13455012440681458, 0.6698015928268433, -0.004639810416847467, -0.06882640719413757, -0.4551500976085663, -0.5548222064971924, 0.585963249206543, 0.6844846606254578, -0.17027521133422852, -0.03041737526655197, -0.25640159845352173, -0.10339269042015076, -0.4154030978679657, 1.0498661994934082, 0.5107143521308899, 0.534212589263916, 0.992982804775238, 0.3945702016353607, -0.7215215563774109, 0.3972582519054413, 0.48685601353645325, 0.34035688638687134, 0.6049732565879822, 0.27599602937698364, -0.5567358732223511, 0.35665571689605713, 0.0235527865588665, -0.06560776382684708, 0.020402472466230392, -0.5755211114883423, -0.1768752634525299, -0.700239360332489, -0.6367418766021729, -0.5192311406135559, 0.22499880194664001, -0.09032966941595078, 0.4035557210445404, -0.013432439416646957, 0.5722734928131104, -0.7227391600608826, 0.003830729052424431, 0.3489347994327545, -0.3767069876194, 0.422268271446228, -0.5978260636329651, -0.5088548064231873], [0.05747328698635101, 0.15584364533424377, -0.26337334513664246, -0.626998245716095, 0.391777902841568, 0.033390309661626816, -0.08281563222408295, 0.22048896551132202, 0.0663021132349968, 0.09345325827598572, -0.13840559124946594, -0.27896758913993835, -0.21669411659240723, -0.05477391183376312, -0.1133599728345871, -0.5295173525810242, -0.12852095067501068, 0.28645607829093933, 0.27929258346557617, -0.12807528674602509, -0.3146386444568634, -0.15311618149280548, 0.14866706728935242, -0.6438977718353271, 0.30914485454559326, -0.3642027974128723, -0.2063884288072586, -0.263622522354126, 0.010276300832629204, 0.1472448855638504, -0.0987384021282196, 0.1511525809764862, 0.19775596261024475, -0.2016291618347168, -0.1943732351064682, 0.022393926978111267, -0.026653245091438293, 0.10869503766298294, 0.227676659822464, -0.37044557929039, 0.32336828112602234, -0.49076223373413086, 0.1973942071199417, -0.33898860216140747, 0.25661566853523254, 0.027019793167710304, -0.37348616123199463, -0.0683978945016861, 0.33037662506103516, 0.1447344720363617], [0.2986215353012085, -0.12732045352458954, 0.15645140409469604, -0.27581584453582764, -0.05116083472967148, -0.40836474299430847, -0.027219487354159355, -0.2183815836906433, 0.11044562608003616, 0.25105854868888855, 0.23832091689109802, -0.24186939001083374, 0.20829957723617554, -0.10515687614679337, -0.015291421674191952, -0.3542589843273163, -0.27004221081733704, 0.2806410491466522, -0.33149388432502747, -0.13439951837062836, -0.01070397812873125, -0.12473737448453903, -0.41662919521331787, -0.36353886127471924, 0.24451085925102234, 0.34442129731178284, -0.5419405698776245, -0.7869194149971008, 0.01929808035492897, -0.014127662405371666, -0.10360411554574966, 0.21778203547000885, 0.17924590408802032, -0.17111295461654663, -0.0624169185757637, -0.11011821776628494, -0.0478334054350853, 0.4628423750400543, 0.36922910809516907, -0.22827066481113434, 0.291333943605423, 0.24462637305259705, -0.03202611580491066, 0.1059766337275505, 0.48710453510284424, -0.12806545197963715, -0.4370494484901428, -0.0669783353805542, -0.15064044296741486, 0.4526815116405487], [0.1049637496471405, 0.3399418294429779, 0.06836076080799103, -0.012994255870580673, 0.15279318392276764, -0.2844036817550659, -0.10829601436853409, 0.23790343105793, -0.0009319763630628586, 0.15280352532863617, -0.025224125012755394, 0.16787894070148468, -0.338998019695282, -0.08378063142299652, 0.0441165566444397, -0.19250738620758057, 0.16824674606323242, -0.1623968929052353, 0.19928143918514252, -0.19421471655368805, -0.01943487673997879, 0.40400683879852295, 0.27407723665237427, -0.34405261278152466, -0.4051477015018463, 0.3026747703552246, -0.09746871143579483, -0.2115555703639984, 0.05672924220561981, 0.1726492941379547, 0.19261761009693146, -0.4562775492668152, 0.17096444964408875, -0.1802760660648346, 0.4373430907726288, 0.19488674402236938, 0.40285491943359375, -0.18564724922180176, 0.024495534598827362, -0.48849260807037354, -0.0017699035815894604, -0.7327604293823242, -0.0747748464345932, -0.2267128974199295, 0.25072386860847473, -0.10846131294965744, 0.07903937250375748, -0.04495209828019142, 0.062065839767456055, -0.22963541746139526], [-0.20866821706295013, -0.20934300124645233, -0.1413564532995224, 0.21150265634059906, 0.253927081823349, -0.28951939940452576, -0.042144522070884705, -0.12346837669610977, -0.2063600867986679, -0.05336201936006546, -0.20949925482273102, 0.06063133478164673, 0.30883151292800903, -0.05597764998674393, -0.36980679631233215, -0.38675448298454285, 0.18576309084892273, -0.28362804651260376, -0.17605596780776978, -0.2637968957424164, 0.06860481947660446, 0.14637066423892975, 0.15773065388202667, -0.07228934019804001, -0.2074187695980072, 0.07646646350622177, -0.057988982647657394, -0.6064184904098511, 0.3402829170227051, -0.0763571634888649, -0.3988663852214813, 0.28845667839050293, 0.06711897253990173, 0.08995040506124496, 0.021035904064774513, 0.016440773382782936, 0.2882855534553528, 0.1208200752735138, 0.42390358448028564, -0.3403267562389374, -0.30174294114112854, -0.18469670414924622, 0.25098085403442383, -0.09154777228832245, -0.11309908330440521, 0.1356309950351715, 0.715853750705719, 0.46497300267219543, 0.5340269804000854, 0.25644341111183167], [0.046783171594142914, -0.13115456700325012, -0.08448190242052078, 0.07292410731315613, -0.09347318112850189, 0.09291849285364151, -0.03483419865369797, 0.10459017008543015, -0.13469353318214417, 0.14511117339134216, -0.17163801193237305, 0.0029851184226572514, 0.07660210877656937, 0.16047385334968567, -0.1502639204263687, 0.004758043214678764, -0.10994702577590942, -0.10684680938720703, -0.01928361877799034, -0.08733534067869186, -0.08605104684829712, -0.11189358681440353, 0.13465707004070282, -0.16146120429039001, -0.1629122942686081, -0.1567603200674057, -0.15618298947811127, -0.12316083908081055, 0.10958977788686752, 0.13828665018081665, -0.10850612819194794, 0.1594095528125763, -0.12929971516132355, -0.11899355053901672, -0.0827779620885849, 0.06076357513666153, 0.09721940755844116, 0.1402329057455063, -0.12351138889789581, -0.1525624692440033, 0.16206280887126923, -0.153887540102005, -0.1578151285648346, 0.14894363284111023, 0.1572204977273941, -0.16854062676429749, 0.14745546877384186, -0.04530566558241844, 0.1510440856218338, 0.13635459542274475], [-0.6198851466178894, -0.5483636260032654, 0.16591042280197144, -0.33964529633522034, 0.39086151123046875, 0.3557754158973694, 0.10273612290620804, -0.21356569230556488, 0.18524765968322754, -0.1744958907365799, 0.4055454730987549, 0.3404608964920044, 0.08725402504205704, -0.5287753939628601, -0.3276681900024414, 0.3615628480911255, -0.11170156300067902, 0.0722065269947052, -0.1321544051170349, -0.3083428740501404, 0.527302086353302, 0.22776252031326294, 0.2407381683588028, 0.18807253241539001, 0.34930023550987244, -0.06342416256666183, -0.4015962481498718, -0.3957028388977051, 0.2515885829925537, 0.009199373424053192, -0.2833777666091919, -0.19084951281547546, 0.15939828753471375, -0.2205333113670349, 0.15701064467430115, 0.5756406188011169, -0.37081295251846313, 0.7000470161437988, 0.6074035167694092, -0.3577679395675659, -0.4413766860961914, -0.42161431908607483, 0.11028750985860825, -0.4028852880001068, -0.16885347664356232, 0.16312794387340546, 0.44948506355285645, -0.7786282896995544, -0.06802351027727127, 0.3055594265460968], [-0.04382072389125824, 0.1756354719400406, -0.0922127440571785, -0.27243348956108093, 0.2862820029258728, -0.0780240073800087, -0.2635979950428009, 0.22344541549682617, 0.15974989533424377, -0.3390151858329773, 0.16577617824077606, 0.01998574286699295, -0.13773971796035767, 0.31098097562789917, 0.4315011501312256, -0.07535315304994583, 0.42748403549194336, -0.15379256010055542, 0.14508245885372162, 0.006358902435749769, 0.4749375879764557, -0.4147883653640747, 0.71494060754776, -0.23973633348941803, -0.17118482291698456, -0.6623828411102295, 0.3679437041282654, -0.03063165210187435, -0.03261399269104004, 0.18061241507530212, -0.20337428152561188, 0.12628117203712463, 0.3902992606163025, -0.05017216503620148, 0.03735862672328949, 0.217205211520195, 0.3177947700023651, 0.2785986065864563, 0.23279628157615662, 0.2524231970310211, 0.038555219769477844, -0.32561996579170227, -0.09264861047267914, -0.13286001980304718, 0.35042884945869446, 0.03372075781226158, 0.35884889960289, 0.02036776766180992, 0.13476994633674622, -0.01985960640013218], [-0.18547308444976807, -0.19230596721172333, 0.008843151852488518, 0.22263017296791077, 0.1776779592037201, 0.2144765704870224, 0.09163346886634827, -0.04645320028066635, -0.578550398349762, 0.13313856720924377, -0.08539719879627228, -0.20559337735176086, 0.056015364825725555, 0.35547468066215515, -0.0019305001478642225, -0.19477342069149017, 0.188998743891716, -0.26488229632377625, -0.22110919654369354, -0.2661510705947876, 0.2197272628545761, 0.2424006462097168, 0.5842621326446533, -0.0445878691971302, -0.19125117361545563, 0.09012604504823685, 0.04680542275309563, -0.17849107086658478, 0.2982405424118042, 0.13675035536289215, -0.01019812747836113, -0.024180343374609947, 0.1583901047706604, -0.017408214509487152, 0.2328815907239914, 0.03019622340798378, 0.3432604968547821, 0.5139592885971069, 0.4095056653022766, -0.2970357835292816, -0.026218779385089874, -0.19320914149284363, 0.25456175208091736, -0.06891705095767975, 0.38900527358055115, 0.320434033870697, 0.6017484664916992, 0.3938760757446289, 0.2055494636297226, 0.2597081661224365], [0.6646334528923035, 0.6229464411735535, -0.04291582852602005, -0.8483881950378418, -0.630931556224823, 0.2455277144908905, -0.6747169494628906, 0.15578638017177582, 0.025082675740122795, -0.10848355293273926, 0.05033817142248154, -0.6164700388908386, 0.6278429627418518, 0.25186580419540405, 0.2342565506696701, 0.02515956573188305, 0.25102850794792175, 0.7888460755348206, -0.477304071187973, -0.5431848168373108, 0.23508138954639435, 0.45127636194229126, 0.3368092477321625, -0.19060277938842773, -0.6820486187934875, 0.6349076628684998, 0.21788662672042847, 0.21873468160629272, -0.8523110747337341, -0.6913036108016968, -0.43185746669769287, 0.15755552053451538, 0.06917081773281097, 0.9030714631080627, 0.4147982895374298, -0.27698028087615967, -0.2873367965221405, 0.6367309093475342, 0.1046844944357872, 0.7079789042472839, 0.4473167955875397, 0.6950400471687317, 0.3603813946247101, 0.4159729480743408, -0.3359968662261963, -0.6781789064407349, -0.6034826040267944, -0.12612976133823395, -0.1153988167643547, -0.32528987526893616], [0.6588028073310852, -0.20181730389595032, 0.04736514016985893, -0.5136144161224365, 0.013826070353388786, 0.018673531711101532, 0.08596176654100418, 0.253129243850708, -0.18735536932945251, -0.05412432551383972, 0.22807623445987701, -0.02173422835767269, -0.6206051707267761, 0.6210051774978638, 0.10792678594589233, 0.009149245917797089, -0.284320592880249, -0.4599268138408661, -0.07596325129270554, -0.5490190982818604, 0.4696187376976013, 0.43285247683525085, 0.7410428524017334, 0.45413321256637573, -0.10378037393093109, -0.029569009318947792, 0.09968520700931549, -0.12641988694667816, -0.0917593389749527, 0.45437127351760864, 0.5875927209854126, -0.5539816617965698, 0.1464509218931198, 0.2074352204799652, -0.16802836954593658, 0.37145447731018066, 0.25638920068740845, 0.03264966607093811, -0.12455307692289352, 0.4500875174999237, 0.372127890586853, 0.24408450722694397, -0.0459732711315155, -0.1189694032073021, -0.03574495017528534, 0.6173934936523438, 0.2743692696094513, 0.038814861327409744, -0.17722150683403015, -0.2481750249862671], [0.1748128980398178, -0.2366592437028885, 0.02519279532134533, 0.08469819277524948, -0.25292691588401794, 0.2431841343641281, 0.08847915381193161, -0.14468657970428467, -0.030337056145071983, -0.12198219448328018, -0.6002517938613892, 0.0841003879904747, 0.26299142837524414, -0.06484666466712952, -0.014395014382898808, -0.03804945573210716, 0.18990331888198853, -0.10245125740766525, 0.17698431015014648, -0.416535347700119, 0.19723926484584808, 0.5514560341835022, -0.12150914967060089, -0.18372386693954468, -0.6040626764297485, 0.034660425037145615, -0.1901160180568695, -0.09077148139476776, 0.22663193941116333, -0.043892960995435715, 0.0065639205276966095, 0.4915625751018524, 0.27677464485168457, 0.1315753310918808, -0.3171350359916687, 0.13391686975955963, 0.20230227708816528, 0.05552661418914795, 0.505197286605835, -0.07647772878408432, -0.5547820925712585, -0.27363884449005127, -0.06063113361597061, -0.05031980201601982, 0.030113881453871727, 0.07687516510486603, 0.2520430088043213, 0.22613412141799927, 0.18021033704280853, 0.13187888264656067], [-0.04448048770427704, 0.23329366743564606, 0.3361701965332031, -0.24264471232891083, 0.31963521242141724, -0.3420885503292084, 0.4290549159049988, -0.02468198351562023, -0.009715215303003788, 0.13623104989528656, -0.030130784958600998, 0.275476336479187, 0.017930524423718452, -0.10135729610919952, 0.05224759504199028, 0.14727824926376343, -0.08995277434587479, -0.20691607892513275, 0.5170105695724487, -0.47875073552131653, 0.1949395090341568, 0.1551876962184906, -0.0869365707039833, 0.0210773553699255, -0.29737985134124756, 0.2758040726184845, -0.16252672672271729, -0.1668969988822937, 0.07378791272640228, -0.1192106306552887, 0.1950334906578064, -0.44636860489845276, -0.3894804120063782, -0.12347802519798279, 0.30183878540992737, 0.2044180929660797, 0.02904459647834301, -0.16343052685260773, 0.018326977267861366, -0.22545455396175385, 0.28009429574012756, -0.2666041851043701, 0.312931627035141, 0.20856834948062897, 0.2588774859905243, 0.07784920185804367, 0.29560554027557373, -0.46321582794189453, 0.05168360099196434, -0.6518004536628723], [-0.2462097704410553, -0.20340371131896973, 0.2889220416545868, -0.22693860530853271, 0.17150290310382843, 0.1237926036119461, 1.1584889888763428, -0.976065456867218, 0.22775126993656158, 0.030239436775445938, -0.24843043088912964, -0.4611855745315552, -0.7153797745704651, 0.3319024443626404, -0.1587924063205719, -0.8123218417167664, 0.17612367868423462, 0.20375902950763702, 0.1484803706407547, 0.22204641997814178, 0.12323734164237976, -0.11397957056760788, 0.6547310948371887, -0.8025628924369812, 0.2395779937505722, 0.07526276260614395, 0.22816202044487, 0.4766145944595337, 0.26272904872894287, -0.03498474135994911, -0.4648517668247223, 1.0948073863983154, 0.2131350040435791, 0.6476096510887146, -0.17667488753795624, -0.04540996253490448, -0.28325968980789185, -0.8687195181846619, -0.8107510209083557, 0.3918633759021759, -0.3120277225971222, 0.24271857738494873, 0.0944414883852005, 1.1370412111282349, -0.6473366618156433, 0.33525350689888, -0.015244641341269016, 0.19314086437225342, -0.9347110986709595, 0.2841908037662506], [0.18737861514091492, 0.6490155458450317, -0.25501713156700134, -0.3358013331890106, -0.701633870601654, 0.27055221796035767, -0.5328958034515381, -0.3815712034702301, -0.6879029870033264, -0.35399794578552246, -0.6136692762374878, -0.27084848284721375, 0.24747027456760406, 0.4559871256351471, 0.6078737378120422, 0.6348943710327148, 0.6332473754882812, 0.3363429307937622, -0.3295205533504486, 0.42744550108909607, -0.5420777797698975, 0.490612268447876, -0.05154673755168915, 0.5353279113769531, -0.1362452507019043, 0.17446750402450562, -0.024779027327895164, 0.7053378224372864, -0.3701147139072418, -0.4687710702419281, -0.38156214356422424, -0.8287017941474915, 0.7744086384773254, 0.43230006098747253, 0.9096081852912903, 0.4770940840244293, 0.3581779897212982, 0.18249014019966125, -0.9712052941322327, 0.2653271555900574, -0.22760885953903198, 0.42078542709350586, -0.6302853226661682, -0.0783466026186943, 0.024441368877887726, -0.3802730441093445, -0.2769133448600769, -0.29446783661842346, 0.7811208367347717, -0.40972065925598145], [0.02499507926404476, -0.11574004590511322, -0.09012266248464584, -0.09414198249578476, 0.08054957538843155, -0.020803270861506462, 0.009456712752580643, 0.0966583639383316, -0.047253262251615524, 0.12514691054821014, 0.1867760866880417, 0.05558805912733078, -0.1066693514585495, -0.03313308209180832, 0.17549927532672882, -0.16287046670913696, -0.10837537795305252, 0.022955182939767838, -0.0985182672739029, -0.09869042038917542, -0.1436256319284439, 0.14020928740501404, 0.16182269155979156, -0.08891990780830383, 0.0778554230928421, -0.16842618584632874, -0.15133021771907806, -0.15781359374523163, 0.0777946412563324, 0.17369280755519867, -0.17296791076660156, -0.09654637426137924, -0.009311409667134285, -0.11887078732252121, 0.16311538219451904, -0.022733531892299652, -0.042602624744176865, 0.1650075763463974, -0.1271507441997528, -0.17633375525474548, 0.16918177902698517, -0.14027905464172363, 0.1572781801223755, 0.06076837331056595, 0.12669558823108673, -0.11854587495326996, 0.12677119672298431, 0.10461244732141495, 0.1723877489566803, 0.16349658370018005], [0.23087458312511444, 0.06622662395238876, 0.43169134855270386, -0.012094649486243725, -0.31113019585609436, 0.30533790588378906, -0.4162900447845459, 0.2441396564245224, -0.08701565861701965, 0.10826174169778824, -0.2721664607524872, -0.2618654668331146, -0.16907495260238647, -0.24035023152828217, 0.207021564245224, 0.4757947027683258, 0.08854491263628006, 0.4533421993255615, 0.5254368185997009, -0.4439677298069, -0.026271048933267593, 0.33505669236183167, -0.5566093921661377, -0.24950504302978516, -0.06870566308498383, -0.31741276383399963, -0.1740645170211792, -0.1290728747844696, 0.24226582050323486, -0.3421517014503479, -0.07448402792215347, 0.18651844561100006, 0.12190177291631699, -0.4061781167984009, -0.30646979808807373, 0.2833348214626312, -0.15356633067131042, -0.04905540496110916, 0.06802886724472046, 0.22275173664093018, -0.10046989470720291, -0.15691101551055908, -0.3074564039707184, -0.16009633243083954, 0.07440370321273804, -0.010629530064761639, -0.18498194217681885, -0.2821645438671112, -0.0416172556579113, 0.24259892106056213], [0.6191120147705078, -0.2350488305091858, -0.16634230315685272, -0.3257564902305603, 0.6341161727905273, 0.11785276234149933, 0.14632736146450043, 0.4590476453304291, 0.1874665766954422, -0.14203783869743347, -0.06761878728866577, 0.1316540539264679, -1.0508642196655273, 0.5284251570701599, 0.12840226292610168, -0.016974441707134247, -0.1645497828722, 0.088541679084301, -0.13785552978515625, 0.3043597638607025, -0.6312398314476013, -0.5068128705024719, 0.2865884006023407, -0.949130117893219, -0.4193551540374756, 0.45342251658439636, 0.06219813972711563, -0.1568193882703781, -0.1502288281917572, -0.2595382034778595, -0.010663888417184353, -0.3510293960571289, 0.046142999082803726, -0.3826863169670105, 0.4110167622566223, -0.02065257541835308, -0.2406965047121048, 0.11264361441135406, 0.31614500284194946, -0.29651546478271484, -0.36517855525016785, -0.906089723110199, -0.40658098459243774, -0.7595630884170532, 0.4159758985042572, 0.19398853182792664, -0.22593320906162262, 0.23077212274074554, 0.2857262194156647, -0.11902719736099243], [0.05712895840406418, -0.2840716242790222, -0.5321948528289795, 0.02711654268205166, 0.17117048799991608, 0.2272617518901825, 0.21546973288059235, -0.6236619353294373, 0.14283870160579681, 0.4470493793487549, -0.020296411588788033, -0.40401893854141235, 0.4352119266986847, -0.41360509395599365, 0.3142080307006836, -0.19853122532367706, 0.04675382003188133, 0.12423264980316162, 0.34880775213241577, 0.01944095455110073, -0.07119321823120117, -0.09633482992649078, -0.21838630735874176, -0.5852236151695251, 0.23534484207630157, 0.21917186677455902, -0.23484908044338226, -0.2858758866786957, -0.3213586211204529, 0.3535020649433136, -0.16259777545928955, -0.13655510544776917, 0.15552131831645966, -0.10621432960033417, -0.47464069724082947, -0.03107595443725586, -0.018707215785980225, 0.47335076332092285, 0.09671615064144135, -0.25816333293914795, 0.19952872395515442, 0.0765652284026146, 0.20669351518154144, 0.01003069058060646, 0.248845636844635, -0.15929493308067322, 0.23430970311164856, -0.60868239402771, 0.08610036224126816, 0.13004547357559204], [0.2616097331047058, -0.14683552086353302, 0.41104820370674133, 0.21748514473438263, -0.07379990816116333, -0.32664355635643005, 0.11195547878742218, 0.1534167379140854, 0.6540138125419617, -0.38484692573547363, -0.15657396614551544, 0.16305260360240936, -0.4598873555660248, 0.49006497859954834, 0.10888583958148956, 0.28290340304374695, 0.2656157314777374, 0.13283802568912506, -0.3994757831096649, -0.11761677265167236, -0.2778778076171875, -0.4001413583755493, 0.06243288144469261, -0.47143879532814026, 0.27698227763175964, 0.35799214243888855, -0.061632029712200165, -0.8701523542404175, 0.012447007931768894, -0.726081132888794, -0.01299699954688549, -0.32814496755599976, -0.1110871285200119, -0.17546632885932922, -0.036705370992422104, -0.5344893932342529, -0.37304434180259705, 0.5095558762550354, 0.42301443219184875, -0.22132357954978943, -0.3286322057247162, 0.2110903263092041, -0.6381452679634094, -0.20799461007118225, -0.22670547664165497, 0.03246258571743965, -0.3496394157409668, 0.4253973364830017, -0.6257985234260559, 0.34126177430152893], [-0.05399578437209129, 0.37539416551589966, 0.47390156984329224, 0.003055879147723317, 0.1630132645368576, 0.20940716564655304, 0.07675103843212128, -0.12538224458694458, -0.04787010699510574, 0.21628443896770477, 0.01481784600764513, 0.2123703807592392, 0.36944854259490967, -0.06563946604728699, 0.07208135724067688, 0.17436975240707397, -0.411088228225708, -0.13761037588119507, 0.2046351134777069, -0.46175065636634827, 0.5542108416557312, 0.1871645152568817, 0.01847485452890396, -0.44820448756217957, 0.0582437627017498, 0.32994985580444336, -0.41052713990211487, -0.14836964011192322, 0.31248748302459717, -0.05394892767071724, 0.20510903000831604, -0.3670543134212494, -0.09335789084434509, 0.1682586371898651, 0.3896932601928711, 0.35071977972984314, 0.31991440057754517, -0.2967606484889984, 0.005779951810836792, -0.19076597690582275, -0.02096416987478733, 0.03724373131990433, -0.09290905296802521, 0.10774409770965576, 0.25207531452178955, -0.24309810996055603, 0.38051560521125793, 0.13399659097194672, 0.06375963240861893, -0.20428399741649628], [0.12498573213815689, 0.15199340879917145, 0.24933196604251862, -0.25814080238342285, 0.01808427833020687, 0.2621811330318451, 0.48212146759033203, -0.21266275644302368, 0.14006663858890533, 0.29721763730049133, -0.17840012907981873, 0.1192915141582489, 0.5823968052864075, -0.08802410960197449, -0.06269361078739166, -0.17924435436725616, -0.48802825808525085, 0.2616007626056671, 0.34109771251678467, 0.07979108393192291, -0.03836806118488312, -0.12258722633123398, -0.2486172914505005, -0.24658013880252838, 0.30143189430236816, 0.2520557641983032, -0.6699166893959045, -0.3765762746334076, 0.029540210962295532, 0.15883658826351166, -0.07991738617420197, 0.28034353256225586, -0.05232563614845276, 0.20513327419757843, -0.20006267726421356, 0.48389187455177307, -0.0027121463790535927, 0.4373685419559479, 0.26215416193008423, -0.22933290898799896, -0.0017674993723630905, 0.38598617911338806, 0.19301211833953857, -0.10006362199783325, 0.32886165380477905, -0.2966647446155548, -0.3892515003681183, -0.0827675610780716, -0.07151753455400467, 0.07545258104801178], [-0.35440823435783386, 0.33573758602142334, 0.23287519812583923, 0.0687992125749588, 0.09096989780664444, -0.14534494280815125, -0.06353266537189484, -0.3362308442592621, -0.6259403228759766, -0.855392336845398, -0.4930651783943176, -0.22813551127910614, 0.1610584259033203, -0.11384814977645874, -0.38314563035964966, 0.6893225908279419, 0.6081483364105225, 1.1586425304412842, -0.18116594851016998, -0.36580196022987366, 0.38812267780303955, -0.9489039778709412, -0.2265242040157318, 0.2848067879676819, -0.24571843445301056, -0.6795733571052551, -0.001928069512359798, 0.6534742116928101, -0.3508300483226776, 0.35166895389556885, -0.24794121086597443, -0.6875485181808472, 0.7341868281364441, 0.3430054485797882, 0.863105058670044, -0.4492676258087158, 0.026757778599858284, 0.24927514791488647, -0.13560952246189117, 0.2638048827648163, 0.13234323263168335, 0.3906211853027344, 0.545428991317749, -0.16999971866607666, -0.011865787208080292, -0.2783261239528656, -0.44479572772979736, -0.4780180752277374, 0.754235565662384, -0.06750883907079697], [0.5761781334877014, -0.18940377235412598, -0.25606292486190796, 0.24558593332767487, -0.09975633770227432, 0.22552920877933502, 0.022951724007725716, -0.0003275871276855469, 0.17914630472660065, -0.35316139459609985, 0.566287636756897, -0.23046109080314636, -0.6071561574935913, 0.9903526902198792, 0.6832238435745239, 0.501885175704956, 0.3081493377685547, 0.010830559767782688, -0.09139081835746765, -0.1739226132631302, 0.2062951624393463, -0.36367151141166687, 0.340668648481369, -0.32022011280059814, 0.12750883400440216, -0.13500568270683289, 0.20876768231391907, -0.14250503480434418, -0.24263796210289001, -0.05568943917751312, -0.023238135501742363, -0.29675498604774475, 0.033582039177417755, -0.17377988994121552, 0.2693471908569336, -0.09929762035608292, 0.3603259027004242, 0.7474881410598755, 0.4526446461677551, 0.26927274465560913, -0.29730916023254395, -0.12640011310577393, -0.4016343355178833, -0.18662209808826447, 0.42222440242767334, 0.4586750566959381, 0.5296728610992432, 0.04446031153202057, -0.3884717524051666, -0.18138974905014038], [-0.04396559298038483, 0.6486958265304565, 0.3581666648387909, -0.025199702009558678, 0.17807991802692413, 0.19136251509189606, 0.01972890831530094, -0.1852441281080246, 0.03295346349477768, 0.154189795255661, -0.05291890352964401, 0.1997852921485901, 0.030560161918401718, -0.1733601689338684, 0.38393160700798035, 0.17322593927383423, 0.09687501937150955, -0.15284612774848938, 0.19080311059951782, -0.0034537899773567915, 0.15136270225048065, 0.3543640673160553, -0.20349155366420746, -0.013504746370017529, 0.05159653723239899, 0.6542661786079407, -0.11509446054697037, -0.23243610560894012, 0.11520116776227951, 0.4783916473388672, 0.21154293417930603, -0.418819785118103, -0.3596636652946472, 0.08785949647426605, 0.003202879335731268, 0.0016732912044972181, 0.04716000705957413, -0.07718345522880554, -0.013433619402348995, -0.2061958909034729, 0.18236307799816132, -0.2374197393655777, -0.08100459724664688, 0.5537975430488586, 0.5401074290275574, -0.08278324455022812, 0.29502907395362854, -0.20240700244903564, 0.04698469117283821, -0.23073051869869232], [-0.08825086057186127, -0.07278956472873688, -0.0667610689997673, 0.29532191157341003, 0.09377230703830719, -0.22580091655254364, 0.23562514781951904, -0.5483849048614502, 0.06226254999637604, -0.08999654650688171, 0.29120370745658875, 0.15313585102558136, 0.4611343741416931, -0.3904944062232971, 0.05711797624826431, 0.17246831953525543, -0.2259860783815384, -0.46603643894195557, 0.3018060624599457, -0.5037887692451477, 0.18644709885120392, 0.20588120818138123, -0.2516705393791199, -0.006443558260798454, 0.05211976170539856, 0.3299928307533264, -0.11081835627555847, -0.3406604528427124, -0.23503361642360687, -0.08916055411100388, 0.1705532819032669, -0.4881283640861511, 0.1191038265824318, -0.08648024499416351, 0.08953072130680084, -0.0485350601375103, 0.322393000125885, -0.18933530151844025, -0.2621927261352539, -0.26384636759757996, -0.2842637896537781, -0.637996256351471, -0.09008107334375381, 0.24956068396568298, 0.17114433646202087, 0.012228616513311863, 0.259112685918808, -0.19415314495563507, 0.12876039743423462, 0.3799522817134857], [-0.15194936096668243, -0.043689027428627014, -0.15747302770614624, 0.2384900152683258, 0.07126184552907944, -0.22576019167900085, 0.26156067848205566, -0.543490469455719, -0.013970304280519485, 0.6387878060340881, 0.16515256464481354, 0.040566351264715195, 0.002657574601471424, -0.40963539481163025, -0.00015428406186401844, 0.17991983890533447, -0.13536426424980164, -0.24750757217407227, -0.14033713936805725, -0.4903959035873413, 0.21561267971992493, 0.17075121402740479, -0.1960800290107727, -0.03883056715130806, 0.059697601944208145, 0.3212595582008362, -0.049575090408325195, -0.2790771722793579, -0.2596700191497803, 0.16274403035640717, 0.12504544854164124, -0.4372286796569824, -0.030134297907352448, -0.03823431208729744, 0.36244630813598633, -0.11924658715724945, 0.3284708261489868, -0.19746935367584229, -0.35209551453590393, -0.34015536308288574, -0.16356389224529266, -0.5970861315727234, -0.12220308929681778, 0.1293550729751587, 0.16397443413734436, -0.11220481991767883, 0.24238371849060059, -0.2687790095806122, 0.10362634062767029, -0.1605415940284729], [0.29137709736824036, -0.9589100480079651, -0.5884867310523987, 0.782132625579834, -0.2684749960899353, 0.26505807042121887, 0.7861531376838684, -0.8813996315002441, 0.22499173879623413, 0.71379554271698, 0.2215568870306015, -0.04981560632586479, -0.17921039462089539, 0.059753548353910446, -0.027981190010905266, 0.6025581955909729, 0.32511106133461, -0.3299865126609802, -0.07116442918777466, -0.1798645257949829, -0.3426538109779358, -0.4449308216571808, -0.5326561331748962, -0.8988514542579651, 0.36622852087020874, 0.5811811089515686, 0.014045109041035175, -0.21132619678974152, -0.7765862345695496, -0.12948130071163177, -0.1146010160446167, -0.3920425474643707, -0.04111296311020851, -0.2609950006008148, -0.03462301194667816, -0.5447818636894226, -0.4510227143764496, 0.627059280872345, -0.06467548757791519, -0.32371950149536133, -0.8454528450965881, -0.77415931224823, -0.5049690008163452, -0.2530302405357361, 0.3497105538845062, -0.008578874170780182, 0.216399148106575, -0.23402273654937744, 0.4458625316619873, -0.051288023591041565], [-0.42901119589805603, 0.5927892923355103, -0.17256134748458862, -0.001753251999616623, 0.3481923043727875, -0.00948604941368103, 0.09740927815437317, 0.3020365536212921, -0.06453299522399902, 0.032222967594861984, -0.1351531744003296, -0.1683705449104309, 0.2713124752044678, 0.08960753679275513, 0.5160160660743713, 0.12560002505779266, -0.04917668178677559, -0.18321789801120758, 0.3188932240009308, 0.1950145959854126, 0.09717702120542526, 0.25298988819122314, 0.0759899914264679, 0.3707529902458191, -0.05968988686800003, 0.7028151154518127, -0.08746044337749481, -0.25580549240112305, -0.24245095252990723, -0.4475173354148865, -0.036328449845314026, -0.08130873739719391, 0.3591088056564331, 0.28608542680740356, -0.29003003239631653, 0.2253415882587433, 0.45122218132019043, -0.30809396505355835, 0.5180631279945374, -0.14390790462493896, 0.2584405243396759, -0.3142954707145691, -0.0907992348074913, 0.3003714382648468, 0.3432997465133667, 0.01279358845204115, -0.06955230236053467, -0.037609875202178955, -0.08850239217281342, 0.12768669426441193], [-0.28848451375961304, 0.5181348919868469, 0.49207180738449097, -0.2016553282737732, -0.4440603256225586, -0.6024119853973389, 0.05808528512716293, 0.3054865002632141, -0.19473914802074432, 0.12776155769824982, 0.10254939645528793, -0.3982587158679962, -0.25538960099220276, -0.47296175360679626, 0.25931861996650696, 0.3327659070491791, 0.22118785977363586, 0.302013099193573, 0.6090254187583923, 0.16112835705280304, -0.06883307546377182, 0.5246738791465759, -0.49089351296424866, -0.08021388202905655, -0.02407880872488022, 0.05566381290555, 0.03578393533825874, 0.24721187353134155, 0.29546940326690674, 0.5147191882133484, -0.09875885397195816, -0.1454634815454483, -0.5105297565460205, 0.43941500782966614, -0.1681012362241745, 0.20161449909210205, -0.5503016710281372, 0.15761958062648773, -0.031033478677272797, 0.5616467595100403, 0.4719398021697998, -0.15447069704532623, 0.6011849045753479, 0.2663439214229584, 0.586652934551239, 0.050984740257263184, -0.27511531114578247, -0.5313542485237122, 0.26838570833206177, -0.1317930817604065], [-0.2821540832519531, -0.07074112445116043, -0.23915806412696838, -0.2591249942779541, 0.21645088493824005, 0.1335141509771347, -0.07967352867126465, -0.13553094863891602, -0.45083215832710266, -0.19151684641838074, 0.21246086061000824, 0.29364028573036194, 0.364879310131073, -0.03475780040025711, 0.22194890677928925, 0.25438597798347473, -0.0657457560300827, 0.16039076447486877, -0.41091635823249817, 0.03624165058135986, 0.2610754072666168, -0.15247783064842224, 0.16731160879135132, -0.3782042860984802, -0.3210744857788086, 0.3054681718349457, -0.3051730990409851, -0.20844653248786926, -0.32954275608062744, -0.2885655164718628, -0.2491958886384964, -0.18693014979362488, 0.13533666729927063, 0.16841958463191986, 0.043054960668087006, 0.17883777618408203, 0.13814988732337952, -0.07788582891225815, 0.15648290514945984, -0.35267385840415955, 0.23743034899234772, -0.2609332203865051, 0.14862769842147827, 0.2975035309791565, 0.25085610151290894, 0.43345189094543457, 0.419482946395874, 0.2788786292076111, -0.2797897756099701, 0.00014688214287161827], [-0.37077632546424866, 0.22578291594982147, -0.14673686027526855, 0.44609788060188293, 0.06615208089351654, -0.014799367636442184, -0.07866580784320831, 0.2866581082344055, 0.5521945357322693, 0.062302716076374054, 0.032536812126636505, 0.2415761649608612, 0.2547890245914459, 0.3718282878398895, 0.48806989192962646, -0.3574843406677246, -0.012776685878634453, -0.4875340163707733, 0.1780022829771042, -0.04806327074766159, 0.09696941822767258, 0.01149035431444645, 0.0820561870932579, 0.34060147404670715, -0.04805212840437889, 0.3534243404865265, -0.21631507575511932, -0.25915491580963135, -0.1315392404794693, -0.35353460907936096, 0.07546123117208481, -0.1670709252357483, 0.13397249579429626, 0.06425568461418152, 0.17698682844638824, 0.15456120669841766, -0.03508166968822479, -0.06756056100130081, 0.30237260460853577, -0.09912049770355225, 0.0016901267226785421, -0.2076384574174881, -0.07331518083810806, -0.06503237783908844, 0.07331659644842148, -0.48759225010871887, -0.06632546335458755, 0.15766625106334686, 0.1506623476743698, 0.5072659850120544], [-0.24251529574394226, -0.19872811436653137, -0.2078191190958023, -0.006247509736567736, -0.33143138885498047, -0.06238469481468201, 0.20388762652873993, -0.27584466338157654, 0.23804143071174622, 0.21558105945587158, -0.14432621002197266, 0.15974262356758118, -0.03313739225268364, -0.4320843517780304, -0.06878751516342163, -0.09949188679456711, 0.5035561323165894, -0.2741929888725281, -0.2537577748298645, 0.024576276540756226, 0.10402734577655792, -0.38690149784088135, 0.15889741480350494, -0.39689910411834717, -0.05977988988161087, -0.22588708996772766, 0.43747469782829285, -0.12401051074266434, -0.3252147138118744, 0.4118730425834656, -0.2555091083049774, -0.30467987060546875, 0.3313116729259491, -0.04951208084821701, 0.04568515345454216, -0.01386968046426773, -0.10409528762102127, 0.45293721556663513, -0.1584649682044983, -0.13666024804115295, -0.13322125375270844, -0.6301160454750061, -0.0721985325217247, -0.12365473806858063, 0.21172361075878143, -0.2796407639980316, 0.0014115823432803154, -0.07288430631160736, 0.2934750020503998, 0.06584880501031876], [-0.17207427322864532, -0.009849350899457932, -0.2137991040945053, 0.12735804915428162, -0.22197383642196655, -0.013208024203777313, 0.11937439441680908, 0.22322194278240204, 0.3526450991630554, 0.485178142786026, 0.2883763015270233, 0.010842472314834595, 0.03747430071234703, -0.3020174205303192, 0.2838231325149536, 0.1392832249403, 0.4726036787033081, 0.12650436162948608, 0.30948999524116516, -0.4047692120075226, 0.12210027873516083, 0.16892728209495544, 0.193078875541687, -0.34756821393966675, -0.44874805212020874, 0.12693877518177032, -0.158747598528862, -0.07018454372882843, 0.2628696858882904, 0.10511628538370132, 0.03640909492969513, 0.07230772078037262, 0.0523519404232502, 0.014532983303070068, -0.3825908899307251, 0.05911453813314438, 0.06446678191423416, 0.3104364573955536, -0.022911738604307175, 0.3090144097805023, 0.3808879852294922, 0.5144028067588806, -0.2977087199687958, -0.09915388375520706, 0.25754132866859436, 0.28297632932662964, 0.019252460449934006, 0.3900930881500244, -0.33315056562423706, -0.32794588804244995], [0.1517016887664795, 0.4473114311695099, 0.7518478631973267, -0.8006507754325867, -0.01588064432144165, -0.35794776678085327, 0.4050152599811554, -0.34039026498794556, -0.6894118785858154, -0.3267114460468292, -0.5511163473129272, -0.16423213481903076, 0.24320286512374878, 0.3294430673122406, -0.3987817168235779, 0.6642542481422424, 0.6369287967681885, 0.31654122471809387, 0.26231884956359863, -0.3907303214073181, -0.5206440091133118, -0.3240283727645874, -0.03164595738053322, 0.30674946308135986, -0.9132962226867676, 0.21116423606872559, -0.08992678672075272, 0.677030622959137, -0.37671127915382385, -0.418291300535202, 0.21245916187763214, -0.6324768662452698, -0.2286522537469864, 0.3859387934207916, 0.7365100979804993, -0.015602157451212406, -0.5203555822372437, 0.27524492144584656, -0.12438584864139557, 0.28210771083831787, 0.5980915427207947, 0.35955262184143066, 0.6804816126823425, -0.028473876416683197, 0.04715137928724289, -0.05754227563738823, -0.2854161560535431, -0.9641110301017761, 0.7613469958305359, -0.7875887751579285], [-0.04543231055140495, -0.45445823669433594, -0.16101762652397156, 0.529428243637085, 0.240831196308136, 0.3671022653579712, 0.5501970648765564, -0.17626899480819702, 0.21647168695926666, -0.7342533469200134, -0.0524263009428978, 0.8224510550498962, -0.5908718705177307, 0.15513113141059875, 0.10890287160873413, 0.6002360582351685, 0.13349610567092896, 0.7711645364761353, -0.03675224632024765, -0.10827410966157913, 0.41675153374671936, -0.9098610877990723, -0.39594632387161255, -0.38078540563583374, 0.23500189185142517, -0.37399065494537354, -0.03355836868286133, -0.1196228414773941, -0.17259840667247772, 0.16471487283706665, -0.37266483902931213, -0.38409659266471863, 0.044208887964487076, -0.3118119537830353, 0.352128803730011, -0.32589662075042725, -0.34244441986083984, -0.25583750009536743, 0.4684521555900574, -0.10102242231369019, 0.20082850754261017, -0.13316397368907928, 0.059404581785202026, -0.23216512799263, 0.3951971232891083, 0.11103588342666626, -0.07413376867771149, -0.047913990914821625, -0.2950815260410309, -0.23299530148506165], [0.24865420162677765, -0.11241035163402557, 0.3537519872188568, 0.3079676628112793, 0.04548024758696556, -0.07098861783742905, -0.13609223067760468, 0.03150176629424095, -0.18869493901729584, 0.14232942461967468, -0.29926398396492004, -0.022329220548272133, -0.016633497551083565, 0.14024566113948822, 0.45600104331970215, 0.15859423577785492, -0.16802699863910675, -0.39553362131118774, -0.23770000040531158, -0.1625809222459793, 0.190127894282341, -0.21063022315502167, -0.005009346175938845, -0.1543169468641281, -0.4506593346595764, -0.25890159606933594, 0.2569577097892761, -0.32359951734542847, -0.010175717994570732, -0.08801887929439545, -0.3283654749393463, -0.17740504443645477, -0.6942805647850037, 0.03565986454486847, -0.24291200935840607, 0.1629200577735901, -0.2213319092988968, 0.21384218335151672, 0.21051925420761108, 0.017846550792455673, -0.27088770270347595, -0.12164658308029175, 0.15403889119625092, 0.30544647574424744, 0.30229881405830383, 0.23176538944244385, -0.268093079328537, -0.41929081082344055, 0.017475120723247528, -0.5978426933288574], [-0.12606684863567352, 0.12404511123895645, -0.02395489625632763, 0.0860191360116005, 0.14218752086162567, -0.13164439797401428, 0.04962757229804993, 0.028796609491109848, 0.0445212796330452, 0.11264899373054504, 0.07337170094251633, -0.1455688178539276, 0.1218671128153801, -0.016329433768987656, 0.17874953150749207, 0.17331790924072266, 0.13307829201221466, -0.17462429404258728, -0.12409570813179016, -0.0893663838505745, 0.08470886945724487, -0.15980221331119537, 0.1526440680027008, -0.18048760294914246, 0.16202720999717712, 0.17081275582313538, -0.1631830483675003, -0.131259486079216, 0.06929858028888702, 0.07559604197740555, -0.016040509566664696, -0.09588172286748886, -0.09750277549028397, -0.08983127027750015, -0.1605527400970459, -0.0478859506547451, 0.11145719140768051, -0.08517502248287201, 0.06746198982000351, 0.15555095672607422, 0.03732927888631821, -0.1607281118631363, -0.17225868999958038, 0.13780538737773895, 0.05742162466049194, -0.07648294419050217, -0.10944502055644989, 0.10574620217084885, 0.15141209959983826, 0.14436021447181702], [-0.05694594606757164, 0.15261022746562958, 0.07916072010993958, -0.38012176752090454, 0.14214344322681427, 0.23574890196323395, 0.04962700232863426, 0.18120718002319336, 0.1051870584487915, 0.22761975228786469, 0.19925004243850708, 0.27343058586120605, -0.06314854323863983, -0.16504065692424774, 0.28598693013191223, 0.3325032889842987, -0.2503892183303833, -0.3394754230976105, -0.13084577023983002, 0.36737531423568726, -0.016600999981164932, 0.29828402400016785, 0.19594860076904297, -0.08757977187633514, 0.16124261915683746, 0.20907218754291534, -0.2582053542137146, -0.29822883009910583, -0.3354074954986572, -0.06786537915468216, -0.07613684982061386, -0.07696305960416794, -0.3665807247161865, 0.19790193438529968, -0.32776135206222534, 0.1149502545595169, 0.16377076506614685, -0.15973913669586182, 0.21882984042167664, 0.004001186229288578, -0.15305185317993164, -0.32992780208587646, 0.2683834135532379, 0.2009798288345337, 0.2128208428621292, -0.24574369192123413, -0.3503255546092987, -0.3984779417514801, 0.08509375154972076, 0.1507924348115921], [-0.03003951907157898, -0.07562147080898285, 0.06904298067092896, -0.03785933926701546, 0.14147989451885223, -0.63604336977005, -0.21370252966880798, -0.11861878633499146, -0.08249512314796448, 0.2662869691848755, 0.06574645638465881, 0.22835278511047363, 0.1466500461101532, -0.09526064246892929, 0.17556485533714294, 0.05521563068032265, -0.2628368139266968, -0.29222986102104187, -0.04190889745950699, -0.15377821028232574, 0.261488139629364, 0.08149026334285736, -0.274062842130661, -0.08595771342515945, 0.20239433646202087, 0.39612913131713867, -0.3948763310909271, -0.5713942050933838, 0.1033114492893219, -0.23632800579071045, -0.16996300220489502, -0.04669393599033356, 0.11489909887313843, -0.010998410172760487, 0.307818740606308, 0.041737668216228485, 0.6229650378227234, -0.1625140905380249, 0.2440253645181656, -0.05393040552735329, -0.016281306743621826, -0.22641395032405853, 0.27685827016830444, 0.18922170996665955, -0.1259704828262329, -0.1294984519481659, 0.7135036587715149, -0.22903403639793396, 0.10323108732700348, -0.24232813715934753], [0.5157214999198914, -0.5741119980812073, -0.1869359016418457, -0.42697301506996155, 0.2939542531967163, -0.4980141818523407, 0.05525452643632889, -0.1255495846271515, 0.3823167681694031, 0.27601730823516846, -0.5261319875717163, 0.09029729664325714, -0.17724289000034332, 0.5531502962112427, 0.29045435786247253, -0.4158386290073395, 0.27291131019592285, 0.7173941731452942, 0.27308744192123413, 0.5388481020927429, -0.245530903339386, -0.27700334787368774, 0.4013864994049072, 0.24235260486602783, -0.25763607025146484, -0.6043896079063416, -0.07913073897361755, -0.0020914841443300247, -0.6158156394958496, 0.203019917011261, -0.08389883488416672, 0.6572734117507935, -0.05899006873369217, -0.31150391697883606, -0.25040340423583984, 0.11511064320802689, -0.028115618973970413, 0.06621500849723816, -0.5952601432800293, -0.07302101701498032, -0.3778572082519531, -0.2894449830055237, 0.49234965443611145, -0.04561737924814224, 0.19777683913707733, -0.15708176791667938, 0.5379791259765625, 0.3819940388202667, -0.009213367477059364, 0.017008714377880096], [-0.14039656519889832, 0.3341939449310303, -0.3294084668159485, 0.14553619921207428, 0.030452797189354897, 0.07204028964042664, 0.04528229311108589, 0.1827854961156845, 0.09702153503894806, 0.34762924909591675, 0.22671429812908173, 0.4666387140750885, 0.11755526810884476, 0.1003909483551979, 0.025036398321390152, -0.18667522072792053, 0.4125482439994812, -0.048780445009469986, 0.2882729172706604, -0.5232855677604675, 0.14620177447795868, -0.22625015676021576, 0.3916262686252594, -0.2722034454345703, -0.16909372806549072, 0.1317969411611557, -0.1443406343460083, 0.3784796893596649, 0.1980942040681839, 0.1354721337556839, -0.42841634154319763, 0.033239539712667465, 0.26277875900268555, 0.07609347254037857, -0.31131136417388916, -0.022030824795365334, 0.013858972117304802, 0.06037098541855812, 0.07267896085977554, 0.40142273902893066, 0.3679428994655609, -0.04556535184383392, -0.29460036754608154, -0.03790454939007759, 0.2693917155265808, -0.1809219866991043, -0.0216615479439497, 0.04995354637503624, -0.2706795334815979, -0.22808533906936646], [-0.4446134865283966, 0.3826313018798828, -0.33282336592674255, 0.15583151578903198, 0.21550197899341583, 0.5164151787757874, -0.06353110074996948, 0.37300965189933777, 0.5407842397689819, 0.24979494512081146, -0.08371669799089432, -0.06926597654819489, -0.09296409785747528, -0.10608390718698502, 0.6449207663536072, -0.5403711199760437, -0.3185354173183441, -0.22765091061592102, 0.11933347582817078, -0.15262846648693085, -0.09396199882030487, -0.23627211153507233, -0.05841226503252983, -0.2710139751434326, -0.0022977320477366447, -0.03585542365908623, -0.13727419078350067, -0.34289056062698364, 0.14677226543426514, 0.16498525440692902, 0.22862637042999268, -0.418116956949234, 0.12670184671878815, -0.012156142853200436, 0.1153828576207161, -0.03478070721030235, -0.06245631352066994, 0.33563604950904846, -0.10258020460605621, -0.28039056062698364, -0.09923017770051956, -0.2050800323486328, 0.15479639172554016, -0.27186450362205505, -0.2215738296508789, -0.3222478926181793, 0.08061087876558304, 0.44560515880584717, 0.2615979313850403, 0.3173534870147705], [-0.3838846683502197, -0.11943618953227997, -0.13346166908740997, 0.1264682412147522, 0.22314392030239105, 0.24415506422519684, 0.10851520299911499, -0.3532577455043793, -0.18521638214588165, 0.09255599230527878, 0.19316472113132477, 0.4438149034976959, 0.20954476296901703, -0.018922317773103714, 0.4309471845626831, -0.3552517592906952, 0.02986053004860878, -0.04649372398853302, 0.18902577459812164, -0.0793524980545044, -0.12061367928981781, -0.10744065791368484, 0.03400731831789017, 0.42177048325538635, -0.13704776763916016, 0.21013228595256805, -0.05243523418903351, -0.22159092128276825, 0.07816215604543686, -0.07797802984714508, -0.17144449055194855, -0.1078854352235794, -0.16852302849292755, -0.06073414534330368, -0.38777807354927063, 0.027439067140221596, -0.0036689219996333122, 0.46164730191230774, -0.20136570930480957, 0.09476389735937119, 0.1641974300146103, -0.14453008770942688, 0.517134428024292, 0.13500751554965973, 0.23059383034706116, -0.42389753460884094, -0.16531027853488922, 0.13253921270370483, -0.013433542102575302, 0.3209908604621887], [0.07841802388429642, 0.468104749917984, -0.04098372906446457, 0.18622902035713196, -0.35061484575271606, 0.20991908013820648, -0.01669304445385933, 0.006490768864750862, 0.4029071033000946, -0.0860786959528923, -0.325438529253006, -0.5863088965415955, 0.0033009268809109926, 0.18544436991214752, 0.0020524130668491125, 0.0924086943268776, -0.25342118740081787, -0.3789865970611572, 0.12850387394428253, -0.030391324311494827, 0.0015314063057303429, -0.41886499524116516, 0.3191620111465454, 0.08396598696708679, 0.03590884804725647, -0.1620122492313385, -0.10809041559696198, -0.27415868639945984, 0.3360576629638672, -0.11646176129579544, -0.3550121784210205, -0.23505781590938568, 0.16733089089393616, 0.17653369903564453, -0.30803996324539185, 0.23839102685451508, 0.24769748747348785, 0.16253726184368134, -0.16810384392738342, -0.36514800786972046, 0.03636317700147629, -0.036622874438762665, -0.37723857164382935, 0.3953426480293274, -0.20915737748146057, 0.09240905940532684, 0.4443528652191162, 0.15426179766654968, 0.0022561857476830482, -0.4311668872833252], [-0.4626174867153168, 0.1814051866531372, 0.8246839046478271, 0.19460038840770721, -0.6057401895523071, -1.1758975982666016, -0.864886462688446, 0.3880070149898529, -0.4660183787345886, 0.10370943695306778, 0.2846018373966217, -0.5633581280708313, -0.12585967779159546, -0.3663442134857178, -0.23459993302822113, 0.19964614510536194, -0.3563743531703949, 0.4662913680076599, -0.15146569907665253, 0.2632392942905426, -0.0597815215587616, -0.08442851155996323, -0.2031218558549881, -0.22289054095745087, 0.5945780873298645, -0.4502642750740051, -0.3470751643180847, -0.5210983157157898, 0.53211909532547, -0.5955637693405151, -0.16407163441181183, -0.0940963551402092, 0.05427518114447594, 0.5966757535934448, 0.47578075528144836, 0.11306098103523254, -0.17078062891960144, 0.021748090162873268, -0.06508214771747589, 0.6871646642684937, 0.32643118500709534, 0.24198468029499054, 0.26360517740249634, -0.46942445635795593, -0.13082097470760345, -0.04287489876151085, 0.38588088750839233, -0.08154113590717316, 0.3965238928794861, 0.7346091866493225], [0.0009088250808417797, -0.030607787892222404, -0.14460596442222595, 0.13469624519348145, -0.4742739498615265, -0.15109902620315552, 0.08869865536689758, -1.0817289352416992, -0.6905792355537415, 0.6212712526321411, -0.22183804214000702, -0.5620318055152893, 0.24393494427204132, -0.21756242215633392, -0.4814929664134979, 0.7179673910140991, 0.6732553243637085, 0.24713587760925293, -0.9498690366744995, -0.401308536529541, -0.5378005504608154, -0.2816694378852844, -0.2529113292694092, 0.28780242800712585, -0.2528097331523895, 0.31477752327919006, 0.0795937180519104, 0.675105631351471, -1.0169718265533447, 0.09592929482460022, 0.09563806653022766, -0.6582613587379456, 0.7463622689247131, 0.4899612367153168, 0.8829379677772522, -0.6009506583213806, 0.02168492041528225, 0.2777818441390991, -0.8132620453834534, 0.022262800484895706, -0.11407078802585602, -0.2628938555717468, -0.04481031000614166, -0.16798001527786255, -0.09222409874200821, -0.3972630500793457, -0.28798574209213257, -0.633488118648529, 0.8578028678894043, 0.11626862734556198], [-0.3209722340106964, 0.34437912702560425, -0.04973775893449783, -0.2511386275291443, -0.10091473907232285, -0.31471702456474304, 0.07467299699783325, 0.3412981927394867, -0.21373285353183746, 0.12567616999149323, -0.013372460380196571, -0.19067738950252533, 0.013471471145749092, -0.3470979630947113, 0.16041919589042664, -0.17050239443778992, 0.07655981183052063, 0.10477262735366821, 0.12472794204950333, -0.1876935213804245, -0.10087825357913971, -0.27967292070388794, 0.20552262663841248, -0.22264276444911957, 0.058848582208156586, -0.0564708337187767, -0.20317068696022034, -0.2883168160915375, 0.1932200789451599, 0.05911637842655182, -0.28128355741500854, 0.2565816342830658, -0.1324407011270523, 0.0007498296909034252, 0.04723291099071503, -0.005711704026907682, 0.27106544375419617, 0.28201353549957275, 0.0827464833855629, -0.11552949994802475, -0.09771274030208588, -0.23941734433174133, 0.4682423770427704, -0.03246605023741722, -0.6017178893089294, 0.22253024578094482, 0.4803071618080139, 0.3895025849342346, 0.5239519476890564, -0.15564033389091492], [-0.4252796471118927, 0.5435453653335571, -0.02196226641535759, 0.6388072371482849, 0.22442014515399933, 0.6636965274810791, -0.6246331930160522, -0.036340393126010895, 0.7213485836982727, -0.40644559264183044, 0.5973321199417114, 0.1759873777627945, 0.01495986059308052, 0.4578014016151428, 0.37872111797332764, -1.1384693384170532, -0.4359510540962219, -0.5438455939292908, 0.4740544259548187, 0.5405488014221191, 0.361808180809021, 0.38378971815109253, -0.7836911678314209, 0.39248543977737427, 0.6762404441833496, 0.36241841316223145, 0.4798349440097809, 0.23452794551849365, -0.5169047713279724, -0.37937337160110474, 0.7335516214370728, -0.13622567057609558, 0.13799788057804108, -0.5600809454917908, -0.07548292726278305, -0.7111144065856934, -0.7140679359436035, 0.4922761023044586, -0.10226855427026749, -0.06185588985681534, 0.13695652782917023, 0.12512151896953583, -0.00022471207194030285, -0.8096667528152466, 0.016617661342024803, -0.46870723366737366, -0.17772501707077026, 0.5750913023948669, 0.12001194804906845, 0.3386975824832916], [0.41678088903427124, 0.5367892384529114, 0.5684243440628052, 0.5588802695274353, 0.23659536242485046, -0.38166531920433044, -0.0160515159368515, -0.18110759556293488, -0.19124411046504974, 0.36788350343704224, 0.36940276622772217, -0.17804864048957825, 0.9800801277160645, 0.15047843754291534, -0.09746422618627548, 0.9746928811073303, 1.050787329673767, 0.17826434969902039, -0.6942867040634155, 0.452443391084671, -1.1817773580551147, -0.19608038663864136, -0.4083135724067688, 1.1590704917907715, -0.6378225088119507, -0.4885173439979553, 0.8774434328079224, 0.23855718970298767, -0.8320268988609314, 0.2197854071855545, 0.5526589155197144, 0.10534840077161789, 0.40024125576019287, 1.0657089948654175, 0.5352173447608948, 0.15271371603012085, 0.3595315217971802, -0.38895702362060547, -0.4693697690963745, 1.2056306600570679, -0.786133885383606, 1.0417001247406006, 0.5039771795272827, -0.8089956641197205, -0.09545368701219559, 0.5116387605667114, -0.7014373540878296, 0.19203577935695648, 0.22101521492004395, -0.22735697031021118], [0.3189449608325958, -0.38089707493782043, -0.4488019049167633, -0.5479300022125244, -0.0370391383767128, -0.172840416431427, 0.3118431270122528, 0.13965772092342377, 0.42841556668281555, 0.4539966881275177, -0.309388130903244, 0.17430680990219116, 0.10865844041109085, 0.17799057066440582, 0.029293786734342575, -0.12341860681772232, 0.6029047966003418, 0.41202500462532043, 0.46487244963645935, 0.28990602493286133, -0.5492261648178101, -0.5260207056999207, -0.02901814505457878, -0.04078695923089981, 0.056581709533929825, -0.39172881841659546, 0.23803216218948364, 0.31587931513786316, -0.39208194613456726, -0.11846516281366348, -0.2124144285917282, 0.7921990752220154, 0.3373798429965973, -0.6675519943237305, 0.0871611014008522, 0.28102198243141174, -0.32155081629753113, -0.12284938246011734, -0.2715892791748047, -0.3157179057598114, -0.09453455358743668, -0.042966149747371674, 0.37736350297927856, 0.5717994570732117, 0.4802400767803192, 0.22240591049194336, 0.2967241406440735, 0.6425566673278809, 0.22404001653194427, 0.059180863201618195], [0.27168557047843933, -0.7164285778999329, 0.25395604968070984, 0.08729404956102371, 0.3546239137649536, -0.3647404611110687, 0.4877258837223053, -0.11220873147249222, 0.868076741695404, -0.46551087498664856, -0.3132976293563843, -1.0747090578079224, 0.029186446219682693, 0.09474759548902512, -0.24643340706825256, -0.35449403524398804, -0.589164674282074, 0.18557628989219666, -0.2624644935131073, 0.360454797744751, -0.2265729010105133, 0.5460299849510193, 0.031918227672576904, 0.195286825299263, -0.12952855229377747, -0.5358235836029053, 0.19388574361801147, 0.5615994334220886, -0.12491049617528915, 0.8977346420288086, -0.7090190649032593, 0.7185503840446472, -0.8706976771354675, -0.45639148354530334, 0.3873830735683441, -0.5725544691085815, -0.11245959252119064, -1.311475396156311, -0.05793432146310806, 1.0707346200942993, -0.9905717968940735, 0.2776201665401459, 0.36038506031036377, 0.62701016664505, 0.0010890727862715721, 0.11938173323869705, 0.621965765953064, 0.131869837641716, -0.479794442653656, 0.722511351108551], [-0.2322186976671219, -0.2568517029285431, -0.20899957418441772, -0.03064804896712303, 0.0663616955280304, 0.28324660658836365, 0.2801375985145569, -0.1796838939189911, 0.4349144697189331, -0.056640759110450745, -0.6065322160720825, 0.45252367854118347, -0.46750929951667786, 0.4859972894191742, 0.2819538414478302, 0.8145074844360352, 0.06743219494819641, 0.45196080207824707, 0.3692847788333893, 0.03588063269853592, -0.1790911704301834, 0.0684933066368103, -0.6734451055526733, -0.43847647309303284, -0.2980315387248993, 0.5007447600364685, -0.11239663511514664, -0.3448452055454254, -0.19808821380138397, -0.5162547826766968, -0.026479270309209824, 0.05392240732908249, -0.01679762452840805, 0.09168131649494171, -0.47388821840286255, -0.19560568034648895, -0.3845292329788208, 0.024849826470017433, 0.6168749332427979, -0.04040807858109474, -0.9452295899391174, -0.478374719619751, -0.8618239164352417, -0.3140123188495636, -0.14092431962490082, -0.39966467022895813, 0.23647728562355042, 0.06373815983533859, 0.24629993736743927, -0.30637070536613464], [-0.395455002784729, 0.19261221587657928, 0.06755122542381287, 0.2674413025379181, 0.4433531165122986, -0.25793299078941345, 0.20617473125457764, -0.1815127283334732, 0.32658132910728455, -0.17901834845542908, -0.006001689471304417, 0.2402353584766388, -0.0349893644452095, -0.3854011595249176, 0.06799111515283585, 0.22067679464817047, -0.39163142442703247, 0.3758077919483185, 0.3184534013271332, -0.5535474419593811, 0.7771676182746887, -0.20443342626094818, -0.22597135603427887, -0.021119579672813416, 0.060545582324266434, -0.25943878293037415, -0.13402138650417328, -0.28582125902175903, 0.0901828184723854, 0.3543069362640381, -0.06468497216701508, -0.5707442164421082, 0.16113728284835815, -0.22119663655757904, 0.43213969469070435, -0.0278868917375803, 0.37235227227211, -0.20356906950473785, 0.0029929475858807564, -0.21986763179302216, -0.02812783420085907, 0.4380536377429962, 0.26137545704841614, 0.14112190902233124, 0.25269564986228943, -0.06091316044330597, 0.20480765402317047, -0.2426770180463791, 0.08479146659374237, -0.3062531054019928], [0.05712641403079033, 0.12277903407812119, 0.5447887778282166, 0.31659477949142456, 0.2562985420227051, -0.18418022990226746, -0.10667837411165237, 0.03508163243532181, -0.1785169541835785, 0.14216838777065277, 0.1451561450958252, -0.11333224922418594, -0.02064310759305954, 0.14834964275360107, 0.5587511658668518, 0.14827242493629456, -0.4244152903556824, -0.4178798198699951, -0.7867327928543091, -0.07116817682981491, -0.43912237882614136, -0.28131282329559326, 0.11135644465684891, -0.39516928791999817, -0.06462729722261429, 0.08007311820983887, 0.048878543078899384, -0.5835785865783691, -0.012976089492440224, -0.2472405582666397, -0.26533249020576477, 0.2582164704799652, -0.19095349311828613, -0.10614609718322754, -0.22104862332344055, 0.048588018864393234, 0.09909769892692566, 0.3530195951461792, 0.23294280469417572, -0.43966421484947205, -0.0365862138569355, 0.14645850658416748, -0.2780587077140808, 0.2433723509311676, 0.2562781572341919, -0.0935274288058281, -0.2833082377910614, -0.03706498071551323, -0.0921373963356018, 0.15847547352313995], [-0.14153127372264862, -0.25099706649780273, -0.003159579122439027, -0.2986893057823181, -0.26067283749580383, -0.47639647126197815, -0.2677362263202667, 0.1925288289785385, 0.05822812765836716, -0.34105175733566284, -0.2547227442264557, 0.3393581509590149, 0.09330794960260391, -0.0903945341706276, 0.11625980585813522, -0.2727559506893158, -0.018539171665906906, -0.3580688536167145, -0.10613097250461578, 0.3466227352619171, 0.10366054624319077, -0.5029966831207275, 0.09526493400335312, -0.2827066481113434, 0.0486987866461277, -0.21074585616588593, 0.035190775990486145, -0.381840318441391, 0.05857670679688454, 0.021803587675094604, -0.5564109086990356, 0.07138901203870773, 0.37183284759521484, 0.00836144108325243, 0.023535147309303284, 0.11223941296339035, 0.21254479885101318, 0.42711350321769714, 0.42242011427879333, 0.12358825653791428, -0.019601520150899887, -0.2597481310367584, 0.28966227173805237, -0.0003821572754532099, -0.09434492886066437, -0.2948805093765259, 0.4282497465610504, -0.030328800901770592, 0.2747679352760315, -0.029989346861839294], [-0.310324490070343, -0.5514653921127319, -0.5224977135658264, 0.4666827321052551, -0.4160630702972412, 0.23265083134174347, 0.09471496939659119, -0.532501220703125, -0.09598369151353836, 0.3269807994365692, -0.2165723443031311, -0.12207652628421783, 0.23066572844982147, -0.34639522433280945, -0.05198618769645691, -0.2574816942214966, 0.16178108751773834, -0.3310270309448242, -0.11114733666181564, -0.2930900454521179, 0.15929526090621948, 0.24785152077674866, 0.044266991317272186, -0.08316738158464432, -0.20150668919086456, 0.02044922672212124, -0.1018981859087944, -0.21948440372943878, 0.14153975248336792, 0.15465353429317474, -0.041771791875362396, -0.04384436458349228, 0.14925691485404968, 0.11655883491039276, 0.11098029464483261, -0.06501463055610657, 0.24777211248874664, 0.04836588352918625, 0.09343107789754868, -0.2729704976081848, -0.3429538607597351, -0.3812909722328186, 0.21649520099163055, -0.0534125417470932, 0.37429118156433105, 0.13365548849105835, 0.2622886002063751, -0.03986106067895889, 0.22494202852249146, 0.28982481360435486], [-0.3982706367969513, -0.3561481833457947, 0.13308903574943542, -0.22297045588493347, -0.21235302090644836, -0.28321999311447144, 0.060709148645401, 0.27663496136665344, -0.07347540557384491, -0.01568876951932907, -0.01225215569138527, 0.31963974237442017, 0.2691405713558197, 0.12872138619422913, 0.14886465668678284, 0.07910513877868652, 0.0496375635266304, -0.3079278767108917, 0.4281690716743469, 0.040642641484737396, 0.12411800771951675, 0.009130527265369892, 0.27869072556495667, 0.34148910641670227, -0.4719831943511963, -0.3923448324203491, -0.24738958477973938, -0.37755781412124634, -0.22764915227890015, -0.4158252477645874, -0.041817571967840195, -0.14896456897258759, -0.4383234679698944, 0.04915149509906769, 0.05661851167678833, 0.059826310724020004, -0.2574932873249054, -0.04610922560095787, 0.469741553068161, 0.28989535570144653, 0.012286406010389328, -0.34860700368881226, 0.14250275492668152, 0.06762611865997314, 0.03550244867801666, 0.0388588048517704, -0.0730835348367691, -0.18136943876743317, 0.15214373171329498, -0.2905023396015167], [-0.004787361714988947, 0.07621431350708008, -0.14964517951011658, 0.22318080067634583, -0.032368745654821396, 0.18888720870018005, 0.12072613835334778, -0.2665184736251831, 0.3447551131248474, 0.37321582436561584, -0.0769873708486557, -0.23684470355510712, 0.18003319203853607, -0.13186191022396088, 0.2979305684566498, 0.5562459826469421, -0.00792480818927288, -0.463561475276947, -0.08500845730304718, 0.08752579241991043, 0.03937651589512825, -0.19931839406490326, 0.22334575653076172, -0.39430710673332214, -0.06128298118710518, -0.3511885106563568, 0.3034411072731018, -0.17243757843971252, -0.31717097759246826, 0.11408908665180206, -0.08393500000238419, -0.03666514903306961, -0.23528246581554413, 0.1859094798564911, -0.3691047430038452, 0.08749423176050186, 0.0477251373231411, 0.1493719518184662, 0.07426469027996063, -0.21831285953521729, 0.07956105470657349, -0.4058786928653717, 0.3362709581851959, -0.040702298283576965, 0.04775107279419899, -0.06750031560659409, 0.183736652135849, -0.4001000225543976, 0.18648110330104828, -0.11763443052768707], [0.04011046141386032, 0.10209573060274124, 0.01589088700711727, -0.19305118918418884, 0.1263013780117035, -0.19498969614505768, 0.17584694921970367, 0.2844107449054718, -0.1894242763519287, 0.1628493070602417, -0.0942186787724495, 0.036424603313207626, 0.022421056404709816, 0.11354002356529236, 0.33037978410720825, 0.09713782370090485, -0.17348666489124298, -0.388205885887146, -0.02519673854112625, -0.10343766212463379, -0.15515415370464325, -0.25508415699005127, -0.2391095906496048, -0.4631654918193817, -0.29548120498657227, 0.4932909905910492, -0.15995489060878754, -0.0623246394097805, -0.03702634572982788, -0.2574135661125183, -0.4188488721847534, 0.150565966963768, -0.19519023597240448, 0.16905641555786133, -0.29847320914268494, 0.4360107481479645, 0.03909612447023392, 0.5258219242095947, 0.2179606705904007, -0.21388736367225647, 0.08724597096443176, -0.7232829332351685, -0.03837643563747406, 0.6906480193138123, 0.3738318979740143, 0.2501106560230255, -0.2787546217441559, 0.37218788266181946, 0.0441410057246685, -0.014773436821997166], [-0.0970783457159996, -0.06353705376386642, -0.07549101114273071, 0.14814366400241852, -0.15712296962738037, 0.12988804280757904, 0.08653577417135239, 0.018088826909661293, 0.05582437291741371, 0.1643061637878418, 0.11764831095933914, 0.047759830951690674, -0.06748083233833313, -0.006840184796601534, 0.1638306975364685, 0.12323426455259323, -0.13799044489860535, -0.14453059434890747, -0.11310719698667526, -0.15351934731006622, -0.1283063441514969, 0.16231507062911987, 0.13265161216259003, 0.09207208454608917, -0.15748842060565948, -0.06000731512904167, -0.13783006370067596, -0.13904903829097748, 0.07032586634159088, 0.13661305606365204, -0.15808053314685822, -0.07784818112850189, -0.07221592962741852, -0.06412366032600403, -0.1364859789609909, 0.1292784959077835, 0.1554224193096161, 0.1480896919965744, 0.11243846267461777, -0.03962003439664841, 0.14501036703586578, 0.041420284658670425, 0.13891591131687164, -0.04447384551167488, 0.10746141523122787, -0.08916705846786499, 0.11996523290872574, 0.10568894445896149, 0.13981232047080994, 0.1625925451517105], [-0.05693811550736427, 0.18488286435604095, 0.2134390026330948, 0.038049619644880295, -0.46651095151901245, -0.47280585765838623, -0.14347894489765167, 0.6901360750198364, 0.5939438939094543, -0.04743023216724396, -0.09443951398134232, 0.26904216408729553, -0.2930704951286316, 0.24880316853523254, 0.24977891147136688, -0.21658813953399658, 0.40896254777908325, 0.12253563851118088, -0.3966631293296814, -0.42023974657058716, 0.07001958787441254, -0.14243453741073608, 0.16250838339328766, -0.23202526569366455, 0.053400687873363495, 0.07337421178817749, -0.29094037413597107, -0.41442325711250305, 0.17091092467308044, -0.13398988544940948, 0.2372913658618927, 0.026867158710956573, 0.1367669552564621, -0.04352360591292381, -0.3896336555480957, -0.028409333899617195, 0.01994169130921364, 0.2107447385787964, 0.16485214233398438, -0.18631704151630402, -0.14396163821220398, 0.44371119141578674, 0.22658096253871918, 0.0861288383603096, 0.33382973074913025, 0.1495445966720581, -0.4268591105937958, 0.20781171321868896, -0.26457497477531433, 0.3900483548641205], [-0.43012499809265137, -0.18749313056468964, 0.09395880252122879, 0.4113263785839081, 0.15356750786304474, -0.4709624648094177, -0.09550399333238602, 0.40412357449531555, 0.37710410356521606, -0.4732089638710022, 0.1835988312959671, 0.03764322027564049, 0.4161940813064575, -0.1945326328277588, -0.009044012986123562, -0.2496558278799057, -0.17890849709510803, -0.147489994764328, -0.6369591951370239, -0.4488784670829773, -0.2326272428035736, -0.09274307638406754, 0.2433168888092041, -0.21151596307754517, 0.25600937008857727, 0.040343716740608215, -0.15037380158901215, -0.4186456501483917, -0.22016651928424835, -0.24838604032993317, -0.06625587493181229, 0.000654313713312149, -0.412973016500473, 0.1553048938512802, 0.1593385934829712, 0.12289698421955109, -0.3582001030445099, -0.23430868983268738, 0.11226481944322586, -0.16148965060710907, 0.29855164885520935, 0.16441088914871216, -0.411958247423172, -0.25590553879737854, -0.09597571939229965, -0.3407125473022461, -0.13481132686138153, -0.5325939059257507, 0.022687789052724838, 0.09161438792943954], [-0.1754847764968872, -0.22413590550422668, -0.12601827085018158, 0.013469810597598553, -0.3080114424228668, -0.07195769250392914, 0.16152843832969666, -0.2532620429992676, 0.13572433590888977, -0.5138180255889893, -0.014839758165180683, 0.23853686451911926, 0.36788409948349, -0.36274802684783936, -0.03889085352420807, -0.0977427214384079, -0.24468810856342316, -0.3832221031188965, 0.2055475115776062, 0.009419366717338562, 0.08371467888355255, -0.3705325126647949, 0.14102788269519806, -0.2033746987581253, -0.10792963951826096, -0.22898273169994354, 0.3185369670391083, -0.20704421401023865, -0.2575111985206604, 0.16513656079769135, -0.22320784628391266, -0.32918331027030945, 0.3216220736503601, -0.07272316515445709, -0.22224299609661102, 0.04962342977523804, -0.09897996485233307, 0.26059436798095703, -0.07023317366838455, -0.05943228676915169, -0.22402629256248474, -0.6226292252540588, -0.06358560919761658, 0.006069607101380825, 0.2062280774116516, -0.2166580706834793, -0.024486595764756203, 0.012191081419587135, 0.2980179190635681, 0.5471093058586121], [0.416887491941452, 0.39202287793159485, -0.08552338182926178, -0.1406993716955185, 0.21509280800819397, -0.07864340394735336, -0.05520845949649811, 0.34346574544906616, 0.2596389949321747, -0.03350070118904114, 0.45474445819854736, -0.039111603051424026, 0.4476769268512726, 0.35667869448661804, 0.049465883523225784, 0.10110148787498474, -0.14964695274829865, -0.02732655219733715, -0.1942550092935562, 0.18515728414058685, 0.1364661455154419, -0.5028063654899597, 0.3651852607727051, 0.12342895567417145, -0.4544377326965332, 0.029116790741682053, -0.24668169021606445, -0.18505609035491943, 0.04823607951402664, 0.16357186436653137, -0.4223070442676544, -0.31947392225265503, -0.040131568908691406, -0.24921229481697083, 0.024978216737508774, 0.3738977015018463, 0.3281932771205902, -0.3544868230819702, 0.41274362802505493, 0.03906284272670746, 0.44868794083595276, 0.1291724145412445, -0.4363935887813568, -0.17957119643688202, 0.19063515961170197, -0.12145644426345825, 0.3532496392726898, 0.4722270369529724, 0.1886224001646042, 0.3303030729293823], [-0.39677107334136963, -0.657069981098175, -0.24677050113677979, 0.22833707928657532, 0.2056954950094223, 0.4249054789543152, 0.4972093999385834, -0.2325950264930725, -0.3576575219631195, -0.46852102875709534, 0.14909999072551727, -0.3829813301563263, 0.5242828130722046, -0.41498562693595886, -0.24500320851802826, 0.1979646235704422, 0.2797892391681671, -0.6972552537918091, 0.1027570441365242, -0.42476120591163635, -0.5748530626296997, -0.07727986574172974, 0.30875363945961, -0.41486862301826477, 0.370837926864624, -0.15933428704738617, -0.3943033218383789, -0.04118552803993225, -0.532860279083252, -0.052539195865392685, -0.05848057568073273, -0.04180530831217766, 0.376987487077713, 0.01454661600291729, -0.4493647515773773, -0.1278580278158188, 0.1630260944366455, -0.0657820776104927, -0.2812720835208893, -0.49893608689308167, -0.28318700194358826, -0.340983122587204, -0.21889042854309082, 0.4052695035934448, 0.11367841064929962, -0.36715078353881836, 0.268861323595047, 0.0077006882056593895, 0.24885761737823486, 0.18056130409240723], [0.4193354547023773, -0.43691012263298035, -0.24743478000164032, -0.026124756783246994, 0.573136031627655, 0.6510225534439087, 0.29139941930770874, 0.3776947259902954, 0.17672793567180634, 0.19437292218208313, 0.3370707333087921, 0.04436056688427925, 0.39830243587493896, 0.12430368363857269, -0.5949296355247498, -0.40091145038604736, 0.045043542981147766, -0.44514888525009155, -0.18044106662273407, -0.57455974817276, -0.22976931929588318, 0.28819718956947327, 0.09476680308580399, 0.4737410247325897, 0.17032340168952942, -0.1951465904712677, -0.3358677327632904, 0.29180973768234253, -0.10376320034265518, -0.0788496732711792, 0.4441992938518524, -0.16908341646194458, -0.3136441707611084, 0.6447391510009766, -0.2989259660243988, 0.008947594091296196, 0.0190426092594862, 0.5297135710716248, -0.8308262228965759, -0.019694022834300995, -0.4262002110481262, -0.717765748500824, -0.2415793538093567, -0.3389279544353485, -0.6933374404907227, -0.04424503445625305, -0.6273321509361267, -0.4161284863948822, 0.3968068063259125, 0.7689553499221802], [0.03178314492106438, -0.4910041093826294, -0.4660884737968445, 0.58354651927948, -0.009038234129548073, 0.015392225235700607, 0.26374325156211853, -0.28597524762153625, -0.03524048253893852, -0.1391378492116928, 0.05498410016298294, -0.11409468948841095, 0.62974613904953, -0.5560156106948853, 0.2967672348022461, 0.1073053628206253, -0.038997240364551544, -0.5371913909912109, 