{"zero_const": [0.0], "pi_const": [3.1415927410125732], "ent_embeddings.weight": [[0.880407989025116, -0.44922956824302673, -0.7068319916725159, 0.146800234913826, 0.11895712465047836, 0.6340869069099426, -0.2350827306509018, 0.22677242755889893, -0.4692316949367523, 0.5744837522506714, -0.2588907480239868, -0.732384204864502, -0.5335207581520081, 0.35516223311424255, -0.147174671292305, 0.5509862899780273, -0.07156063616275787, 0.5455250144004822, 0.43763604760169983, 0.09314298629760742, -0.017093772068619728, 0.05519440770149231, 0.4112044870853424, 0.9293664693832397, -0.3075616657733917, -0.40664592385292053, -0.3539745807647705, 0.022325938567519188, 0.3151512145996094, 0.08308745920658112, 0.4827658236026764, 0.39536052942276, -0.8184433579444885, -0.6757668256759644, -0.6687091588973999, 0.021108834072947502, 0.4026620090007782, -0.1865764707326889, 0.3207961916923523, -0.19369450211524963, 0.06952729821205139, 0.7054877877235413, -0.02049952559173107, 0.3019103705883026, -0.04034718498587608, 0.5397162437438965, 0.6878938674926758, 0.11440614610910416, -0.06504017114639282, -0.13980227708816528], [1.126983404159546, -0.9993411898612976, -0.42764416337013245, -0.7361962795257568, 0.5003564357757568, 0.15694241225719452, 0.04462898150086403, 0.23508504033088684, 0.8045921325683594, 0.539945125579834, 1.4979617595672607, 0.1814631223678589, 0.5894758105278015, -1.2053635120391846, -0.0009072785032913089, 0.47266530990600586, 0.3134654462337494, -0.015795303508639336, 0.04855957254767418, -0.6675374507904053, -0.47933584451675415, 0.8362863659858704, 0.301948606967926, -0.6711612939834595, -0.16198770701885223, 0.5041561722755432, 0.47928881645202637, -0.49681684374809265, -0.6824959516525269, -0.9706714153289795, -0.577886700630188, 0.30014950037002563, -0.16255928575992584, -0.029754288494586945, 0.3124309778213501, -0.2514144480228424, -0.18400317430496216, -0.09782824665307999, 1.1069377660751343, 0.6402733325958252, 0.8568520545959473, 0.06746985763311386, -0.2908475995063782, 0.2977347671985626, 0.3824917674064636, 1.4889276027679443, -0.15792398154735565, 0.3851441442966461, 0.4340791702270508, -0.3185698986053467], [0.6623682379722595, 0.2586343586444855, -0.28139814734458923, -0.04316044971346855, 0.5303860902786255, 0.40856078267097473, -0.36935874819755554, -0.19213563203811646, 0.09309209138154984, -0.3059996962547302, 0.47457757592201233, -0.7072718143463135, -0.733604371547699, -0.24322828650474548, -0.04770839214324951, -0.2043016105890274, 0.1424853354692459, -0.5850651264190674, 0.5634443163871765, 0.6495419144630432, -0.20728331804275513, -0.39709213376045227, -0.14178356528282166, 0.43890202045440674, -0.93454909324646, 0.29350173473358154, -0.6979563236236572, 0.26474419236183167, 0.13874778151512146, 0.009527881629765034, 0.5501126050949097, 0.3041049540042877, -0.028503522276878357, -0.35251185297966003, -0.1464037448167801, 0.17649151384830475, 0.4572753608226776, 0.5213002562522888, 0.630864143371582, 0.10761766880750656, 0.08488962054252625, -0.06595363467931747, -0.28942957520484924, 0.28151941299438477, 0.12264640629291534, 0.7289918661117554, -0.259447306394577, -0.5039014220237732, -0.5525211691856384, 0.40816450119018555], [0.3125520944595337, -0.5486373901367188, 0.3167785704135895, 0.34214094281196594, -0.6443763375282288, -0.9560460448265076, -0.1172824427485466, -0.2820779085159302, 0.6180320978164673, -0.2888811230659485, 0.2514648735523224, -0.19996437430381775, -0.3144018352031708, 0.3569875657558441, 0.22244314849376678, 0.28933608531951904, -0.14968164265155792, 0.5154736042022705, -0.4151233434677124, 0.7625119686126709, 0.21111533045768738, 0.20260295271873474, 0.2942312955856323, -0.3896683156490326, -0.22083163261413574, -0.4825502932071686, -0.35639211535453796, -0.011413583531975746, 0.0915432870388031, -0.3667569160461426, 0.22081895172595978, -0.680328369140625, -0.3959571123123169, 0.2796241044998169, 0.31307727098464966, 0.005806838162243366, 0.3104172945022583, -0.3795373737812042, 0.14959722757339478, 0.8136370778083801, 0.5041817426681519, -0.4927000403404236, 0.28635501861572266, 0.2699393033981323, -0.18737083673477173, -0.20907683670520782, -0.8063217401504517, 0.22279754281044006, 0.05689768120646477, 0.01062934473156929], [0.0035913269966840744, -0.4752025008201599, 0.3848842978477478, -0.4185020923614502, 0.06583330035209656, -0.048062123358249664, 0.24643100798130035, -0.32401779294013977, -0.6539282202720642, -0.0933271199464798, -0.023024044930934906, -0.29626452922821045, 0.4318138360977173, 0.22196543216705322, -0.1272624284029007, -0.024628276005387306, -0.41087672114372253, 0.1585046797990799, -0.5064316391944885, -0.002688662614673376, 0.2625623941421509, 0.6998982429504395, -0.23599864542484283, 0.22968074679374695, 0.4013500511646271, 0.16212061047554016, -0.36607053875923157, -0.18580465018749237, -0.00793982483446598, -0.1368049681186676, 0.3809356391429901, 0.18337105214595795, 0.09746551513671875, 0.14454849064350128, -0.12445145845413208, 0.3359724283218384, -0.15201131999492645, 0.4146764576435089, 0.15153507888317108, -0.1928999423980713, 0.3602534830570221, 0.11789146065711975, -0.06923197209835052, -0.13885188102722168, -0.3531894385814667, -0.23645538091659546, 0.3455551266670227, 0.06133262813091278, -0.29241347312927246, -0.18403173983097076], [0.42667219042778015, -0.028694935142993927, 0.12108206003904343, -0.3968009948730469, -0.2011466771364212, 0.2894762456417084, -0.365378737449646, -0.45132532715797424, 0.24976234138011932, 0.03698247671127319, -0.259589821100235, -0.4339991807937622, -0.19871580600738525, -0.27807366847991943, 0.21222537755966187, 0.10328220576047897, -0.227111354470253, 0.07584482431411743, -0.24651803076267242, 0.40383216738700867, 0.3030458390712738, 0.03126220032572746, -0.2623056173324585, 0.48145604133605957, 0.06393773853778839, -0.16667793691158295, 0.17748883366584778, 0.018123311921954155, -0.2745130956172943, -0.12270046770572662, 0.2790864408016205, 0.5812791585922241, 0.39149174094200134, 0.2227298617362976, 0.026728391647338867, -0.28181934356689453, -0.36030808091163635, 0.20752780139446259, -0.20527595281600952, 0.36916476488113403, -0.0746631845831871, -0.1518685519695282, -0.3343316912651062, -0.367575466632843, 0.1937270164489746, -0.36248978972435, -0.19080007076263428, -0.2131243795156479, -0.1874573677778244, -0.11070122569799423], [-0.23373347520828247, -0.5433525443077087, -0.06197809427976608, 0.047118283808231354, -0.5223563313484192, 0.19410161674022675, -0.1457715630531311, 0.35662975907325745, -0.0853559747338295, -0.07555018365383148, 0.2669360339641571, -0.29900887608528137, -0.004140456207096577, 0.7073864936828613, -0.4251841902732849, 0.09684689342975616, -0.6389384865760803, 0.21564698219299316, -0.2208009660243988, 0.06498333066701889, -0.3364540934562683, 0.01989574357867241, -0.013963839039206505, -0.3500257432460785, -0.12062887102365494, -0.1180824562907219, -0.2511635422706604, 0.6212234497070312, 0.09345711022615433, -0.14772029221057892, 0.02323535829782486, 0.49507302045822144, 0.1289082169532776, -0.25084468722343445, 0.023501062765717506, -0.17093123495578766, 0.22548404335975647, 0.1454620510339737, 0.29359400272369385, -0.086548812687397, -0.5697333812713623, 0.41318175196647644, -0.460572212934494, -0.2243380844593048, 0.11827421188354492, -0.3852223753929138, 0.0049496847204864025, 0.41276681423187256, -0.3513921797275543, -0.3872110843658447], [-0.35780057311058044, -0.06122881546616554, 0.08146591484546661, 0.44968917965888977, -0.4324876070022583, -0.013789505697786808, 0.5866442918777466, 0.07547619938850403, -0.16851894557476044, 0.043450839817523956, -0.08982288092374802, 0.2910940945148468, 0.10883908718824387, 0.16456593573093414, -0.3045327067375183, 0.2042035311460495, -0.16780273616313934, 0.198165163397789, 0.03218621015548706, 0.33669453859329224, -0.3556976020336151, -0.1396402269601822, -0.012109553441405296, 0.2619969844818115, 0.3872585594654083, 0.28419896960258484, -0.3588072657585144, 0.4417276084423065, 0.43287548422813416, -0.2531600296497345, -0.28617143630981445, 0.1609286218881607, -0.13860146701335907, -0.28895729780197144, 0.12847639620304108, 0.06314258277416229, 0.14769400656223297, -0.44856372475624084, 0.28564363718032837, 0.18298715353012085, 0.17364412546157837, 0.20651859045028687, 0.2657797038555145, -0.32596489787101746, 0.043788306415081024, -0.5584502816200256, -0.016738975420594215, -0.3224262595176697, 0.059679433703422546, -0.022272778674960136], [-0.056081801652908325, -0.6561978459358215, -0.5778140425682068, 0.14710794389247894, 0.2163850963115692, 0.09832640737295151, 0.38994163274765015, -0.3673526644706726, -0.226448655128479, -0.17690323293209076, 0.3426976501941681, -0.27513453364372253, -0.15703091025352478, -0.3272181749343872, -0.6326211094856262, -0.06477842479944229, 0.8253243565559387, 0.6586119532585144, 0.35668879747390747, -0.06011945754289627, 0.21602004766464233, 0.7769774198532104, 0.882921040058136, -0.6581153273582458, -0.5241305828094482, -0.062443241477012634, 0.24773670732975006, 0.7785563468933105, 0.20280878245830536, -0.5602934956550598, 0.31848329305648804, -0.9749022126197815, 0.3750918507575989, -0.047633375972509384, 0.3447803854942322, -0.7366676330566406, -0.2956690490245819, 0.6065768599510193, 0.048471689224243164, 0.7229351997375488, -0.7763710021972656, -0.6299914717674255, 0.2008390724658966, -0.10649900138378143, -0.9490349888801575, -0.3642892837524414, -1.0428519248962402, 0.14302079379558563, 0.8100464940071106, -0.18707863986492157], [-0.17807872593402863, 0.02555037848651409, 0.0641113668680191, -0.1640552580356598, -0.01464296504855156, -0.10074044018983841, 0.01322159357368946, -0.17769679427146912, 0.07553614675998688, -0.18183118104934692, 0.15862934291362762, -0.16763828694820404, 0.17562256753444672, 0.04127097129821777, -0.15865430235862732, 0.185795858502388, 0.14824575185775757, -0.11695883423089981, -0.177547425031662, 0.1838829517364502, 0.06257057189941406, 0.16983801126480103, -0.17646650969982147, 0.13799428939819336, -0.1636238396167755, 0.18111443519592285, -0.026793502271175385, -0.1686239391565323, 0.1525561809539795, 0.1676148623228073, 0.14129744470119476, 0.012137972749769688, 0.19081276655197144, 0.09069470316171646, -0.1813599020242691, -0.05260598659515381, 0.06861940026283264, -0.08998645842075348, 0.17189355194568634, 0.15324169397354126, -0.1841461956501007, -0.17776530981063843, 0.06511382758617401, -0.14433063566684723, 0.14508551359176636, 0.14471730589866638, -0.17605160176753998, -0.01132284477353096, -0.19080202281475067, -0.19608034193515778], [0.23745185136795044, 0.8150704503059387, -0.6466858386993408, 0.6018633842468262, -0.3552935719490051, -0.1398615539073944, -0.636214017868042, 0.7020460963249207, -0.52027827501297, -0.5256245732307434, 0.20996849238872528, 0.14454121887683868, 0.12259667366743088, 0.25809118151664734, -0.5392051339149475, -0.44724854826927185, -0.00875885970890522, -0.05103050917387009, 0.556046187877655, 0.9314623475074768, 0.090279221534729, 0.2577051520347595, 0.44351866841316223, 0.5405821204185486, -0.5858140587806702, -0.20354525744915009, 0.4797847867012024, -0.4776756763458252, 0.6837429404258728, -0.20703217387199402, 0.41716551780700684, 0.04064255952835083, 0.04522818326950073, -0.6244815587997437, 0.26385149359703064, -0.31484660506248474, 0.4185211956501007, 0.6492851972579956, -1.0259751081466675, 0.48932987451553345, 0.9315698742866516, 0.5683152675628662, -0.3982619047164917, -0.3029847741127014, -0.657324492931366, 0.33257031440734863, -0.4001587927341461, 0.34476226568222046, 0.4950881600379944, 0.6792665719985962], [0.035737618803977966, -0.21917451918125153, 0.07481219619512558, 0.23821087181568146, 0.2956295609474182, 0.29796653985977173, 0.40389737486839294, -0.3341183364391327, 0.21561527252197266, 0.08166719228029251, -0.19657324254512787, -0.466845840215683, 0.14733336865901947, -0.2432912439107895, 0.09754359722137451, 0.042994510382413864, -0.2932305932044983, -0.4462363123893738, 0.29812222719192505, 0.1373922973871231, -0.37810859084129333, -0.05606267973780632, -0.21276485919952393, -0.4233008921146393, 0.47386565804481506, -0.105040542781353, 0.3458862900733948, 0.0022156042978167534, 0.19386634230613708, -0.18636555969715118, 0.08089833706617355, -0.1460334211587906, 0.40972763299942017, 0.2788696885108948, 0.049367114901542664, 0.2861744463443756, -0.037539441138505936, -0.24278250336647034, -0.1808084398508072, 0.16987666487693787, -0.019230537116527557, 0.48326003551483154, -0.5347042083740234, -0.16272544860839844, 0.27685704827308655, -0.39640864729881287, -0.2236279547214508, 0.4594770073890686, -0.12095215916633606, -0.08929426968097687], [0.47525501251220703, 0.09310314804315567, 0.004346749279648066, -0.06148334965109825, 0.042153920978307724, 0.18547849357128143, 0.20039081573486328, -0.14621290564537048, 0.2739131450653076, -0.14171728491783142, -0.4406842589378357, -0.5783613324165344, 0.29900360107421875, 0.0563935749232769, 0.3251839280128479, 0.19438692927360535, -0.3204871416091919, -0.11396396160125732, -0.272594153881073, 0.32475733757019043, 0.3187806010246277, 0.5363470315933228, 0.006698281038552523, 0.2580185532569885, -0.1293434202671051, 0.016482805833220482, -0.08165554702281952, 0.3709573447704315, -0.01875046268105507, 0.07527497410774231, 0.11698191612958908, -0.025601357221603394, 0.11022985726594925, 0.5755054950714111, -0.026352055370807648, 0.3274257183074951, -0.3211185336112976, 0.1101580262184143, -0.16513694822788239, -0.010731197893619537, -0.21741808950901031, 0.3610929250717163, -0.2616504430770874, -0.008532911539077759, 0.05381757766008377, 0.05686809867620468, 0.09551773965358734, -0.2857001721858978, 0.007039420306682587, -0.27589452266693115], [-0.2126205563545227, 0.7548890113830566, 0.7374382019042969, 0.9205043911933899, -1.1451953649520874, -0.37802889943122864, 0.0932881310582161, 0.7849785089492798, -0.6213776469230652, -1.1279925107955933, 0.34900277853012085, -0.08551901578903198, 0.6010053157806396, 0.15343333780765533, -0.4852004051208496, -0.5744236707687378, -0.0050109075382351875, 0.3557632863521576, 0.3457540273666382, 0.04213227704167366, -0.617485761642456, -0.013687370344996452, -0.27728843688964844, 1.2084726095199585, 0.1452486217021942, -0.5953766107559204, 0.02562863565981388, -0.03128640353679657, 0.002364703919738531, 0.6535285115242004, -0.9147998094558716, 0.02446543052792549, -0.2662619650363922, -0.06880132108926773, 0.7872054576873779, -0.2845781445503235, -0.9564363956451416, 0.4501848816871643, -0.8378024697303772, 0.35863974690437317, 0.24704501032829285, 0.6602806448936462, 0.1833728849887848, -0.5886639952659607, -0.8488819599151611, -0.9848562479019165, 0.2627423405647278, 0.4108148515224457, 1.5523755550384521, 0.9053139686584473], [-0.2545730769634247, 0.3959283232688904, -0.1263883262872696, 0.15909577906131744, -0.10938500612974167, -0.39719557762145996, 1.0172100067138672, -0.6824004650115967, 0.019869273528456688, 0.21314774453639984, -0.5760391354560852, 0.11544105410575867, 0.3295014798641205, 0.9287580251693726, 1.3380928039550781, 0.03797469660639763, 0.17977972328662872, -0.4503459334373474, 0.41886550188064575, 0.10998008400201797, 0.2360508292913437, -0.39554786682128906, -0.022598937153816223, 0.345569372177124, 0.531158447265625, 0.49366238713264465, -0.5949578285217285, 0.05887284129858017, -0.621251106262207, 0.4335673153400421, -0.6808731555938721, -0.015180094167590141, 0.2489798367023468, 0.3062801957130432, -0.27279579639434814, 0.202228844165802, 0.3749731779098511, 0.5126404166221619, -0.5066598653793335, -0.5396260023117065, -0.2428508698940277, 0.26939859986305237, -0.6501904129981995, 0.6643530130386353, 0.5209103226661682, 0.019716043025255203, 0.5314429998397827, 0.33406445384025574, -0.3208823502063751, 0.8809177875518799], [0.016573283821344376, 1.2965428829193115, -0.3006502687931061, 0.18561145663261414, 0.36381492018699646, 0.909011960029602, -0.5106664896011353, -0.556270956993103, 0.05219585448503494, 0.43603411316871643, -1.2020344734191895, 0.17711141705513, -0.12133265286684036, -0.15736834704875946, 0.07415173202753067, -0.1574968844652176, -0.3027166426181793, 0.4308127164840698, 0.3625932037830353, 0.3754446804523468, 0.1444079726934433, -0.26955628395080566, 0.02072887308895588, -0.020591797307133675, -0.7734415531158447, 0.04264608770608902, 0.34182506799697876, -0.8679355978965759, -0.8528196215629578, -0.2737833857536316, -0.05351746454834938, 0.39951884746551514, -0.5126696825027466, 0.2132474184036255, -0.2954832911491394, 0.40775540471076965, -0.22134794294834137, -0.04604998603463173, 0.4413444697856903, -0.42168188095092773, 0.47015368938446045, -0.00326307350769639, 0.07772310078144073, 0.031993262469768524, 0.2224973440170288, 0.3164646327495575, -0.18869248032569885, 0.3043839931488037, 0.28530821204185486, 0.428585946559906], [-0.801986575126648, -0.2538676857948303, -0.6610655784606934, 0.5515390634536743, -0.7060021162033081, -0.5327495336532593, -1.0211195945739746, 0.9389647841453552, 0.5844413638114929, 0.5088973045349121, -0.36811965703964233, -0.7688294649124146, -0.6613948345184326, -0.23278334736824036, -0.6369932293891907, 0.03846195340156555, 0.3123406767845154, 0.8383699655532837, 0.21795879304409027, 0.8283019065856934, -0.4195057153701782, 0.7948041558265686, -0.03481360524892807, -0.05769086256623268, -0.24308636784553528, 0.13540558516979218, 0.9755677580833435, 0.23866136372089386, 0.9955649971961975, 0.2686018645763397, 0.5787738561630249, -0.0018226280808448792, -0.49854689836502075, -0.49981218576431274, -0.5445181131362915, 0.030010009184479713, -0.17920449376106262, 0.8080400824546814, -0.21361348032951355, -0.31417036056518555, 0.5307061672210693, -0.10474196076393127, -0.13672082126140594, 0.06456325203180313, -0.3990720808506012, -0.45241737365722656, 0.21784810721874237, -0.19756585359573364, 0.09665964543819427, 0.643591046333313], [-0.23597803711891174, -0.2156338393688202, 0.20176029205322266, -0.24626851081848145, 0.05465928837656975, 0.12510384619235992, 0.3117936849594116, 0.040591850876808167, 0.15168865025043488, -0.49590566754341125, -0.031938835978507996, 0.3295952379703522, 0.08159369230270386, 0.19119349122047424, 0.0011590253561735153, 0.1808866560459137, -0.3315243721008301, -0.3712625503540039, -0.15350836515426636, -0.00236461847089231, 0.41500982642173767, 0.40251731872558594, -0.41860541701316833, 0.5907411575317383, 0.33929920196533203, 0.32057884335517883, -0.6002435684204102, -0.1552104502916336, -0.447263240814209, -0.4126274883747101, -0.24687834084033966, -0.4436495304107666, 0.09332743287086487, -0.12185602635145187, -0.4321207106113434, 0.5862067937850952, 0.29593661427497864, -0.1645226925611496, 0.5077397227287292, -0.046056848019361496, -0.28062301874160767, -0.2144387811422348, -0.3940977454185486, -0.051972731947898865, -0.4502639174461365, -0.35590824484825134, -0.049957163631916046, -0.17223072052001953, -0.3138522207736969, 0.012003890238702297], [-0.2475850135087967, -0.2097529023885727, -0.003536359639838338, 0.5316406488418579, -0.7334018349647522, -0.45281824469566345, -0.0971289724111557, -0.26720377802848816, 0.13182078301906586, -0.3554714322090149, 0.029637185856699944, -0.26494506001472473, -0.07419321686029434, 0.06443267315626144, 0.005816965363919735, 0.07585915923118591, 0.2541002631187439, 0.3706433176994324, -0.14371781051158905, 0.23711827397346497, -0.517203152179718, 0.21784348785877228, -0.4449453353881836, 0.42712563276290894, -0.44331878423690796, 0.12808413803577423, -0.057893816381692886, 0.12469875812530518, -0.3092113733291626, -0.2777646780014038, -0.015764035284519196, -0.025860246270895004, -0.22700998187065125, -0.35760900378227234, 0.1819978505373001, -0.03574230521917343, -0.004210369195789099, 0.35061413049697876, 0.10342567414045334, -0.16892676055431366, 0.11385539919137955, -0.07389863580465317, 0.36945563554763794, 0.049125026911497116, -0.17366203665733337, -0.6830124855041504, 0.424709290266037, -0.10796288400888443, 0.4906226396560669, -0.3190402388572693], [0.32911068201065063, -0.200862854719162, -0.04784860089421272, 0.3525914251804352, -0.6173366904258728, -0.4289417564868927, -0.1372731477022171, 0.281890332698822, 0.11203695833683014, -0.06348170340061188, 0.05731794610619545, -0.2505478262901306, -0.07781874388456345, -0.07372584193944931, 0.34058529138565063, 0.12585966289043427, -0.38602322340011597, 0.34136542677879333, -0.09687400609254837, 0.20665165781974792, -0.4724743962287903, 0.15186944603919983, -0.3908354640007019, 0.3123786449432373, -0.2494683563709259, 0.14157848060131073, -0.18480423092842102, 0.15121164917945862, -0.036598145961761475, -0.32166239619255066, 0.0015192474238574505, -0.04038463905453682, 0.0028750821948051453, -0.32136163115501404, 0.157126322388649, -0.0784766748547554, 0.06749144941568375, 0.30341610312461853, 0.10242533683776855, -0.00675569660961628, 0.062352124601602554, -0.09702479839324951, 0.30790549516677856, 0.062136899679899216, -0.1490362286567688, -0.6104607582092285, 0.39103835821151733, -0.08622268587350845, 0.428274005651474, 0.4884031116962433], [0.12475308775901794, -0.0706852525472641, 0.09032072871923447, -0.15606296062469482, 0.15207329392433167, 0.08199518173933029, 0.07283914089202881, -0.12580439448356628, 0.04771587625145912, -0.18118220567703247, 0.0219593346118927, -0.17675277590751648, 0.18091939389705658, -0.1479204148054123, -0.1664275825023651, -0.0027184467762708664, -0.15967033803462982, 0.16393819451332092, -0.12078993022441864, 0.13027486205101013, -0.1793464869260788, 0.15147064626216888, -0.14306823909282684, 0.17592684924602509, 0.18410079181194305, -0.17167583107948303, -0.06843321025371552, -0.16750192642211914, 0.1532738208770752, -0.18367555737495422, 0.05644689127802849, -0.17641131579875946, 0.03881856054067612, 0.15356142818927765, -0.1619309037923813, -0.07701379060745239, 0.17455258965492249, 0.17731022834777832, 0.1743210256099701, 0.16918301582336426, -0.16372522711753845, 0.11076963692903519, 0.1871573030948639, 0.1751534789800644, -0.07602065801620483, -0.0866938978433609, 0.10156635195016861, 0.12273909151554108, 0.14922590553760529, -0.11389177292585373], [0.14517304301261902, 0.08807376772165298, 0.23531705141067505, -0.1406824141740799, -0.10463808476924896, -0.013262556865811348, 0.14171509444713593, -0.13786225020885468, -0.05883453041315079, -0.20482397079467773, 0.04247177392244339, -0.11870261281728745, -0.03337636590003967, 0.003047741949558258, 0.19456015527248383, 0.17349962890148163, 0.13445450365543365, 0.0724841058254242, -0.16506998240947723, 0.0571773387491703, 0.11199676245450974, 0.1930575966835022, -0.18926198780536652, -0.13016153872013092, -0.15735237300395966, 0.10261455178260803, -0.15469440817832947, 0.14099349081516266, 0.08634335547685623, -0.23057235777378082, -0.016001902520656586, -0.10458751767873764, -0.12725821137428284, -0.22209563851356506, 0.10692285746335983, 0.11789003014564514, 0.027840081602334976, 0.17326322197914124, -0.09638025611639023, 0.18474428355693817, -0.20389366149902344, -0.12126953154802322, 0.17714369297027588, 0.05244738236069679, -0.002870531752705574, -0.1888052523136139, 0.0688190683722496, -0.06341618299484253, 0.18770207464694977, -0.2085590958595276], [0.4537673890590668, -0.1638670563697815, -0.09920179843902588, -0.6517733931541443, -0.058232128620147705, -0.4752262234687805, 0.5187482237815857, 0.17867328226566315, 0.14169037342071533, -0.2411288022994995, 0.041020024567842484, 0.09453556686639786, -0.2340741753578186, 0.1705520749092102, 0.37548381090164185, 0.21127630770206451, 0.05995091795921326, -0.4043618142604828, -0.5240586996078491, 0.3621430993080139, 0.38886016607284546, 0.24669471383094788, -0.08862022310495377, -0.10840403288602829, -0.23161934316158295, 0.3911290466785431, -0.14926204085350037, 0.2861692011356354, -0.21527960896492004, -0.38579031825065613, -0.1568351536989212, -0.41301146149635315, -0.18609094619750977, 0.08706356585025787, 0.09837191551923752, 0.20297308266162872, 0.31644725799560547, 0.3411282002925873, -0.09577672928571701, -0.27221807837486267, -0.22961696982383728, 0.17769135534763336, -0.26208898425102234, -0.2900885343551636, 0.034913647919893265, -0.4002433121204376, -0.16420899331569672, 0.27472466230392456, -0.180165097117424, -0.1221587061882019], [0.1290603131055832, -0.15900738537311554, 0.08145354688167572, -0.03386282920837402, -0.11867488920688629, -0.011338315904140472, -0.029383409768342972, -0.0935508981347084, 0.06252556294202805, -0.16968783736228943, 0.028790205717086792, -0.1330733299255371, 0.19301412999629974, 0.11071662604808807, 0.15223409235477448, 0.15143395960330963, -0.16720855236053467, -0.06288967281579971, -0.16583557426929474, 0.1448124498128891, 0.1951366513967514, 0.04139431193470955, -0.1670970618724823, 0.1537397801876068, 0.08648369461297989, -0.18586574494838715, -0.16395194828510284, 0.19773276150226593, -0.057286255061626434, -0.18489117920398712, 0.1547258347272873, 0.14599335193634033, 0.18644772469997406, -0.12007096409797668, 0.1220025047659874, -0.0745377317070961, 0.12153395265340805, 0.11787892132997513, 0.1424054503440857, 0.18177039921283722, 0.19287671148777008, 0.15509551763534546, 0.10764987021684647, -0.13722200691699982, 0.1895051747560501, 0.1231854036450386, -0.09512508660554886, -0.12183678150177002, -0.18248294293880463, 0.03313469514250755], [-0.06986871361732483, 0.015909554436802864, -0.17788363993167877, -0.13983698189258575, -0.1327362060546875, -0.01435220055282116, 0.18223696947097778, -0.008773274719715118, 0.0347190760076046, -0.1999126374721527, 0.15898270905017853, -0.16243238747119904, -0.17103655636310577, -0.15035215020179749, -0.10803445428609848, -0.000677955336868763, 0.12178422510623932, 0.07671467214822769, 0.011753495782613754, 0.0016237497329711914, 0.1213790774345398, 0.16354653239250183, 0.08828113228082657, -0.17275749146938324, 0.18572036921977997, 0.1051797866821289, -0.16481107473373413, 0.1628865897655487, 0.017961576581001282, -0.10196283459663391, 0.15604504942893982, 0.17188747227191925, -0.17999166250228882, 0.16070953011512756, 0.13250678777694702, 0.15901844203472137, 0.17390881478786469, 0.1278517097234726, 0.12492557615041733, 0.06534257531166077, -0.10754334926605225, 0.1809389591217041, 0.16911311447620392, -0.1617952138185501, 0.12727145850658417, -0.17197373509407043, -0.08196420967578888, -0.10252585262060165, 0.1701759248971939, -0.1267990916967392], [-0.29555338621139526, 0.31446176767349243, 0.40589407086372375, -0.3491351306438446, -0.16386693716049194, -0.43020758032798767, -0.2357427030801773, -0.8448349833488464, -0.487535297870636, 0.20742619037628174, 0.2165360301733017, 0.30813488364219666, 0.18802544474601746, 0.8318516612052917, 1.430229663848877, -0.5393593311309814, -0.16203036904335022, 0.494771808385849, 0.5678128600120544, -0.7823786735534668, 0.38047370314598083, -1.1376203298568726, 0.3230896294116974, -0.20356807112693787, 0.845151424407959, 0.2382565587759018, -0.6426140666007996, 0.09594843536615372, -0.29331937432289124, 0.5386039018630981, -0.33776479959487915, -0.0021706726402044296, -0.5714460611343384, -0.9232291579246521, -0.24372340738773346, 0.26208749413490295, 0.846872091293335, 0.3802272379398346, -0.5136520266532898, -0.5024275779724121, -0.37877362966537476, 0.3049410581588745, 0.07481607049703598, 0.3130350708961487, 0.661532998085022, -0.04803070053458214, 0.49435052275657654, 0.39984720945358276, 0.010587294586002827, 0.8595102429389954], [0.2695979177951813, -0.12299716472625732, 0.12572163343429565, -0.35852909088134766, -0.07736848294734955, -0.04988233000040054, -0.5058374404907227, -0.43284985423088074, 0.20402804017066956, 0.054205916821956635, -0.22673866152763367, -0.40745240449905396, 0.41354018449783325, -0.25569987297058105, 0.13205374777317047, 0.0710039734840393, -0.2322494238615036, -0.28157544136047363, -0.23582646250724792, 0.3757953643798828, 0.304060161113739, 0.35333120822906494, -0.26561439037323, 0.24968397617340088, -0.1795264333486557, -0.17384062707424164, 0.1491132229566574, 0.19546040892601013, -0.35849490761756897, -0.08699831366539001, 0.2757481336593628, 0.5576196908950806, 0.3504992723464966, 0.18188752233982086, 0.26217222213745117, -0.29883143305778503, -0.22582696378231049, 0.20522624254226685, -0.17417873442173004, 0.2384115308523178, -0.06863954663276672, -0.12363260984420776, -0.3591141998767853, -0.3537769019603729, 0.1283421367406845, -0.3567233681678772, -0.1724965125322342, -0.21198345720767975, -0.19542677700519562, -0.10875607281923294], [-0.3402167856693268, 0.7142539024353027, -0.020763490349054337, 0.35884901881217957, -0.34107112884521484, 0.060026027262210846, -0.47327694296836853, 0.7300377488136292, -0.186822772026062, -0.5166720151901245, -0.23927606642246246, -0.143158420920372, 0.05438752844929695, 0.08928973227739334, -0.398682564496994, -0.4890674352645874, -0.7663713693618774, 0.01894364319741726, -0.09898904711008072, -0.24772527813911438, 0.08047962933778763, 0.24825136363506317, 0.4606211185455322, 0.5096489787101746, -0.4793768525123596, 0.021305205300450325, 0.5386950373649597, -0.9620593190193176, 1.0621858835220337, 0.6421598792076111, -0.1698089838027954, 0.10671009868383408, 0.16685885190963745, 0.46044644713401794, -0.18543849885463715, -0.19635650515556335, -0.7920807600021362, 0.5389045476913452, -1.0076440572738647, 0.2917732298374176, 0.6323825120925903, 1.0127105712890625, 0.3286953568458557, -0.18895302712917328, -0.6003326177597046, 0.6453454494476318, -0.2898865342140198, -0.2807771861553192, 0.5420976877212524, 0.7205746173858643], [-0.4530176520347595, 0.22143322229385376, -0.5662242770195007, 0.5727484226226807, 0.017756899818778038, 0.2147340178489685, 0.48652195930480957, 0.014322343282401562, 0.5063441395759583, -0.6928994655609131, 0.09115182608366013, 0.7198068499565125, -0.26418155431747437, -0.298125684261322, -0.06801760941743851, 0.17370468378067017, 0.006569559220224619, -0.24777621030807495, 0.3884351849555969, 0.5452601909637451, -0.26089122891426086, -0.27323710918426514, -0.275795578956604, 0.40441468358039856, -0.24088747799396515, -0.2563432455062866, -0.23668363690376282, 0.004297511652112007, -0.18771840631961823, -0.07890410721302032, -0.4171292781829834, -0.31292203068733215, 0.6956151723861694, 0.20544099807739258, -0.42184367775917053, 0.15571315586566925, -0.03660258650779724, -0.07870133966207504, 0.46005237102508545, 0.44407203793525696, 0.24265548586845398, 0.09522980451583862, -0.4502883553504944, 0.6483193039894104, 0.29815834760665894, -0.11216296255588531, -0.565455436706543, -0.551791250705719, -0.3033059537410736, -0.29681476950645447], [-0.19572040438652039, -0.6173071265220642, 0.16774283349514008, 0.6402983665466309, 0.1573217660188675, 0.22655576467514038, -0.21144892275333405, 0.2127232551574707, -0.03587772324681282, -0.5050192475318909, 0.05662699416279793, 0.21416036784648895, -0.3854908049106598, 0.029812542721629143, -0.4270581901073456, -0.18579064309597015, -0.2265220731496811, 0.1718483865261078, 0.1254701018333435, 0.09242559969425201, 0.27147990465164185, -0.23091134428977966, -0.3192287087440491, -0.534442126750946, -0.1851053386926651, -0.24952435493469238, -0.29961782693862915, 0.3996149003505707, -0.40203240513801575, -0.09876497089862823, -0.3737694323062897, -0.3248569071292877, 0.37060675024986267, 0.03169609233736992, -0.3701850473880768, -0.3930535912513733, 0.36273252964019775, 0.34349656105041504, 0.06794179975986481, 0.277628093957901, -0.581021785736084, 0.32483556866645813, -0.42524081468582153, 0.3676934838294983, -0.3371732234954834, -0.3754163086414337, -0.09630468487739563, -0.30434101819992065, -0.3321642279624939, -0.19021335244178772], [0.26796793937683105, 0.09131785482168198, -0.07503876835107803, 0.3902175724506378, -0.32549941539764404, 0.37201252579689026, 0.15536531805992126, -0.08140651136636734, 0.5189727544784546, -0.3355324864387512, -0.2633184790611267, -0.3686172068119049, -0.34276577830314636, -0.35417819023132324, -0.09832144528627396, 0.36745399236679077, -0.11832934617996216, -0.0956818088889122, -0.3382514715194702, -0.29398807883262634, 0.3665629029273987, -0.13019970059394836, -0.2103453427553177, 0.37902286648750305, 0.20441177487373352, -0.19658803939819336, -0.08745913952589035, 0.1100328117609024, -0.14703071117401123, 0.2724727690219879, 0.06381332874298096, 0.048294052481651306, 0.4784650206565857, -0.12682175636291504, 0.3758075535297394, 0.25474104285240173, 0.12765377759933472, -0.10423798114061356, 0.11472912132740021, 0.1515617072582245, -0.11795733124017715, 0.38625818490982056, -0.15833577513694763, -0.021071115508675575, -0.012482509016990662, -0.048315197229385376, -0.5885936617851257, -0.28045132756233215, 0.07626988738775253, 0.2974242866039276], [-0.4487396478652954, 0.03741312772035599, -0.2949683666229248, 0.22803476452827454, -0.1467987298965454, -0.3031712770462036, 0.5081695318222046, -0.034704528748989105, -0.21103885769844055, -0.38940364122390747, -0.3191676139831543, -0.004908298142254353, 0.36514443159103394, -0.19355422258377075, 0.25864991545677185, 0.24345077574253082, -0.16979840397834778, 0.032262470573186874, -0.41114652156829834, 0.095918208360672, -0.2740699052810669, 0.564561128616333, 0.08043479919433594, -0.505782961845398, 0.546468198299408, -0.3849378526210785, -0.10682500153779984, 0.79958575963974, 0.19247420132160187, -0.3922482132911682, 0.08799337595701218, 0.1822924017906189, 0.47265809774398804, -0.2707367241382599, 0.0772424191236496, 0.11477450281381607, 0.37665945291519165, 0.21893121302127838, 0.1845632642507553, 0.46175098419189453, 0.0968322902917862, -0.44144701957702637, -0.005513004492968321, -0.12731248140335083, -0.03199997544288635, -0.23598091304302216, -0.08787300437688828, -0.21350783109664917, -0.2649027407169342, 0.10508761554956436], [-0.14398278295993805, -0.16516241431236267, 0.08440709114074707, 0.1269581913948059, -0.12621372938156128, -0.13681116700172424, 0.14996109902858734, -0.1252160221338272, -0.1133074164390564, -0.18613258004188538, -0.024848245084285736, -0.12257696688175201, -0.16934561729431152, -0.14144866168498993, -0.17683030664920807, 0.04125373438000679, -0.1562073975801468, -0.12604083120822906, -0.14185921847820282, 0.12811368703842163, 0.17803075909614563, 0.08227100223302841, -0.1611623466014862, -0.12684421241283417, -0.08326559513807297, -0.06424181163311005, -0.017345063388347626, 0.12607833743095398, -0.1853274703025818, -0.10101369023323059, 0.11643318086862564, 0.03715846315026283, -0.11856281012296677, -0.031328797340393066, 0.18892566859722137, 0.04525112360715866, -0.1373520791530609, 0.1427353471517563, 0.17596182227134705, 0.1824987381696701, -0.1519365757703781, -0.11784638464450836, 0.12918329238891602, -0.14355269074440002, 0.12097644060850143, 0.15780040621757507, 0.14530806243419647, -0.1318838745355606, -0.13894061744213104, -0.12002379447221756], [-0.16888965666294098, 0.13157051801681519, -0.4895268380641937, 0.4959276020526886, -0.05411113053560257, 0.6722026467323303, -0.16096565127372742, 0.25999715924263, 0.1299930065870285, -0.04784005135297775, 0.3630415201187134, -0.6915656924247742, 0.687857985496521, 0.32937946915626526, -0.6542637944221497, 0.0191719401627779, -0.24045993387699127, 0.031269267201423645, 0.5802100300788879, -0.5623868107795715, 0.9855077266693115, -0.09077464789152145, -0.43447059392929077, -0.49404534697532654, 0.5768370628356934, 0.24107635021209717, 0.4399631917476654, 0.2914465069770813, 0.6173413991928101, 0.5770338177680969, 0.07311505824327469, -0.6254155039787292, -0.936493456363678, -0.6560229063034058, -0.45266270637512207, 0.7446044087409973, 0.29201632738113403, 0.5089946985244751, 0.28013744950294495, 0.48702579736709595, 0.2791592478752136, -0.3847843110561371, -0.05366073176264763, 0.09005111455917358, 0.558691680431366, 0.19121120870113373, -0.05992228537797928, -0.22368687391281128, 0.010446208529174328, -0.2547076642513275], [0.08884795010089874, -0.015336016193032265, -0.21920493245124817, -0.13836319744586945, -0.02319491282105446, 0.02529466524720192, 0.1992357224225998, 0.20168326795101166, 0.17285822331905365, -0.38862183690071106, -0.1878991574048996, -0.1137094795703888, -0.20015950500965118, 0.27930065989494324, 0.4671323001384735, 0.7679253220558167, -0.025131989270448685, -0.2425709217786789, -0.4738669693470001, 0.04843387380242348, -0.043958354741334915, 0.1535622775554657, -0.13113276660442352, 0.38519522547721863, 0.134443461894989, 0.019904326647520065, -0.1204189881682396, -0.05417690798640251, 0.32349810004234314, 0.204307422041893, -0.502488911151886, -0.20344410836696625, -0.11025175452232361, -0.125560462474823, 0.21060296893119812, -0.11537262052297592, 0.3019949197769165, 0.19709117710590363, -0.025697005912661552, -0.24814826250076294, 0.4491947293281555, -0.4175449311733246, 0.2123570591211319, -0.049187324941158295, 0.5902326107025146, -0.26316091418266296, 0.18843984603881836, -0.3555212616920471, -0.3881639838218689, -0.3317994475364685], [-0.1435280740261078, 0.09414035081863403, -0.14438007771968842, 0.4360544979572296, -0.12474308162927628, 0.2566373646259308, 0.6912246942520142, 0.024697916582226753, 0.06971943378448486, -0.30092161893844604, -0.2183455377817154, 0.16803613305091858, 0.11874639242887497, 0.5059974193572998, 0.5085869431495667, 0.6200522184371948, 0.39429745078086853, -0.21132981777191162, 0.030787300318479538, 0.05681760236620903, -0.10140220075845718, 0.20574907958507538, -0.005369382444769144, 0.008790040388703346, 0.4444788098335266, 0.23969785869121552, -0.39755484461784363, 0.45040005445480347, -0.3666324317455292, -0.27473369240760803, -0.1741522252559662, -0.27873608469963074, 0.39273929595947266, 0.21795490384101868, 0.23085924983024597, 0.38179054856300354, 0.25622451305389404, -0.167592391371727, 0.16694146394729614, 0.017165446653962135, 0.18265558779239655, 0.2713429927825928, 0.11578833311796188, -0.10079623758792877, 0.2808985412120819, -0.18417318165302277, -0.0023552351631224155, 0.19268858432769775, -0.30610722303390503, -0.04671705141663551], [0.014281108975410461, -0.07632659375667572, 0.4726926386356354, -0.6126201748847961, -0.01683475449681282, -0.7630053162574768, 0.7692579030990601, 0.05014963075518608, -0.00607308279722929, -0.20480182766914368, 0.525055468082428, -0.10761253535747528, 0.44473719596862793, -0.9326542615890503, -0.72374027967453, 0.32738709449768066, 0.05386288836598396, -0.49792787432670593, -0.4051239788532257, 0.07048912346363068, 0.3425472378730774, 0.8001372218132019, 0.11299357563257217, 0.19964857399463654, -0.1541697084903717, -0.5076148509979248, 0.6206902861595154, -0.3808836340904236, 0.016258221119642258, 0.23347108066082, -0.5920843482017517, 0.25834593176841736, 0.7170457243919373, 0.007501650135964155, -0.2848212718963623, 0.06729763001203537, 0.399766206741333, 0.5180298089981079, -0.04365725442767143, -0.7327437996864319, 0.0694521814584732, -0.07682149857282639, -0.843448281288147, 0.9027091264724731, 0.3569057583808899, 0.9955064654350281, -0.28602924942970276, -0.42451339960098267, 0.4768572449684143, -0.3802982270717621], [0.13762429356575012, 0.16535182297229767, 0.6302960515022278, 0.5144363641738892, 0.44765904545783997, -0.13073086738586426, 0.8397150039672852, 0.2525205910205841, 0.5867879986763, -0.14846916496753693, 0.08548372983932495, 0.04757584258913994, 0.1996987909078598, 0.8503276109695435, 0.3130660951137543, 1.0230876207351685, -0.3225981593132019, 0.16027392446994781, -0.48389142751693726, 0.2389419674873352, 0.583511233329773, -0.16754178702831268, 0.1714099645614624, 0.47632476687431335, 0.036508120596408844, -0.1830323189496994, -0.12061522901058197, -0.42373865842819214, -0.15563280880451202, 0.3880126178264618, -0.5000891089439392, 0.32832664251327515, 0.02250250056385994, 0.5930958986282349, 0.09121134877204895, -0.05285857617855072, 0.6603091955184937, -0.20979160070419312, -0.05701460689306259, -0.5999882221221924, -0.3373045325279236, 0.4306827187538147, 0.0031256196089088917, -0.21854117512702942, 0.09991032630205154, -0.03520161658525467, 0.3989351987838745, -0.5993924736976624, 0.19064953923225403, -0.5968482494354248], [0.11861476302146912, 0.01477515697479248, -0.427988201379776, 0.15361140668392181, -0.23171986639499664, 0.31179702281951904, 0.08129176497459412, 0.28708744049072266, -0.41971126198768616, -0.09272821247577667, -0.3510432839393616, 0.018959183245897293, -0.28034883737564087, 0.5161675214767456, -0.06991809606552124, 0.332146555185318, -0.1572883278131485, 0.44413861632347107, -0.3511248230934143, -0.21805883944034576, -0.41347357630729675, -0.016404105350375175, 0.00882014911621809, 0.24641048908233643, -0.11251376569271088, -0.18276746571063995, -0.43805938959121704, 0.3575575649738312, -0.03905647620558739, -0.11853321641683578, -0.053632061928510666, 0.10734375566244125, -0.05747036635875702, -0.28384724259376526, -0.13062620162963867, 0.42281559109687805, 0.3511325716972351, -0.46651074290275574, 0.5229793787002563, 0.12402261048555374, 0.12307041883468628, 0.271688312292099, 0.004347009584307671, -0.08107559382915497, 0.3102850019931793, -0.027410104870796204, -0.3673253357410431, -0.22318272292613983, -0.6966332197189331, 0.05820732191205025], [0.3063088059425354, -0.24692402780056, 0.10053497552871704, 0.5762415528297424, 0.26585471630096436, -0.1347019225358963, 0.40792378783226013, -0.6900976896286011, 0.40188923478126526, -0.2445685714483261, -0.5733899474143982, 0.11301468312740326, -0.2751302421092987, -0.1531805545091629, -0.2302221953868866, 0.41273608803749084, -0.18457871675491333, -0.2064780443906784, -0.08446628600358963, 0.04567793011665344, 0.15339642763137817, 0.31184157729148865, -0.13232694566249847, 0.08169189840555191, 0.32612213492393494, -0.5992926955223083, 0.1403719186782837, -0.15638232231140137, -0.3213481307029724, 0.024395279586315155, 0.6062972545623779, -0.5664774179458618, 0.44680410623550415, -0.045141272246837616, -0.34361985325813293, 0.27801692485809326, 0.1107189804315567, 0.09314242005348206, 0.24895000457763672, 0.011724918149411678, -0.18036332726478577, 0.5645827651023865, -0.3541046977043152, -0.45738276839256287, -0.14669488370418549, 0.061487555503845215, 0.2683499753475189, 0.0873299241065979, -0.01438649371266365, 0.11361674219369888], [-0.36800768971443176, -2.0524239540100098, -0.9905359745025635, 0.26145824790000916, 0.47274231910705566, -0.13900282979011536, -0.7376077175140381, 0.25709617137908936, -0.08290237933397293, 0.5723963379859924, 0.03786841034889221, 0.19320757687091827, 0.5105997920036316, -0.22889584302902222, 0.6021288633346558, 0.5100674629211426, 0.3393954038619995, -0.1699308454990387, 0.4633331298828125, -0.5924132466316223, -1.073225736618042, -0.21547450125217438, -1.1981395483016968, -0.930229127407074, -0.046759992837905884, 0.01929539442062378, 0.43753430247306824, -0.45654794573783875, -0.5630679726600647, 0.47462227940559387, -0.5606213212013245, 0.2930879294872284, -0.21602214872837067, -0.09574274718761444, -0.4459514021873474, 0.7133023738861084, -0.2880159318447113, -0.3610001802444458, -0.03966791182756424, 0.04516322910785675, 0.605401873588562, -1.0272846221923828, 0.8946816325187683, 0.24916106462478638, 0.36269569396972656, 0.26005592942237854, -0.16161476075649261, 0.6398376822471619, 0.03724045678973198, 0.37251389026641846], [0.34008172154426575, 0.8162582516670227, 0.39537858963012695, -0.46898987889289856, -0.405011385679245, -0.3866380751132965, 0.3388579487800598, 0.3554036021232605, 0.4141172468662262, 0.9627726078033447, 0.37146681547164917, -0.30676013231277466, -0.15016688406467438, -0.6630604863166809, -0.45624008774757385, 0.28202730417251587, 0.5783596038818359, -0.6854282021522522, 0.304813414812088, -0.4383845031261444, -0.08417751640081406, 1.112763524055481, 0.8123270869255066, -0.18069122731685638, 0.21679013967514038, 0.2190331667661667, 0.569169282913208, -0.6965224146842957, -1.0331350564956665, -0.4562571048736572, -0.31067776679992676, 0.10419680178165436, 0.5669263005256653, -0.5383535027503967, 0.0738832950592041, -0.48799192905426025, -0.4655291438102722, 0.28500717878341675, 0.6821413040161133, -0.3538976311683655, 0.5549262166023254, 0.5043489336967468, -0.4788621962070465, -0.08251917362213135, 0.8419691324234009, 0.2239227592945099, 0.38933074474334717, 0.1350562423467636, -0.09466968476772308, -0.2280176877975464], [0.054412294179201126, -0.1318334937095642, -0.18338489532470703, 0.09952995181083679, -0.1500139832496643, 0.1458854228258133, 0.1502043753862381, -0.13523121178150177, -0.17228884994983673, -0.19579559564590454, 0.16434745490550995, -0.14739036560058594, 0.18947343528270721, -0.16791871190071106, 0.1181236058473587, 0.12230342626571655, -0.14199747145175934, 0.10781782865524292, -0.12100901454687119, 0.04585835337638855, 0.07732004672288895, 0.15651661157608032, -0.13195998966693878, 0.09570575505495071, 0.02346162125468254, -0.016204070299863815, -0.1596149355173111, 0.11093177646398544, 0.16269949078559875, -0.16209587454795837, 0.015846453607082367, -0.15532810986042023, 0.13747991621494293, -0.16945315897464752, 0.2008671909570694, 0.08640114217996597, -0.0837460458278656, -0.14215660095214844, 0.13536041975021362, 0.013354272581636906, -0.01388311106711626, -0.14526385068893433, -0.14315666258335114, -0.1728971153497696, 0.11798343062400818, -0.15902265906333923, 0.012714695185422897, -0.06587286293506622, -0.04534834250807762, -0.11948173493146896], [0.6005967259407043, 0.215610533952713, -0.08341103047132492, 0.4058452248573303, 0.31604570150375366, 0.3787616789340973, -0.3813314139842987, -0.060248780995607376, 0.0452396459877491, 0.11497047543525696, 0.23163765668869019, -0.6525148749351501, -0.6583850979804993, -0.22007478773593903, -0.5221276879310608, 0.284408301115036, -0.06114327907562256, 0.09015662968158722, -0.3505849838256836, 0.02829253301024437, -0.5059386491775513, -0.3677999675273895, -0.08474556356668472, 0.40672266483306885, -0.7335671782493591, 0.2512585520744324, -0.7962430715560913, 0.2797250747680664, 0.4410659074783325, 0.4271884262561798, 0.016813622787594795, 0.27750030159950256, -0.15746985375881195, -0.018428955227136612, -0.1452578455209732, -0.1332835853099823, 0.158976212143898, 0.09973719716072083, 0.5378463268280029, -0.46375173330307007, -0.4714953303337097, -0.04626404494047165, -0.3099099397659302, 0.258512943983078, 0.1605428010225296, 0.26588010787963867, -0.19874291121959686, -0.4011877775192261, -0.5168681740760803, -0.16119588911533356], [0.31299105286598206, 0.056830890476703644, -0.936259925365448, 0.33134835958480835, -0.4529409408569336, -0.43184128403663635, 0.6686877608299255, -0.32974550127983093, 0.5799628496170044, -0.7393268942832947, -0.21147748827934265, 0.48667463660240173, -1.0729105472564697, -0.018975190818309784, -0.3288794457912445, -0.09314127266407013, 0.578394889831543, 0.28621891140937805, -0.37193024158477783, -0.009527003392577171, 0.4361390471458435, -0.44920867681503296, 0.29318639636039734, 0.2908184826374054, 0.0010910695418715477, -0.13373079895973206, 0.2702060639858246, 0.5552399754524231, 0.08225461095571518, 0.1870521754026413, 0.10507208853960037, 0.029620183631777763, 0.7014063596725464, -0.328887015581131, 0.4334714412689209, -0.5842154026031494, -0.3640015423297882, -0.4809127748012543, 0.6969732642173767, 0.40769141912460327, 0.10425473004579544, 0.07103138417005539, 0.40123650431632996, 0.3413392901420593, -0.4636957347393036, -0.26031482219696045, -1.1788413524627686, -0.04719843342900276, 0.5559669733047485, -0.23337897658348083], [-0.3034869432449341, -0.016450464725494385, 0.5155256390571594, 0.45004644989967346, -0.21918560564517975, -0.5048773288726807, 0.20209307968616486, -0.1461891382932663, -0.36756449937820435, -0.7368819713592529, 0.13208617269992828, 0.21699966490268707, 0.41172948479652405, -0.2798883020877838, -0.360370934009552, -0.1270465850830078, 0.3883368670940399, -0.30627575516700745, -0.14009566605091095, -0.08612635731697083, -0.5531366467475891, -0.37641921639442444, -0.6042322516441345, 0.09688365459442139, -0.4115810692310333, -0.22749565541744232, -0.1106221154332161, -0.07850466668605804, -0.4744621515274048, -0.3556325435638428, -0.7267342805862427, -0.3363727033138275, 0.12025418132543564, 0.33356133103370667, 0.15064936876296997, 0.09377044439315796, 0.04456041753292084, 0.09224288165569305, 0.19982515275478363, 0.3217145800590515, -0.39424270391464233, -0.17912086844444275, 0.06275560706853867, -0.32662898302078247, 0.12141402810811996, -0.42029935121536255, -0.18540772795677185, 0.012030577287077904, 0.5536428689956665, 0.0069088018499314785], [0.46640545129776, -0.9181625843048096, -0.4709063768386841, -0.4307635724544525, 0.27018335461616516, 0.7359136343002319, 0.29732146859169006, 0.011036014184355736, 0.15876838564872742, -0.8316971063613892, 0.10192100703716278, 0.009007547982037067, 0.2543206512928009, 0.6826947927474976, -0.40777334570884705, -0.20915468037128448, 0.21151486039161682, 0.8509546518325806, -0.06186162307858467, -0.4270392954349518, 0.03945733606815338, -0.05413372069597244, 0.2433917075395584, 0.25049692392349243, 0.29561853408813477, -0.42986416816711426, 0.42744216322898865, 1.209978461265564, -0.5606247186660767, -0.12350793927907944, 0.045806851238012314, -0.49119144678115845, 0.5751873850822449, -0.6528183221817017, -0.5252531170845032, 0.2445662021636963, -0.19490836560726166, -0.18921224772930145, 0.062073297798633575, 0.6744620203971863, -0.08780360221862793, -0.124102883040905, 0.36333364248275757, 0.34412646293640137, -0.19633054733276367, -0.2841799557209015, -0.8407888412475586, 0.47471749782562256, 0.0679459422826767, 0.39676567912101746], [0.26892101764678955, -0.3161570727825165, 0.06327109038829803, -0.1264784336090088, 0.2702969014644623, -0.19038262963294983, 0.2745046019554138, -0.5291510820388794, -0.3562869131565094, -0.047337599098682404, -0.4368273615837097, -0.008256509900093079, 0.3322394788265228, -0.13168427348136902, 0.10346545279026031, 0.2887279689311981, -0.43899640440940857, 0.06279300898313522, -0.23492887616157532, -0.1597565859556198, 0.3145357072353363, 0.5259708166122437, -0.27412447333335876, -0.44244280457496643, 0.2873323857784271, -0.28132355213165283, -0.21878063678741455, -0.11425546556711197, 0.16126450896263123, -0.006962471175938845, 0.051328085362911224, -0.23084275424480438, 0.17182955145835876, -0.031207390129566193, 0.5698679685592651, 0.22003650665283203, -0.2613447904586792, -0.24013936519622803, -0.6005313992500305, 0.09001239389181137, -0.7246314287185669, 0.41837888956069946, -0.13795307278633118, -0.05592947453260422, 0.2566504180431366, -0.02366117760539055, -0.36851075291633606, 0.033828917890787125, -0.26774874329566956, 0.06482459604740143], [-0.4754524528980255, 0.2927318215370178, 0.14239320158958435, 0.31825926899909973, 0.3501429259777069, -0.5975593328475952, -0.09870133548974991, -0.5295568704605103, 0.36990123987197876, -0.13466951251029968, -0.38460779190063477, 0.13991983234882355, -0.40592849254608154, 0.12941184639930725, -0.0355222150683403, -0.249367356300354, -0.0017462403047829866, -0.07889118045568466, -0.233110710978508, 0.7402982711791992, 0.06274121254682541, -0.10633768886327744, -0.18427038192749023, -0.3305409252643585, -0.22712546586990356, -0.5188274383544922, -0.29229795932769775, -0.1765846312046051, -0.15598838031291962, -0.37219732999801636, -0.4795900285243988, 0.12289474904537201, 0.02410222962498665, -0.13518989086151123, -0.02767735719680786, 0.12970732152462006, -0.2544807195663452, -0.5086769461631775, 0.1572955995798111, 0.38252151012420654, -0.878237783908844, -0.03356315195560455, -0.11134276539087296, 0.23803555965423584, -0.49199777841567993, -0.34770435094833374, -0.5524959564208984, -0.3467203676700592, 0.1308506429195404, -0.21010176837444305], [0.5877199769020081, 0.6207975745201111, -0.7485361695289612, -0.0987127274274826, 0.7255529761314392, -0.11520633101463318, 0.6532984972000122, 0.3256179392337799, 0.22716988623142242, 0.21272051334381104, -0.06865739822387695, -0.05208633467555046, 0.004148502834141254, -0.7155680656433105, -0.49914342164993286, 0.08179187029600143, -0.4815059006214142, 0.23769810795783997, 0.02833888866007328, -0.7183892130851746, 0.14372742176055908, 0.20387102663516998, 0.6922282576560974, -0.10706285387277603, 0.160884827375412, 0.9907371401786804, 0.11237116158008575, -0.5864794254302979, 0.3148014545440674, -0.5034817457199097, -0.2771797180175781, -0.15699869394302368, 0.3492740988731384, 0.32173511385917664, 0.11826702207326889, -0.4759039580821991, -0.4899129271507263, 0.30525636672973633, 0.14228007197380066, -0.4355488419532776, 1.007951021194458, 1.0680105686187744, 0.3015623986721039, -0.07012820243835449, 0.7243659496307373, 1.4631813764572144, 0.1689319908618927, -0.019971519708633423, 0.21795767545700073, 0.3624017536640167], [0.43617403507232666, -0.004485974088311195, -0.4169366657733917, 0.24227772653102875, 0.5666630864143372, 0.1139233186841011, 0.7359139919281006, -0.4897543489933014, 0.2125094085931778, -0.5906803607940674, -0.6706034541130066, -0.8345056772232056, -0.12061034888029099, 0.8216049671173096, 0.2872481048107147, 0.7236832976341248, 0.11173070967197418, 0.15912207961082458, -0.5896522998809814, -0.25167685747146606, -0.165280282497406, 0.2541947662830353, 0.2740965783596039, 0.2025088667869568, -0.17790383100509644, -0.28607067465782166, 0.3824824392795563, 0.5774965286254883, 0.18767713010311127, 0.11384949833154678, -0.6521350145339966, -0.2810973525047302, -0.570641040802002, -0.42558783292770386, 0.4886874854564667, -0.20285864174365997, -0.09922662377357483, -0.19470012187957764, -0.10467346012592316, -0.04209912195801735, -0.377029687166214, 0.3552805483341217, 0.5021472573280334, 0.037747569382190704, 0.15220168232917786, -0.21905562281608582, -0.5103217363357544, 0.36183300614356995, 0.27771124243736267, -0.21361088752746582], [0.2845154106616974, -0.011987759731709957, 0.1003701463341713, 0.41167670488357544, 0.0051900171674788, -0.3115256428718567, -0.0010831807740032673, -0.18842118978500366, -0.2857701778411865, -0.28700196743011475, -0.31301215291023254, -0.27758026123046875, 0.320505291223526, -0.44620928168296814, -0.02783631533384323, 0.1097966730594635, -0.18742792308330536, 0.3791424334049225, 0.12106528133153915, -0.3702673614025116, 0.033587418496608734, 0.12644916772842407, -0.5757811665534973, -0.10830751061439514, 0.23322473466396332, -0.6092476844787598, -0.05579392611980438, -0.4894217848777771, -0.28834468126296997, 0.05385668948292732, 0.08940830081701279, -0.08449941873550415, -0.12015775591135025, 0.17785173654556274, 0.4309502840042114, 0.28428587317466736, -0.12301047146320343, 0.0790829136967659, -0.014405369758605957, 0.26340171694755554, -0.1606966108083725, 0.1442802995443344, -0.3465774953365326, -0.0021876036189496517, 0.21023842692375183, -0.10183172672986984, -0.39035478234291077, -0.12394317984580994, -0.40430963039398193, -0.39814093708992004], [0.47020387649536133, -0.17788556218147278, -0.12436676770448685, 0.5941330194473267, -0.19007761776447296, 0.3763344883918762, 0.1767716258764267, -0.26140812039375305, 0.19474169611930847, -0.486320823431015, -0.3241802752017975, -0.08890942484140396, 0.2801002264022827, 0.14406196773052216, 0.32516705989837646, 0.2515976130962372, -0.15417058765888214, -0.14664559066295624, -0.17276087403297424, -0.20110970735549927, -0.2890029847621918, 0.00882774218916893, -0.37743014097213745, 0.3946080207824707, 0.08372271806001663, 0.15678226947784424, 0.05242547765374184, -0.03901989385485649, -0.6566678881645203, -0.4474733769893646, -0.15522171556949615, -0.31523677706718445, -0.24377121031284332, 0.1264602392911911, 0.8659613132476807, 0.1319476068019867, 0.022598162293434143, 0.3586268126964569, -0.07803113013505936, 0.16860556602478027, 0.13172228634357452, 0.6570860147476196, -0.34950771927833557, -0.6363045573234558, 0.20871680974960327, -0.5483126044273376, 0.3065797984600067, -0.15108907222747803, -0.31699851155281067, -0.28220275044441223], [0.390897274017334, -0.2592574656009674, 0.2807191014289856, 0.48637813329696655, 0.01009728666394949, -0.17969563603401184, 0.0006208815611898899, -0.1971801072359085, 0.182297021150589, -0.10445757210254669, -0.3545394539833069, 0.23846712708473206, -0.035179316997528076, -0.4558318853378296, 0.13109639286994934, 0.4498026371002197, 0.44621002674102783, -0.20988278090953827, -0.2439078539609909, -0.4719114303588867, -0.4081445336341858, -0.03455498814582825, -0.43404531478881836, 0.2975459694862366, 0.39446839690208435, 0.24243420362472534, -0.38976824283599854, 0.19094984233379364, -0.19768266379833221, -0.49680718779563904, 0.12765946984291077, -0.23398157954216003, 0.28077101707458496, -0.41899803280830383, 0.31345781683921814, 0.09353673458099365, 0.08617965131998062, 0.40274035930633545, -0.2838456630706787, 0.26931649446487427, -0.21034209430217743, 0.48652809858322144, -0.07346289604902267, -0.4025014340877533, 0.03455611318349838, -0.5312799215316772, -0.250273734331131, -0.1402282416820526, 0.447011262178421, 0.11378417909145355], [0.49870312213897705, -0.29699817299842834, -0.23550190031528473, 0.48949864506721497, 0.13618454337120056, 0.07639501243829727, 0.2952081263065338, -0.5593383312225342, -0.5514379143714905, -0.3090781271457672, -0.16306069493293762, 0.6910389065742493, 0.5047493577003479, 0.36340123414993286, -0.7633341550827026, -0.003547670552507043, 0.7417317032814026, 0.22884927690029144, -0.1407172828912735, -0.5472270250320435, -0.6954619884490967, -0.33173316717147827, 0.12753911316394806, 0.7091988921165466, -0.04974367842078209, 0.2613157629966736, -0.1964539885520935, 0.6432856917381287, -0.2766326367855072, -0.3424990475177765, -0.3459720015525818, -0.38902950286865234, -0.2476448118686676, -0.4019376337528229, 1.074214220046997, -1.0049759149551392, -0.6733525991439819, -0.7050291895866394, 0.12434634566307068, 0.13395050168037415, -0.45289668440818787, 0.0452265590429306, 1.0280383825302124, -0.30117908120155334, -0.4152868986129761, -1.0440629720687866, -0.3101899027824402, 0.2544013559818268, 1.1103196144104004, 0.18705932796001434], [0.46788638830184937, -0.2426060289144516, -0.0491257980465889, -0.14598432183265686, -0.006417140364646912, 0.4434716999530792, -0.4723881781101227, -0.30492836236953735, -0.5480779409408569, -0.09400072693824768, -0.04212062060832977, -0.29720938205718994, -0.40455707907676697, -0.7359437346458435, -0.1306651532649994, 0.4682270288467407, -0.4235351085662842, -0.08347804844379425, -0.2559455335140228, 0.4770837724208832, 0.3096734881401062, 0.5746199488639832, 0.5262130498886108, 0.2075454145669937, 0.5095077753067017, 0.12659406661987305, -0.05121958255767822, -0.7131630182266235, -0.16694489121437073, 0.061232104897499084, 0.2779993712902069, -0.1721918135881424, -0.4095739722251892, 0.3450392782688141, 0.16034233570098877, -0.01667494885623455, -0.4098140299320221, 0.2161969244480133, -0.3432464301586151, -0.09920523315668106, -0.2566331923007965, -0.3889559507369995, -0.42105644941329956, 0.3961212635040283, -0.010154979303479195, -0.2434145212173462, -0.016260161995887756, -0.07001075893640518, -0.025887833908200264, -0.8128933310508728], [0.22825586795806885, -0.11905797570943832, 0.29982465505599976, -0.10019998997449875, 0.5093098878860474, -0.013268434442579746, -0.320247083902359, -0.20953795313835144, -0.2899414896965027, -0.3004220426082611, 0.1740085780620575, 0.005931798834353685, -0.12489313632249832, -0.6355809569358826, -0.4171045422554016, -0.39338672161102295, -0.13367001712322235, -0.2999163866043091, 0.7467973828315735, 0.01729510724544525, 0.05319620668888092, -0.12073137611150742, -0.04841035231947899, 0.21903447806835175, 0.23255065083503723, -0.11156284809112549, -0.8459725379943848, -0.11338071525096893, -0.0826207846403122, 0.6975417733192444, 0.38879454135894775, -0.09298940747976303, -0.23710112273693085, 0.1561184823513031, 0.3854595422744751, 0.24092376232147217, -0.3139922618865967, 0.1835431456565857, 0.8842174410820007, -0.40626031160354614, 0.27781611680984497, -0.4177023470401764, -0.1308930665254593, -0.14216771721839905, 0.09268791973590851, 0.353259801864624, -0.17855191230773926, -0.8122769594192505, -0.22180864214897156, -0.06323108822107315], [-0.4242740571498871, 0.018082667142152786, 0.4521845877170563, -0.2674921751022339, -0.5277419090270996, 0.021839067339897156, 0.2885550558567047, -0.3370780646800995, -0.3580560088157654, 0.0750202164053917, -0.40916240215301514, -0.48964422941207886, 0.35289788246154785, 0.1534997671842575, 0.15810060501098633, -0.20318211615085602, -0.4454467296600342, -0.06558957695960999, -0.010472732596099377, 0.20751284062862396, 0.21413825452327728, -0.09232740104198456, -0.31613922119140625, 0.38721874356269836, -0.4063882827758789, -0.3260331153869629, -0.08977164328098297, -0.36944469809532166, 0.26839160919189453, -0.5271499156951904, 0.168966144323349, -0.4049853980541229, 0.11494921892881393, 0.04531905800104141, 0.48172229528427124, 0.2429117113351822, -0.2648475170135498, -0.10129252076148987, 0.3736201822757721, 0.4325290322303772, -0.07602322101593018, -0.2224152535200119, -0.04269152879714966, -0.025071023032069206, -0.04858121648430824, 0.20627164840698242, -0.3954176902770996, -0.0601113997399807, -0.00680107856169343, -0.2554623484611511], [0.2598172724246979, -0.27424129843711853, -0.04939712584018707, -0.26538607478141785, -0.13408493995666504, 0.22466066479682922, -0.28033536672592163, -0.05637257173657417, -0.24503086507320404, 0.3247891962528229, 0.10358516871929169, 0.2076551616191864, -0.06132813170552254, -0.35101860761642456, 0.24329392611980438, -0.6917762160301208, 0.18771950900554657, -0.34941166639328003, -0.0926022082567215, 0.12045566737651825, 0.34014809131622314, 0.43817681074142456, -0.5037667751312256, 0.09495242685079575, -0.15756115317344666, -0.06700709462165833, 0.36924052238464355, -0.12481415271759033, 0.16028021275997162, 0.08294188231229782, 0.38180169463157654, 0.054352156817913055, 0.1565539687871933, 0.2751328945159912, 0.1497308760881424, 0.31293314695358276, -0.0775269865989685, -0.19789227843284607, -0.020781179890036583, 0.16469229757785797, -0.08680439740419388, 0.3865604102611542, -0.5288492441177368, -0.4158928692340851, 0.3754015266895294, -0.12246466428041458, 0.08515577018260956, -0.36774778366088867, -0.05148833990097046, -0.435320109128952], [-0.08329283446073532, -0.04989564046263695, -0.14465345442295074, -0.17524421215057373, -0.21490585803985596, -0.061952345073223114, -0.16972807049751282, 0.06362291425466537, -0.0957118570804596, -0.22321288287639618, -0.16531074047088623, 0.29325345158576965, 0.22314578294754028, -0.04731351509690285, -0.11260724812746048, 0.410284161567688, 0.5652585625648499, -0.2487628161907196, -0.26788562536239624, 0.16618619859218597, -0.4040710926055908, -0.27153080701828003, -0.145536869764328, 0.555886447429657, 0.2789531946182251, 0.44263404607772827, -0.4793483018875122, 0.3578113317489624, 0.3030511736869812, -0.6343784928321838, 0.08090226352214813, -0.3860483765602112, 0.2253892570734024, 0.06231258809566498, 0.084645114839077, 0.3687628209590912, 0.07562961429357529, 0.12304511666297913, -0.16938789188861847, -0.18209321796894073, 0.4036014676094055, -0.2270110696554184, -0.27390581369400024, -0.23503875732421875, 0.3121987283229828, -0.3851376175880432, 0.21673430502414703, -0.33145034313201904, 0.24989494681358337, -0.23372437059879303], [-0.11756005883216858, -0.18440483510494232, -0.5715231895446777, 0.4462246894836426, -0.36181187629699707, 0.010002167895436287, 0.22659766674041748, -0.21859344840049744, 0.07998701930046082, -0.16748365759849548, -0.35401642322540283, -0.1446218639612198, -0.5618873238563538, -0.09215332567691803, -0.27357515692710876, 0.628943920135498, -0.2495916783809662, 0.4297080636024475, -0.15051259100437164, -0.27975890040397644, 0.43341192603111267, -0.26315683126449585, 0.04636572673916817, 0.7225003838539124, -0.6136690974235535, -0.3570633828639984, -0.26349034905433655, -0.02162652648985386, 0.5276827216148376, 0.05871279537677765, -0.320436030626297, -0.26611417531967163, -0.35261136293411255, -0.028871264308691025, -0.4587509036064148, 0.16734181344509125, -0.49234670400619507, 0.3212158977985382, 0.15186761319637299, -0.2851211130619049, -0.7462058067321777, 0.24592940509319305, 0.1519319862127304, -0.5022305846214294, 0.669532299041748, -0.2968297302722931, -0.17636685073375702, -0.42392852902412415, -0.6673568487167358, -0.206584632396698], [0.6073822975158691, 0.3979095220565796, 0.06781844049692154, 0.008829345926642418, 0.7384557127952576, -0.3983738422393799, 0.3721437156200409, -0.25710761547088623, 0.5381625890731812, 0.49477773904800415, -0.13358503580093384, 0.2966925799846649, 0.10352347791194916, -0.6703146696090698, -1.0710502862930298, 0.0887550637125969, 0.4237993061542511, 0.11773378401994705, 0.22287410497665405, -0.10581851005554199, -0.03007984533905983, 0.6130865216255188, 0.7240646481513977, -0.09895632416009903, 0.8173636794090271, -0.35195422172546387, 0.39467987418174744, 0.0023214782122522593, -0.40183618664741516, -0.5159581899642944, 0.6336832642555237, -0.7142416834831238, 0.3684301972389221, -0.560867428779602, -0.6281886696815491, -0.4923388957977295, -0.22567783296108246, 0.2195768803358078, 1.16763436794281, -0.5650173425674438, 0.5865805745124817, 0.5628032088279724, -0.4970223307609558, 0.10998658835887909, 0.36528363823890686, 0.9935699701309204, 0.18726898729801178, -0.7218101620674133, 0.3198641240596771, 0.07029706239700317], [0.13349652290344238, -0.14681416749954224, 0.1894138604402542, -0.2214350700378418, 0.6495802402496338, 0.4145453870296478, 0.20997469127178192, -0.6310431361198425, -0.21551215648651123, -0.6705999970436096, -0.2657356262207031, 0.10045413672924042, -0.5435079336166382, 0.2780599892139435, -0.659430980682373, -0.030168021097779274, -0.2095252275466919, 0.769148588180542, -0.2709847092628479, -0.8080993294715881, 0.15901753306388855, -0.12967726588249207, 0.5242210030555725, 0.21666254103183746, -0.25689148902893066, 0.2999608516693115, 0.3150613605976105, -0.35212597250938416, 0.6975361704826355, 0.09817951917648315, 0.0438353605568409, -0.3368733823299408, 0.033378761261701584, 0.6322073936462402, 0.27971023321151733, -0.6235378980636597, -0.5660429000854492, -0.12175489217042923, -0.12233804911375046, 0.23003019392490387, 0.35744234919548035, 0.7277294993400574, 1.1989775896072388, 0.06647595763206482, -0.21276287734508514, 0.36232149600982666, -0.6533993482589722, -0.3433977961540222, 0.24991510808467865, 0.17486828565597534], [-0.44727447628974915, -0.3106794059276581, -0.49350717663764954, 0.2397981584072113, 0.03100169263780117, 0.2970549464225769, -0.03811926767230034, -0.4213513731956482, 0.33333393931388855, -0.17953988909721375, -0.19281983375549316, 0.4580692946910858, -0.14012905955314636, 0.37323012948036194, -0.08636915683746338, -0.2896082103252411, -0.25312888622283936, 0.12646165490150452, -0.3215368986129761, 0.3243589997291565, 0.22519680857658386, 0.5022966861724854, 0.09130022674798965, -0.5936765074729919, 0.17239856719970703, -0.7825077772140503, -0.1788671463727951, 0.09966666251420975, 0.45781707763671875, 0.5306016206741333, 0.48303282260894775, 0.0033516017720103264, -0.13585343956947327, -0.015683354809880257, 0.40989989042282104, -0.34619227051734924, -0.17299523949623108, -0.4645700752735138, 0.8768278360366821, -0.15693150460720062, -0.28704315423965454, 0.37628433108329773, -0.4246487021446228, -0.04015646129846573, -0.05110213905572891, -0.3538498282432556, 0.5531888008117676, 0.06478280574083328, -0.3756905198097229, -0.3532031774520874], [0.03958738222718239, -0.05986717715859413, -0.21174943447113037, -0.09847568720579147, 0.027956681326031685, -0.18848806619644165, 0.11485487222671509, 0.10323438793420792, 0.046020492911338806, -0.1888362020254135, 0.1072857603430748, -0.151099294424057, -0.14061979949474335, -0.1360051929950714, 0.12369614094495773, 0.11485894024372101, -0.17781278491020203, -0.11435271054506302, 0.03614138811826706, 0.17770789563655853, 0.06529780477285385, 0.0383041687309742, -0.16802598536014557, 0.1668979823589325, 0.1523674577474594, -0.08987576514482498, 0.14817051589488983, 0.08058623969554901, -0.20026536285877228, -0.20246167480945587, 0.10273196548223495, -0.11466191709041595, 0.024644363671541214, -0.14652182161808014, 0.21125587821006775, 0.18563926219940186, 0.06129820644855499, 0.17113623023033142, 0.09994929283857346, 0.1638013869524002, -0.182775616645813, -0.13517530262470245, -0.1712777018547058, -0.15496475994586945, 0.006787104532122612, 0.07870955765247345, 0.08933001756668091, -0.10180384665727615, 0.17165662348270416, -0.19076615571975708], [0.1232173815369606, 0.061960041522979736, 0.3513358533382416, -0.2773453891277313, 0.2569316625595093, 0.24032475054264069, -0.15884359180927277, -0.18650810420513153, -0.38308724761009216, -0.025182679295539856, -0.10748905688524246, -0.18447841703891754, -0.2855933904647827, 0.12382587790489197, 0.23746800422668457, -0.4696858823299408, 0.19039684534072876, -0.16492892801761627, -0.38168394565582275, 0.13617879152297974, -0.2709609866142273, 0.45107191801071167, -0.17996154725551605, 0.20046916604042053, 0.05685168877243996, -0.0905517190694809, -0.06920456141233444, 0.4832538962364197, 0.33595794439315796, -0.4787761867046356, 0.07107248902320862, 0.08936651796102524, -0.2991454005241394, -0.3466200828552246, -0.4028940200805664, 0.06663767993450165, 0.26660996675491333, 0.3397461771965027, 0.4053214490413666, 0.3540797531604767, -0.433053582906723, 0.2838687300682068, 0.1916891485452652, 0.028675276786088943, -0.30444663763046265, -0.46332675218582153, -0.2821538746356964, 0.36910179257392883, -0.28192752599716187, -0.18081378936767578], [0.05544940382242203, -0.44698646664619446, 0.11850288510322571, 0.4616525173187256, -0.10209661722183228, -0.212646484375, -0.034724242985248566, -0.07714714109897614, 0.19325631856918335, -0.02372744120657444, 0.022264696657657623, -0.4641527235507965, 0.153364360332489, 0.34705066680908203, 0.19891297817230225, 0.36831092834472656, 0.24360814690589905, 0.18870329856872559, -0.33409640192985535, -0.3264634609222412, 0.09874854236841202, 0.5159769058227539, -0.19926640391349792, -0.27266091108322144, 0.025464678183197975, 0.004122485406696796, -0.12882496416568756, 0.08701680600643158, -0.1601308137178421, -0.397239089012146, -0.22447918355464935, -0.5445709228515625, 0.596132755279541, 0.18071171641349792, 0.4461030960083008, 0.2830663323402405, -0.0864858403801918, 0.5567570328712463, -0.20458175241947174, 0.004360876977443695, -0.5947681665420532, 0.03895318880677223, -0.5931094884872437, -0.14011290669441223, -0.25809842348098755, -0.2765607535839081, -0.12630203366279602, -0.19227370619773865, 0.29810112714767456, -0.044531501829624176], [0.4826935827732086, -0.0469866544008255, 0.04097338765859604, -0.5873003005981445, -0.31818658113479614, 0.19826729595661163, -0.5919591784477234, 0.27759283781051636, -0.35832691192626953, -0.42531701922416687, 0.3743102252483368, -0.15609319508075714, 0.38022109866142273, -0.6366488933563232, 0.4653956890106201, -0.2134806364774704, -0.40848344564437866, -0.4231850504875183, -0.27642446756362915, 0.3216569423675537, -0.4413148760795593, 0.13374432921409607, -0.42509597539901733, -0.14433705806732178, -0.1318972408771515, 0.09735655784606934, 0.17575669288635254, 0.00538138672709465, 0.008421262726187706, -0.2592707574367523, -0.752474308013916, 0.48339492082595825, 0.12710538506507874, 0.10324936360120773, 0.1706274300813675, 0.5758268237113953, 0.5942294001579285, -0.6518102884292603, 0.2737324833869934, 0.16656585037708282, 0.5894536972045898, 0.24478600919246674, 0.36500492691993713, -0.09619805961847305, -0.5598387122154236, 0.21595996618270874, 0.4322074055671692, -0.09147398173809052, -0.020337823778390884, -0.503240704536438], [-0.2365652471780777, -0.22244837880134583, -0.03414306044578552, -0.274849534034729, -0.18399594724178314, 0.9284965395927429, 0.09342505037784576, -0.07755251973867416, 0.2157096415758133, -0.019633430987596512, 0.3754071593284607, 0.5156465172767639, -0.18139180541038513, -0.6330882906913757, -0.34541428089141846, -0.033326201140880585, -0.25901880860328674, -0.0347323901951313, 0.1793270707130432, 0.154252827167511, -0.5314167737960815, -0.19666758179664612, -0.15702782571315765, 0.2614631950855255, 0.0020926413126289845, -0.19690243899822235, -0.24754343926906586, 0.22555138170719147, -0.09219072014093399, 0.14958138763904572, 0.3204162120819092, -0.6205618381500244, -0.06088659167289734, -0.1377333402633667, 0.33074212074279785, 0.044187936931848526, -0.5540512204170227, 0.0942714586853981, -0.19628052413463593, -0.1838328093290329, -0.046304989606142044, 0.48297521471977234, 0.280971497297287, -0.40680280327796936, -0.15232126414775848, -0.3014541566371918, 0.4432588815689087, -0.19550278782844543, -0.6491146087646484, -0.03661122918128967], [0.042113952338695526, -0.401731938123703, -0.06388995051383972, -0.4506630301475525, -0.3948700726032257, 0.4632435441017151, 0.06229487434029579, 0.09776764363050461, -0.5118587017059326, 0.6824672222137451, 0.5461190938949585, 0.1115066409111023, 0.07498913258314133, 0.45846256613731384, 0.5704299211502075, -0.26513415575027466, -0.054533421993255615, -0.34127435088157654, -0.21508672833442688, 0.4228954315185547, 0.18915733695030212, 0.31035786867141724, -0.16469304263591766, 0.19661173224449158, 0.09714224189519882, -0.17703518271446228, 0.1268397569656372, 0.3326539099216461, 0.6831001043319702, -0.16282102465629578, 0.33984169363975525, 0.37990468740463257, 0.11089318245649338, -0.26141947507858276, 0.4847615957260132, 0.4348590672016144, -0.34167686104774475, -0.5513399839401245, 0.08196050673723221, 0.0006409224588423967, 0.010930728167295456, 0.37230342626571655, -0.2109481245279312, -0.8878005146980286, 0.6782649159431458, -0.39711523056030273, -0.35817137360572815, 0.5548203587532043, 0.20021821558475494, -0.7741433382034302], [-0.032856233417987823, -0.30241310596466064, -0.00222375662997365, -0.08763232827186584, -0.1496596336364746, 0.23119883239269257, 0.03780871629714966, -0.1350700855255127, 0.06515052914619446, 0.13432489335536957, -0.10163339972496033, -0.33398333191871643, 0.19551603496074677, -0.07092401385307312, -0.19111314415931702, -0.26558950543403625, -0.1483733206987381, -0.2647377550601959, -0.1083914041519165, 0.3168635964393616, -0.42217695713043213, 0.10131492465734482, -0.3849799335002899, -0.1604633927345276, 0.3111255466938019, -0.10814706981182098, -0.22715280950069427, 0.1948077231645584, 0.3591408431529999, -0.36517491936683655, 0.47557398676872253, -0.25667449831962585, -0.2406659722328186, 0.20850074291229248, 0.03545328974723816, 0.10262942314147949, -0.29574358463287354, 0.48803192377090454, 0.40703943371772766, -0.04860072210431099, 0.0730283260345459, 0.1540638655424118, -0.4493577182292938, 0.11210078001022339, -0.3928288519382477, -0.39808663725852966, 0.501251220703125, -0.10818158090114594, -0.22862373292446136, -0.23748695850372314], [0.03376645967364311, -0.1724514216184616, 0.12278285622596741, -0.08735501021146774, -0.4648144841194153, -0.09817920625209808, -0.15401427447795868, -0.5358830094337463, 0.12971191108226776, -0.5953683257102966, -0.3843587040901184, -0.4664006233215332, -0.38175398111343384, 0.4036710262298584, 0.10268912464380264, 0.06615409255027771, 0.18890206515789032, -0.24974773824214935, -0.11315805464982986, 0.2523322105407715, 0.0063386172987520695, -0.0213242806494236, 0.4817177951335907, -0.3237031102180481, -0.044580843299627304, -0.3380572497844696, 0.19521932303905487, 0.26547208428382874, 0.04596713185310364, -0.059255022555589676, 0.20232683420181274, -0.29139429330825806, -0.08148219436407089, -0.24264927208423615, 0.5623733997344971, -0.3747740089893341, 0.22130067646503448, 0.19006061553955078, 0.35241812467575073, -0.09565600007772446, 0.3998715877532959, -0.33256837725639343, -0.3093426525592804, -0.47022414207458496, 0.13290287554264069, 0.04300456494092941, 0.06842581927776337, 0.6365646719932556, -0.4830920398235321, 0.18096506595611572], [0.07511809468269348, -0.7229798436164856, 0.34364402294158936, -0.48940595984458923, 0.6448351144790649, 0.1288132667541504, 0.11321912705898285, 0.19440583884716034, 0.5339402556419373, -0.027451392263174057, 0.18698175251483917, -0.5422438979148865, 0.10696680843830109, 0.07410258054733276, 0.13877259194850922, -0.6218263506889343, -0.5801993608474731, 0.01708652637898922, 0.24502360820770264, 0.2274191677570343, 0.2520410716533661, 0.3727203607559204, -0.24396662414073944, -0.48845911026000977, -0.16360145807266235, 0.5884309411048889, -0.5280674695968628, 1.14871084690094, -0.572365939617157, 0.09073004871606827, 0.22507046163082123, 0.2395126223564148, 1.1158840656280518, -0.09284526854753494, 0.318240225315094, 0.16118526458740234, -0.27871617674827576, 1.0891989469528198, 0.08274688571691513, -0.8420799970626831, -0.38740411400794983, -0.8241062760353088, -0.37901899218559265, 0.364266037940979, -0.09995289146900177, 0.422280877828598, -0.7388555407524109, -0.527216911315918, 0.4256093204021454, 0.7698149681091309], [0.7794808149337769, 0.7047604918479919, 0.39459705352783203, -0.07877456396818161, 0.31945478916168213, -0.4475826025009155, 0.402957022190094, 0.5370544195175171, 0.22407832741737366, 0.7064931392669678, -0.06549306213855743, 0.5872036814689636, 0.9360737800598145, -0.7506483197212219, -0.5189501643180847, 0.12380310148000717, 0.8756877779960632, 0.24774576723575592, 0.22137203812599182, -0.6957713961601257, -0.9365944862365723, 0.04098666086792946, 0.30916666984558105, 0.30315741896629333, 0.15972910821437836, 1.0578336715698242, -0.4750659465789795, 0.2920357584953308, -0.27223771810531616, -1.004096508026123, -0.31734341382980347, -0.1968105286359787, 0.06825020164251328, -0.575467050075531, 0.10802306979894638, -0.8011014461517334, -0.4916817545890808, 0.12015701830387115, 0.30568185448646545, -0.5802644491195679, 0.6007646322250366, 0.564858615398407, -0.06257013231515884, 0.1633133739233017, 0.8020275831222534, 0.018520206212997437, 0.38700899481773376, -0.046399299055337906, 1.0934624671936035, 0.23549985885620117], [-0.2946294844150543, -0.2092042863368988, -0.06409822404384613, -0.3300752639770508, -0.40685537457466125, 0.09020500630140305, 0.28796103596687317, 0.07128753513097763, 0.01878487318754196, 0.06025917828083038, -0.12407056987285614, -0.29420047998428345, 0.3050917088985443, 0.00021128542721271515, -0.28470855951309204, 0.33138537406921387, -0.25652143359184265, -0.10032062977552414, -0.14136792719364166, 0.3413488566875458, 0.11945077776908875, 0.5311145186424255, 0.3975691497325897, -0.06257397681474686, 0.05162423476576805, -0.3048561215400696, -0.19490410387516022, 0.21354450285434723, 0.3918358087539673, -0.4474116861820221, 0.13582131266593933, 0.015650803223252296, 0.1511920690536499, -0.17685717344284058, -0.0025483411736786366, 0.2873949706554413, 0.09601352363824844, 0.42721831798553467, 0.25954246520996094, 0.1456608772277832, -0.219234898686409, -0.3632150888442993, -0.10204731673002243, -0.2800990343093872, -0.08946070075035095, -0.3310442566871643, -0.3151034712791443, 0.29782935976982117, 0.28292807936668396, -0.43248191475868225], [-0.4000302255153656, -0.03778303414583206, 0.07813376933336258, 0.39994680881500244, -0.382205069065094, 0.6102088093757629, -0.3982769250869751, 0.7593767046928406, -0.5800693035125732, 0.4139617681503296, 0.3881336450576782, 0.4069463610649109, 0.2540583908557892, 0.006514395587146282, -0.4103844463825226, -1.1092971563339233, 0.41541898250579834, 0.29912590980529785, 0.9184417724609375, 0.5444357395172119, -0.030075453221797943, 0.25648754835128784, 0.013591467402875423, 0.27429285645484924, 0.322503000497818, -0.570682168006897, 1.3248919248580933, -0.06027456745505333, 0.792963981628418, 0.656320333480835, -0.05087115988135338, 0.020252976566553116, 0.1196141466498375, 0.1064281165599823, -0.03881657123565674, -0.17293795943260193, -0.6493368148803711, -0.24452362954616547, -1.0528250932693481, 0.3056764602661133, 0.3748379647731781, 0.6333704590797424, -0.8562003374099731, -1.0662287473678589, -0.0922585278749466, -0.059987008571624756, -0.13107748329639435, 0.4548431634902954, 0.553454577922821, 0.03579321131110191], [0.2013268917798996, 1.0892473459243774, -0.579028844833374, -0.8466547727584839, 0.21837849915027618, 0.21356360614299774, 0.005193237215280533, 0.013244562782347202, -0.08898013830184937, 0.770946204662323, -0.3208003640174866, -0.710395097732544, 0.8044578433036804, -0.026082735508680344, -0.09337981790304184, -0.26357829570770264, -0.21409501135349274, -0.17471225559711456, 0.9066210389137268, -0.8916682600975037, 0.5284214615821838, 0.10608875751495361, -0.12070104479789734, 0.8024832010269165, 0.8961979746818542, 0.7423821091651917, -0.23165199160575867, -0.6881732940673828, -0.8794923424720764, -0.2066640853881836, 0.24251757562160492, 0.3866330683231354, -0.28440093994140625, -1.1554005146026611, -0.1998775601387024, -1.0129939317703247, 0.44624149799346924, -0.19208291172981262, -0.058984678238630295, -0.8615518808364868, 0.1157161146402359, 0.926690936088562, -1.2424647808074951, 0.2683461010456085, -0.058400172740221024, 0.5920065641403198, 0.9190599918365479, 0.3816877007484436, 0.44772055745124817, -0.1449025422334671], [0.21674953401088715, -0.7420858144760132, -0.6810891628265381, -0.21502457559108734, -0.0582205131649971, -0.18612602353096008, -0.3115991950035095, 0.5487146973609924, -0.6141401529312134, -0.2633095681667328, -0.1525556445121765, -0.4608439803123474, 0.09183401614427567, -0.32332032918930054, 0.4223310351371765, -0.2031981199979782, -0.1708078682422638, -0.2797366678714752, -0.10270186513662338, 0.16785074770450592, -0.3572360873222351, -0.6815098524093628, -0.7560455203056335, 0.19209672510623932, 0.15665976703166962, -0.05817168205976486, -0.0007499582134187222, 0.2939302623271942, 0.14554768800735474, -0.027156660333275795, -0.5402477383613586, 0.22807762026786804, 0.47248053550720215, -0.26525044441223145, 0.07405774295330048, 0.341585248708725, 0.182681143283844, -0.398103803396225, -0.08451654016971588, -0.11224276572465897, 0.3929589092731476, -0.10083849728107452, 0.04865589737892151, 0.2597297728061676, -0.19908317923545837, -0.0614054836332798, 0.6275795698165894, -0.2966557741165161, -0.07461164891719818, -0.20705561339855194], [0.03752545639872551, -1.4820308685302734, -0.6209391951560974, -0.7718106508255005, -0.513001561164856, 0.14887309074401855, -0.5318999886512756, -1.444294810295105, -0.008949877694249153, -0.13184060156345367, 0.4227386713027954, 0.8723384141921997, 0.5475761890411377, -0.0027591255493462086, 1.040958285331726, -0.4104251265525818, 0.18171559274196625, -0.01481461152434349, 0.365893691778183, -0.5897557735443115, -0.19620861113071442, -0.4564506411552429, -0.09142617136240005, 0.051549069583415985, 0.131373792886734, 0.5044412612915039, 0.0546492375433445, -0.49612006545066833, -0.5573581457138062, 0.41616055369377136, -0.5972751379013062, 1.357192873954773, -0.2400234192609787, -0.016610581427812576, -0.3866855204105377, -0.011498365551233292, 1.1490644216537476, -0.00498172314837575, 0.028980938717722893, 1.0702077150344849, -0.07711091637611389, -0.20544160902500153, -0.2429324984550476, 0.26463809609413147, 0.04897619038820267, 0.4543948173522949, 0.16466988623142242, 0.2074318677186966, 0.26873457431793213, 0.6207541227340698], [0.7734642624855042, 0.03526252135634422, -0.892435610294342, -0.1502177119255066, 0.5223754644393921, 0.5815497636795044, 0.07424604147672653, -0.32522520422935486, -0.556333065032959, 0.01835041120648384, -0.6493814587593079, -0.46883654594421387, -0.7056432962417603, 0.3652609884738922, -0.35362645983695984, 0.22735796868801117, 0.6813216805458069, 0.9086804986000061, -0.5441997647285461, -0.4122683107852936, -0.5144428014755249, -0.058297447860240936, 0.4462192952632904, 0.5040945410728455, -0.4186044931411743, -0.254306435585022, -0.24359840154647827, 0.360586553812027, 0.13347271084785461, 0.2846777141094208, 0.3392218053340912, -0.3991241455078125, -0.4222885072231293, -0.20404577255249023, -0.10513415932655334, -0.014581907540559769, -0.7789071202278137, 0.14065279066562653, 0.4010339081287384, 0.7831940054893494, -0.2816203832626343, 0.01997484639286995, 0.33582183718681335, -0.14645615220069885, -0.1204260066151619, -0.11981009691953659, -0.3436037600040436, 0.1340547651052475, -0.18107576668262482, -0.1986539214849472], [0.2452532798051834, 0.010093738324940205, -0.3694862127304077, 0.37192675471305847, 0.10859891772270203, 0.03523426875472069, 0.15447759628295898, -0.2828653156757355, -0.17248782515525818, -0.3394756019115448, -0.31345638632774353, -0.13316237926483154, 0.06583651900291443, -0.23961995542049408, 0.2684504985809326, 0.32268813252449036, -0.6228294968605042, -0.046282555907964706, -0.1609921157360077, 0.08771852403879166, 0.21068009734153748, 0.06630703806877136, -0.02398042194545269, -0.3100135922431946, 0.35602259635925293, 0.20432335138320923, -0.06147647649049759, 0.2319450080394745, 0.11422485113143921, -0.18657054007053375, 0.0047378139570355415, -0.17670857906341553, 0.3852786421775818, 0.4466070532798767, 0.24513980746269226, 0.2484547346830368, -0.04698832705616951, 0.13060620427131653, -0.35889309644699097, 0.0778428167104721, 0.08933835476636887, 0.7487484216690063, 0.13110722601413727, -0.5012055039405823, 0.09014753252267838, 0.3241017162799835, -0.294990599155426, -0.0877111628651619, -0.07938464730978012, 0.25084322690963745], [-0.18969881534576416, -0.6017809510231018, -0.11031316220760345, 0.5220806002616882, 0.004667214117944241, -0.4288964867591858, -0.11396607756614685, 0.06638780981302261, -0.02370501309633255, -0.2445153445005417, -0.04022013396024704, -0.01231927890330553, 0.053637150675058365, 0.39871570467948914, 0.25572407245635986, -0.23165850341320038, -0.4775349199771881, -0.2788836658000946, -0.048502810299396515, -0.24562044441699982, 0.20285242795944214, 0.38690486550331116, -0.10854141414165497, -0.6968087553977966, -0.5023375749588013, -0.045729540288448334, 0.2741236686706543, 0.5069464445114136, 0.2395506203174591, -0.09983672946691513, 0.09615535289049149, -0.24257875978946686, 0.4683417081832886, -0.19701801240444183, 0.2985273003578186, -0.5732519030570984, 0.43547505140304565, -0.10909588634967804, 0.3203524053096771, -0.24077916145324707, 0.0005918657407164574, 0.40454670786857605, -0.47932106256484985, -0.04807407036423683, -0.05102197080850601, -0.2838336229324341, -0.19175052642822266, 0.5038294792175293, -0.8582489490509033, -0.548846423625946], [-0.35888487100601196, -0.4864448308944702, -0.34266048669815063, -0.17162425816059113, -0.16778869926929474, -0.31765642762184143, -0.1797153800725937, 0.3809833228588104, -0.05671461299061775, -0.09875521063804626, 0.1624048948287964, -0.2792506814002991, -0.18748001754283905, 0.31181684136390686, -0.025853941217064857, 0.3212820291519165, 0.3825451731681824, -0.22593040764331818, -0.3539260923862457, 0.44033312797546387, 0.07557928562164307, -0.216022789478302, 0.19202078878879547, -0.08139228820800781, -0.07935674488544464, 0.2554418444633484, -0.15844660997390747, -0.28168150782585144, 0.27205386757850647, -0.5322344899177551, -0.13057363033294678, -0.54096919298172, 0.2422228753566742, 0.2713319957256317, 0.09664975106716156, -0.2863560914993286, -0.10606397688388824, 0.5814822316169739, 0.10722865164279938, -0.20320765674114227, -0.007259849924594164, -0.37009015679359436, -0.031169092282652855, -0.009760231710970402, -0.038379427045583725, -0.19807089865207672, -0.15499989688396454, -0.24601425230503082, 0.09131413698196411, -0.3643249273300171], [-0.43251481652259827, -0.14143718779087067, 0.045286014676094055, -0.05646180361509323, -0.4089065194129944, -0.03250188007950783, 0.5814880132675171, 0.11977943032979965, -0.22563430666923523, -0.02599446475505829, -0.2223033756017685, 0.28859204053878784, 0.4948585629463196, 0.1308533102273941, -0.20573952794075012, 0.20046092569828033, -0.1478269100189209, 0.2512507736682892, 0.07634194195270538, -0.30231910943984985, -0.3709309995174408, -0.13848865032196045, -0.07145247608423233, 0.2759302258491516, 0.3673676550388336, 0.25933846831321716, -0.3744577169418335, 0.4379326403141022, 0.0908651351928711, -0.2675037086009979, -0.2640219032764435, 0.14549830555915833, 0.13517993688583374, 0.39021849632263184, 0.06458868086338043, 0.0612279549241066, 0.1450367420911789, -0.44935914874076843, 0.2750970423221588, 0.1765774041414261, 0.14878258109092712, 0.2085336446762085, 0.24829958379268646, -0.30831941962242126, 0.07003786414861679, -0.5499575734138489, -0.010065519250929356, -0.13588829338550568, 0.07883971929550171, -0.06216653063893318], [-0.47350025177001953, -0.0996263176202774, -0.20505735278129578, -0.15004278719425201, 0.19575251638889313, 0.20597440004348755, -0.4715319871902466, -0.061001088470220566, 0.2336922585964203, -0.07306858152151108, -0.3153701722621918, 0.13943281769752502, -0.15627387166023254, -0.298366516828537, -0.3305491507053375, -0.3971668779850006, -0.43659156560897827, -0.08572956174612045, -0.32254838943481445, 0.44282254576683044, 0.33011236786842346, 0.07906294614076614, -0.3233560621738434, -0.07556315511465073, 0.5553262829780579, -0.5066732168197632, -0.4967680871486664, -0.27953240275382996, -0.07676837593317032, 0.47656264901161194, 0.6803944706916809, -0.10348838567733765, -0.02710687555372715, 0.36954158544540405, -0.10295085608959198, -0.2174597531557083, -0.15536510944366455, 0.18240639567375183, 0.5223321318626404, 0.2296881079673767, -0.3095570504665375, 0.15619626641273499, -0.31497645378112793, -0.21058452129364014, 0.13784290850162506, 0.06734807789325714, 0.012953182682394981, -0.18096418678760529, 0.01342862844467163, -0.10456947237253189], [-0.190543070435524, -0.0008119149133563042, 0.16401532292366028, 0.2496926188468933, -0.3718477487564087, -0.2310287207365036, 0.35545337200164795, -0.6330617666244507, -0.5296390056610107, -0.42040741443634033, 0.2820550799369812, 0.17651639878749847, 0.2918734848499298, 0.020623808726668358, -0.2050894796848297, 0.15353180468082428, -0.26470232009887695, 0.067931167781353, -0.2792840003967285, 0.034309301525354385, 0.10449789464473724, -0.1364360898733139, -0.3912867307662964, 0.05422741547226906, -0.1421230286359787, -0.14975357055664062, -0.00048313941806554794, 0.19515085220336914, 0.2885809540748596, 0.021077796816825867, 0.03958255797624588, -0.6274714469909668, 0.23332038521766663, -0.30910325050354004, 0.4558544158935547, -0.07464226335287094, 0.18331049382686615, 0.1757754534482956, 0.5202195048332214, -0.07877347618341446, -0.28685814142227173, 0.32141217589378357, 0.023195646703243256, -0.18149586021900177, 0.1417708396911621, -0.3639589250087738, 0.4808763861656189, 0.3965511620044708, -0.07184037566184998, -0.16301114857196808], [-0.18593232333660126, -0.3216975927352905, -0.2431701123714447, 0.29734474420547485, 0.012855278328061104, 0.2178357094526291, 0.07458984851837158, -0.22091259062290192, 0.3204154074192047, -0.2389451265335083, -0.019049372524023056, -0.24750614166259766, -0.44889238476753235, 0.4673832058906555, 0.20645350217819214, -0.035325970500707626, 0.2757875323295593, -0.4108322262763977, -0.040106307715177536, 0.7074869275093079, 0.0746881365776062, 0.5626739263534546, -0.2650264799594879, -0.14790813624858856, 0.28299254179000854, -0.26470711827278137, 0.9110628366470337, -0.47029027342796326, 0.32660841941833496, 0.12179982662200928, -0.0562894344329834, -0.04985630512237549, 0.8020615577697754, -0.16442181169986725, -0.396104097366333, 0.07656896859407425, 0.7468911409378052, -0.3466014266014099, 0.610731840133667, 0.5221534371376038, -0.40827107429504395, 0.5760918855667114, -0.5382280349731445, 0.468002051115036, -0.22698190808296204, 0.4711746573448181, 0.604027509689331, -0.1996873915195465, 0.21019284427165985, -0.22341012954711914], [0.17309805750846863, -0.14459535479545593, -0.16948339343070984, -0.10563106089830399, -0.13993795216083527, 0.13342039287090302, 0.16160404682159424, -0.10665435343980789, 0.0277438685297966, -0.07886021584272385, 0.01793564483523369, 0.1319822371006012, -0.12099126726388931, 0.05306937173008919, -0.16627034544944763, 0.12181764841079712, -0.17470312118530273, -0.16873985528945923, 0.15998178720474243, 0.1518878936767578, 0.19129443168640137, 0.16762807965278625, -0.055901333689689636, -0.07126171886920929, 0.1438683569431305, 0.13126656413078308, -0.15350359678268433, 0.0304294154047966, 0.12183317542076111, -0.03806848078966141, 0.11090005189180374, 0.07529153674840927, -0.15998999774456024, -0.1657230257987976, 0.17880454659461975, 0.13013003766536713, -0.07933571934700012, -0.1678638458251953, 0.14613036811351776, 0.1667540818452835, -0.10808083415031433, -0.14542493224143982, 0.14296981692314148, 0.09801662713289261, 0.16276416182518005, -0.16249947249889374, -0.17077229917049408, -0.16283878684043884, -0.10871779173612595, -0.06999805569648743], [0.03573198989033699, -0.6179944276809692, -0.08787686377763748, -0.2519766092300415, -0.22766050696372986, 0.4949505925178528, 0.2902698218822479, -0.3056129515171051, 0.3613280653953552, -0.3313291668891907, 0.010871805250644684, 0.03313741087913513, 0.035529594868421555, 0.71292644739151, 0.23343542218208313, 0.20541565120220184, -0.2858509421348572, 0.27333393692970276, 0.04297932982444763, -0.0017913721967488527, 0.03946520760655403, 0.09755008667707443, -0.1252342015504837, 0.4313197433948517, 0.31083592772483826, -0.2478802502155304, 0.5037124752998352, 0.46449586749076843, -0.2873193323612213, -0.5301017761230469, 0.2552986741065979, 0.00043579121120274067, 0.21394667029380798, -0.10926426947116852, -0.5638562440872192, 0.49690210819244385, 0.013687929138541222, 0.10995655506849289, -0.1602874994277954, 0.2675946354866028, 0.08813075721263885, 0.5446292757987976, -0.032991405576467514, 0.564090371131897, -0.025105034932494164, 0.43720167875289917, 0.06288986653089523, 0.25599002838134766, -0.5587600469589233, 0.12151075899600983], [-0.47472134232521057, -0.7966617941856384, 0.2815505862236023, -0.5838762521743774, 0.0854971706867218, -0.14493641257286072, 0.1409701108932495, 0.2895317077636719, 0.07463310658931732, -0.16465359926223755, 0.004375222604721785, -0.0020607025362551212, 0.06161633878946304, 0.38244763016700745, -0.13578803837299347, -0.5539522171020508, -0.5615124702453613, 0.7399846315383911, -0.058505743741989136, 0.5342568159103394, -0.05219699814915657, 0.27353379130363464, 0.16928336024284363, -0.17237775027751923, -0.016783880069851875, 0.2408027946949005, 0.19116699695587158, 0.5303781628608704, -0.13339540362358093, -0.14717838168144226, -0.2407066822052002, -0.2948165237903595, 0.4757022559642792, 0.038025930523872375, -0.1277797520160675, -0.1846121847629547, 0.3942561149597168, -0.09077510237693787, 0.11255000531673431, 0.0641779899597168, -0.22835607826709747, -0.32926952838897705, 0.29657918214797974, -0.18129782378673553, 0.43193668127059937, -0.12302787601947784, -0.1002131924033165, -0.28976085782051086, 0.5888273119926453, 0.03635421022772789], [-0.023537222295999527, 0.008070088922977448, -0.5114944577217102, -0.10609935969114304, -0.37784314155578613, 0.1914152055978775, -0.016839876770973206, -0.0013254033401608467, -0.10006757080554962, -0.5206607580184937, -0.12042876332998276, -0.021722018718719482, -0.11684176325798035, 0.21152526140213013, -0.12764142453670502, 0.31438902020454407, 0.09701211005449295, -0.2297428697347641, -0.19907689094543457, 0.3346414864063263, -0.17306484282016754, -0.11621245741844177, -0.17071178555488586, 0.13803081214427948, -0.09980329871177673, 0.35705843567848206, 0.1541169136762619, 0.0265211071819067, -0.06853730231523514, -0.5586854219436646, -0.004690862260758877, -0.3045896589756012, -0.219459667801857, 0.1850777417421341, 0.540825366973877, -0.46569928526878357, -0.02894044667482376, -0.14001335203647614, 0.02585628628730774, 0.10495490580797195, 0.5800037980079651, -0.18895305693149567, 0.2244509905576706, -0.4017271101474762, 0.32050982117652893, -0.3622780740261078, 0.7072724103927612, 0.06433070451021194, -0.30183494091033936, -0.08541792631149292], [0.47484028339385986, -0.21508321166038513, 0.13882076740264893, -0.770727276802063, 0.22140195965766907, 0.06736814230680466, 0.15306073427200317, -0.04261898994445801, -0.09496539831161499, -0.9096881747245789, 0.473837673664093, 0.08358985930681229, -0.7191057801246643, -0.17020468413829803, 0.6515152454376221, -0.34953391551971436, 0.2914040982723236, 0.6608075499534607, 0.5108242630958557, 0.09303582459688187, -0.5244532227516174, -0.22381602227687836, 0.4041382968425751, -0.10705415904521942, 0.03749589994549751, -0.3659787178039551, -0.05878699943423271, 0.06130285561084747, -0.3546639382839203, -0.20200249552726746, -0.041233643889427185, -0.36005255579948425, 0.912158727645874, 0.10306704789400101, 0.7253364324569702, -0.08678292483091354, 0.37680715322494507, -0.46388500928878784, 0.2762509286403656, -0.7725418210029602, -0.29295614361763, 0.6453962326049805, -0.21374376118183136, -0.22846023738384247, -0.3085553050041199, -0.27461159229278564, -0.6966927647590637, 0.5230036377906799, -0.5854551792144775, 0.4155943691730499], [0.176396444439888, -0.029248636215925217, -0.11267625540494919, 0.2544090151786804, -0.3266105055809021, 0.031630005687475204, 0.5285937786102295, 0.2708200514316559, -0.6030434370040894, -0.35061800479888916, 0.20841647684574127, 0.21802324056625366, 0.75371253490448, 0.46837759017944336, -0.23117779195308685, -0.4060554802417755, -0.3343546986579895, -0.3428651988506317, -0.24208815395832062, 0.1988997757434845, 0.023662906140089035, -0.03789962828159332, 0.24495528638362885, -0.097982257604599, -0.43471992015838623, 0.4202454388141632, 0.18936565518379211, 0.24178867042064667, -0.4575860798358917, -0.0013386474456638098, 0.12122093141078949, 0.024923987686634064, -0.8154194355010986, -0.2100929319858551, 0.5485655665397644, -0.07960212230682373, -0.16957347095012665, -0.3705670237541199, 0.440430611371994, 0.3118589222431183, 0.05464774742722511, 0.43776002526283264, 0.36045607924461365, 0.3241387605667114, -0.17003187537193298, -0.4780380427837372, 0.48780596256256104, 0.2295243889093399, -0.25412288308143616, -0.12680988013744354], [0.06864701211452484, 0.09337633848190308, -0.0123214703053236, 0.27422034740448, 0.5821046829223633, -0.16900858283042908, -0.0010493879672139883, -0.18403910100460052, -0.5104208588600159, -0.10392002016305923, 0.0969761312007904, -0.3229901194572449, -0.30843785405158997, -0.3162117600440979, -0.12337180972099304, -0.0494232252240181, 0.45159950852394104, 0.5265657305717468, -0.242838516831398, 0.12695498764514923, 0.016674131155014038, -0.4884648025035858, 0.21272116899490356, 0.2569827437400818, -0.4756549298763275, -0.3369359076023102, -0.5357618927955627, 0.4581494629383087, -0.5335613489151001, -0.18007051944732666, 0.07454108446836472, -0.027462255209684372, 0.468720406293869, 0.7281870245933533, 0.3919900059700012, -0.043009765446186066, 0.40822291374206543, -0.9498955011367798, 0.46200236678123474, -0.09954298287630081, 0.40993326902389526, -0.0020153645891696215, 0.1379389762878418, -0.8007870316505432, 0.25133663415908813, -0.9048580527305603, 1.263829231262207, 0.5991097092628479, -0.2866321802139282, -0.585993766784668], [0.6570329666137695, -0.41694483160972595, -0.2347702831029892, 0.8179704546928406, -0.6638465523719788, 0.2719832956790924, -0.26513808965682983, -0.005411433055996895, -0.39890819787979126, -0.05189691111445427, -0.008624445647001266, 0.550719141960144, -0.0262726042419672, -0.05208528786897659, 0.29341500997543335, -0.23562951385974884, -0.03410390391945839, -0.5097870826721191, -0.5652007460594177, -0.4958314597606659, 0.3507333993911743, -0.29563096165657043, 0.35617515444755554, 0.3675358295440674, 0.2082909196615219, 0.4764155149459839, 