{"zero_const": [0.0], "pi_const": [3.1415927410125732], "ent_embeddings.weight": [[-0.07496067881584167, -0.1800224781036377, 0.5552507638931274, -0.8334861993789673, 0.2643970549106598, 0.26103490591049194, -0.1509929597377777, 0.2785932421684265, -0.34912288188934326, -0.3566552996635437, 0.3868492841720581, -0.32877877354621887, 0.081973597407341, -0.08939657360315323, -0.08752984553575516, 0.529976487159729, 0.4977858066558838, 0.12835770845413208, -0.020909728482365608, -0.02268308959901333, 0.5504554510116577, -0.4759887754917145, 0.03921457380056381, 0.2167271375656128, 0.17936013638973236, -0.5668693780899048, 0.859755277633667, -0.7227745056152344, -0.5534261465072632, -0.513653039932251, 0.35442155599594116, -0.33758339285850525, -0.7444918155670166, -0.9010471701622009, -0.7809628844261169, -0.676417350769043, 0.2799587845802307, -0.32502469420433044, 0.23063012957572937, 0.39650774002075195, -0.14192131161689758, -0.47886472940444946, 0.3431248664855957, -0.03687101975083351, 0.008622937835752964, -0.2310800850391388, 0.9124191403388977, -0.13257499039173126, -0.10352803021669388, -0.22020147740840912], [-0.5456080436706543, -1.0674786567687988, -0.27448150515556335, 0.36209243535995483, 0.3012107014656067, 0.2820814251899719, 0.5888456702232361, -1.147663950920105, -0.626045286655426, 0.1679648756980896, -0.659643292427063, -0.6367036700248718, -0.35177144408226013, 0.16279970109462738, -1.2824313640594482, 0.4178277552127838, -0.9661420583724976, 0.0004042662912979722, -1.0290547609329224, 0.5799022912979126, -0.11965635418891907, -0.6709867119789124, -0.41932904720306396, 0.000777428038418293, 0.4492623507976532, 0.23075932264328003, 0.6020002365112305, 1.230817437171936, 0.28377246856689453, -0.12063641846179962, 0.15443037450313568, -1.5248538255691528, -0.02748718112707138, -0.7611315846443176, 0.11031483113765717, -0.04251859709620476, -0.02550519071519375, 0.1158609539270401, -0.14467404782772064, -0.5094252824783325, -0.6051884889602661, -0.46600040793418884, 0.30492955446243286, -0.3320978581905365, -0.7753446102142334, -1.2306885719299316, -0.5947074294090271, 0.3095300495624542, 0.16193516552448273, -0.02609107457101345], [0.18245656788349152, -0.15382592380046844, 0.0638633742928505, 0.2647859454154968, 0.37280404567718506, 0.2945517301559448, -0.0678277388215065, 0.1975986361503601, -0.49127936363220215, 0.051488444209098816, -0.17244458198547363, 0.13804350793361664, 0.685275673866272, 0.13646240532398224, -0.20972184836864471, 1.202004075050354, 0.3210585117340088, -0.5610514283180237, -0.2145072966814041, 0.573232889175415, 0.2023255079984665, 0.28332948684692383, 0.005816771648824215, 0.3555762767791748, 0.16484759747982025, -0.09545423090457916, -0.3249342739582062, -0.49213218688964844, 0.08539561182260513, -0.6481695771217346, 0.3706273138523102, 0.45024991035461426, -0.5663788914680481, -0.5799143314361572, -0.5819497108459473, 0.7239156365394592, 0.040986236184835434, 0.15147344768047333, -0.2747267186641693, 0.5515570044517517, 0.39886924624443054, 0.41321036219596863, 0.95862877368927, -0.40081074833869934, -0.2378685176372528, -0.1725599616765976, 0.2960299551486969, 0.6759833097457886, 0.15289656817913055, -0.17712494730949402], [0.010282784700393677, 0.25732553005218506, -0.6404451727867126, -0.11748407781124115, -0.24802175164222717, -0.053178709000349045, 0.6198419332504272, -0.6039214134216309, -0.1598462164402008, 0.3770354390144348, -0.07124427706003189, 0.26851359009742737, 0.19384756684303284, 0.397004097700119, -0.10057635605335236, -0.38256216049194336, -0.2721773386001587, -0.22838211059570312, 0.37559202313423157, -0.15875841677188873, 0.988396942615509, -0.1504068374633789, 0.0722777396440506, 0.5215727090835571, 0.131272554397583, -0.7288209795951843, -0.31962165236473083, 0.21256551146507263, -0.45473822951316833, 0.32252249121665955, -0.3912433683872223, 0.29309654235839844, -0.0801427811384201, -0.7496351003646851, 0.01129317469894886, 0.9646134972572327, 0.4371339976787567, -0.1360960751771927, -0.14104631543159485, -0.37057504057884216, 0.8780423402786255, -0.24850068986415863, 0.13152626156806946, 0.1922512948513031, -0.012204582802951336, 0.07756495475769043, -0.6747355461120605, -0.037162575870752335, -0.13778626918792725, -0.40129464864730835], [-0.3759779930114746, 0.22672662138938904, 0.23829543590545654, -0.07557863742113113, -0.003364530624821782, 0.37183231115341187, 0.011903082951903343, 0.2593654692173004, -0.0938543975353241, -0.2425062507390976, -0.2483130246400833, -0.3615568280220032, 0.23954075574874878, -0.2696986794471741, -0.23861946165561676, -0.453869491815567, -0.2500365078449249, -0.26313304901123047, -0.06026913970708847, -0.5503352880477905, 0.23695288598537445, -0.032379843294620514, -0.11436934024095535, 0.13563431799411774, 0.02181106060743332, -0.3092324435710907, -0.28183841705322266, -0.19467900693416595, -0.3316125273704529, -0.1919029951095581, -0.21875399351119995, -0.07017237693071365, -0.03822837024927139, -0.25726479291915894, 0.23487922549247742, -0.5053520202636719, -0.6157169342041016, -0.14608071744441986, -0.04945937544107437, 0.18250823020935059, 0.6713904738426208, 0.08896464854478836, -0.36904945969581604, 0.4257120192050934, 0.5593105554580688, -0.3652186393737793, -0.34400615096092224, -0.4634930193424225, -0.02292032167315483, 0.29991602897644043], [-0.31975966691970825, 0.2149711549282074, 0.5427425503730774, -0.34957996010780334, -0.046290043741464615, -0.18618163466453552, 0.1771237999200821, 0.03667319938540459, -0.3189865052700043, 0.188984677195549, -0.5251278281211853, -0.1387079358100891, 0.3897396922111511, -0.37117964029312134, -0.01588214933872223, -0.33306649327278137, -0.18678487837314606, 0.1426098793745041, 0.41153955459594727, 0.008496491238474846, 0.22634711861610413, 0.00775923952460289, 0.09646478295326233, -0.10329607874155045, -0.2555713653564453, -0.19975893199443817, 0.24759986996650696, 0.23811529576778412, -0.058404650539159775, 0.23906934261322021, -0.2840880751609802, 0.0265803262591362, 0.17963382601737976, -0.478423535823822, 0.5823543667793274, 0.07066217064857483, 0.04881105199456215, 0.3569681644439697, 0.34130650758743286, -0.025540461763739586, -0.2032761126756668, 0.07167434692382812, -0.23554299771785736, 0.1243402361869812, 0.04140612483024597, -0.10888064652681351, 0.24439579248428345, -0.27118033170700073, 0.32354429364204407, -0.5680000185966492], [0.24861598014831543, -0.5279953479766846, -0.32286760210990906, 0.13317222893238068, -0.1962966024875641, 0.19112400710582733, -0.39433884620666504, -0.13941596448421478, -0.10080014169216156, 0.3318532109260559, -0.19431981444358826, 0.5959212779998779, -0.12680703401565552, 0.5141896605491638, -0.24720866978168488, -0.44428151845932007, -0.5619043707847595, 0.14200973510742188, 0.4236057996749878, -0.4462798535823822, 0.32188767194747925, -0.26107504963874817, 0.36117762327194214, 0.11129812151193619, 0.07159639149904251, 0.24165399372577667, -0.3448842465877533, -0.3133624792098999, 0.22921043634414673, 0.3396005928516388, -0.6253402233123779, 0.06782402843236923, -0.5130965709686279, 0.1820967197418213, 0.07347556203603745, 0.0019697831012308598, 0.06665859371423721, -0.25251075625419617, 0.13638851046562195, 0.23750503361225128, 0.3439694046974182, 0.009230962954461575, -0.37913456559181213, 0.2581593096256256, 0.4272867441177368, -0.15300701558589935, 0.4052644968032837, 0.005324561148881912, -0.21845309436321259, 0.28417399525642395], [-0.4256053864955902, -0.27973324060440063, -0.27455219626426697, -0.17615173757076263, -0.1381169706583023, -0.3957805037498474, -0.42407649755477905, -0.0616866871714592, -0.03622442111372948, -0.23575353622436523, 0.04065048694610596, 0.07870522886514664, -0.08122403919696808, 0.05207987129688263, -0.0486161969602108, -0.21925093233585358, -0.4342046082019806, -0.07310189306735992, 0.1734134554862976, -0.25006967782974243, -0.013162411749362946, -0.37582656741142273, 0.33654657006263733, 0.39548224210739136, 0.0972495898604393, -0.3849990963935852, -0.13902795314788818, -0.43639060854911804, 0.0512426421046257, 0.4077986478805542, 0.23650091886520386, 0.2576020658016205, 0.3927419185638428, 0.31964316964149475, -0.08087266981601715, -0.07686520367860794, -0.40522119402885437, 0.21132905781269073, -0.25311756134033203, -0.4825231730937958, 0.11747096478939056, 0.3804667294025421, -0.19263552129268646, 0.1791929006576538, 0.22570039331912994, 0.13649766147136688, 0.2677326500415802, -0.19494451582431793, 0.1382359266281128, 0.3500218987464905], [0.6622053384780884, -1.1280661821365356, 0.5233346223831177, -0.5731679797172546, -0.3088739812374115, 0.33377572894096375, 0.23023436963558197, 0.5251845121383667, -0.06863909959793091, 0.06873868405818939, -0.2440859079360962, -0.01767875999212265, -0.41881173849105835, -0.5943313241004944, -0.11771728098392487, 0.9296624064445496, -0.3765413463115692, -0.6612153053283691, -0.7791531085968018, -0.6623198986053467, 0.02529425360262394, 0.4738869071006775, 0.25928473472595215, -0.19353735446929932, 0.1224886029958725, 0.4906614422798157, -0.18943774700164795, -0.04215191677212715, 0.5689224600791931, 1.2311859130859375, 0.09985476732254028, -0.6361923217773438, -0.20163202285766602, -0.28907719254493713, -0.19635248184204102, 0.7883718609809875, 0.3387663960456848, -0.5275140404701233, -0.07314661145210266, -0.8944978713989258, -0.09400118142366409, 0.268086701631546, -0.023193111643195152, 0.0497145876288414, 0.038669437170028687, 0.7061466574668884, 0.3407191336154938, -0.0564231239259243, -0.21961145102977753, -0.7316926121711731], [0.15250258147716522, -0.10932659357786179, 0.12841014564037323, -0.047993145883083344, 0.015232976526021957, -0.01056626159697771, 0.10971485823392868, 0.09670748561620712, 0.16530318558216095, -0.19561921060085297, 0.015536611899733543, 0.15332025289535522, 0.18246769905090332, 0.09728635847568512, -0.14986291527748108, -0.15743525326251984, -0.07480182498693466, 0.16971422731876373, -0.13643722236156464, -0.14283700287342072, 0.13978230953216553, -0.11897624284029007, 0.18233996629714966, -0.18930675089359283, -0.0006936676800251007, 0.17862462997436523, 0.17660576105117798, 0.08021950721740723, 0.16305996477603912, 0.18562035262584686, 0.15708595514297485, -0.19463975727558136, 0.15475036203861237, -0.09659938514232635, -0.1665744036436081, 0.15655720233917236, -0.18038150668144226, -0.05864504352211952, -0.11881206184625626, -0.07693639397621155, 0.17165589332580566, -0.16407836973667145, -0.1707126349210739, 0.10617031902074814, 0.061322957277297974, 0.13241444528102875, 0.19756165146827698, -0.14465336501598358, 0.13022059202194214, -0.15511971712112427], [0.34650078415870667, 0.07535944879055023, 0.41287142038345337, 0.6849233508110046, 0.32871830463409424, 0.578662633895874, -0.24782925844192505, 0.2938762307167053, 0.172748863697052, 0.3413495719432831, 0.848493218421936, 0.3308590054512024, 0.39360520243644714, -0.4079209268093109, 0.27922526001930237, 0.9067363142967224, 0.7468038201332092, -0.6815925240516663, 0.026328299194574356, -0.008666039444506168, 0.31378594040870667, 0.5976987481117249, 0.07454794645309448, 0.15872466564178467, 0.7305716276168823, 0.16963277757167816, -0.280269056558609, -0.653479814529419, 0.1814139485359192, -0.5463882088661194, -0.26948967576026917, 0.6625456213951111, -0.23547716438770294, 0.10780118405818939, 0.4813586175441742, 0.3189472556114197, -0.5030471682548523, -0.16272073984146118, 0.5579867959022522, -0.1206587478518486, -0.1952885389328003, -0.2415325790643692, -0.4279237389564514, 1.0751917362213135, -0.7144398093223572, 0.14774344861507416, -0.6319857835769653, 0.15801358222961426, 1.2360551357269287, 0.0034225613344460726], [0.25327128171920776, -0.505561113357544, 0.28095853328704834, 0.444987952709198, -0.3696572184562683, -0.10466651618480682, -0.05499587208032608, -0.15079060196876526, 0.1760556697845459, 0.12884031236171722, -0.6671067476272583, 0.4611765444278717, -0.055408935993909836, 0.45441004633903503, 0.1368464231491089, 0.05478665977716446, -0.06972159445285797, 0.7164881229400635, -0.17266394197940826, -0.11043371260166168, 0.04056078940629959, -0.3451865017414093, 0.11570308357477188, 0.5917885303497314, -0.3063560724258423, 0.29137948155403137, -0.0535537451505661, 0.10011716932058334, 0.060420237481594086, -0.06686608493328094, 0.5997612476348877, -0.1789105087518692, 0.04107273370027542, -0.14752724766731262, 0.45537376403808594, 0.1076580062508583, 0.06803970038890839, 0.28954702615737915, -0.13883937895298004, 0.24783407151699066, 0.10340423136949539, -0.3404397964477539, -0.21563279628753662, 0.006877691484987736, 0.16394618153572083, 0.022926215082406998, 0.3242286741733551, 0.019392436370253563, 0.05550897493958473, 0.08609101921319962], [-0.11508413404226303, 0.1930924952030182, -0.07843722403049469, -0.13824297487735748, -0.06081422045826912, -0.24347864091396332, -0.0060200924053788185, -0.24897748231887817, 0.031657200306653976, -0.2689157724380493, -0.1989337056875229, -0.8210450410842896, 0.3888627290725708, -0.05300941318273544, 0.049035340547561646, -0.33021628856658936, -0.33715781569480896, -0.4174778461456299, -0.4325715899467468, 0.09236464649438858, 0.5356333255767822, 0.2016255259513855, 0.2574257552623749, -0.06128138303756714, 0.05057057738304138, -0.17505264282226562, -0.24962006509304047, 0.12836308777332306, -0.26976877450942993, 0.1545429527759552, 0.2555713951587677, 0.2014666348695755, 0.054730650037527084, -0.08165852725505829, 0.23227962851524353, 0.38419973850250244, -0.20374082028865814, 0.16742292046546936, 0.06913983076810837, 0.023976989090442657, 0.43678098917007446, -0.3504234552383423, -0.2358490228652954, 0.14538247883319855, 0.5586207509040833, -0.2961280345916748, 0.2620358467102051, -0.37748387455940247, 0.3432961702346802, -0.24158914387226105], [0.22506003081798553, 0.5858795642852783, -0.36591798067092896, -0.1546158790588379, 1.2121943235397339, -0.3982877731323242, -0.11616526544094086, 0.6407310366630554, 0.009981503710150719, 1.2201800346374512, 0.9973953366279602, 0.45360898971557617, -0.4898390471935272, -0.7694060206413269, -0.6261658072471619, 0.023694192990660667, 0.9088284373283386, -0.37892547249794006, 0.5449660420417786, 0.006836275570094585, 0.6924600005149841, 0.12220264226198196, 0.2114802896976471, -0.15428082644939423, 0.8216685652732849, -0.08437451720237732, -0.4505462050437927, -1.2855725288391113, 0.26439934968948364, 0.23167990148067474, -0.08743106573820114, 1.258876085281372, -0.35211750864982605, 0.7669773101806641, 0.6485259532928467, -1.1185890436172485, -0.5974220037460327, -0.06206313893198967, -0.31219080090522766, -0.8855233788490295, -0.25021982192993164, 0.19687879085540771, -0.931708812713623, -0.13550594449043274, -0.6500548720359802, -0.054106712341308594, -0.13767148554325104, 0.09271568804979324, 0.29331478476524353, 0.6140127182006836], [0.212320014834404, 0.6337581276893616, -0.40877413749694824, 0.17949485778808594, 0.5042243599891663, -0.5299632549285889, -0.2825034558773041, -0.38300782442092896, -0.8358854651451111, -0.4846784770488739, 0.4124612510204315, -0.2397746741771698, -0.6017837524414062, 0.49289676547050476, 0.9760379791259766, -0.16628311574459076, 0.6670475006103516, -0.64838045835495, -0.3905026316642761, 0.29550081491470337, 0.3930715322494507, 0.5150647163391113, -0.20595961809158325, -0.1701590120792389, 0.23835231363773346, 0.2803815007209778, -0.026252781972289085, 0.0460212379693985, -0.5344394445419312, -0.5890823602676392, 0.08178073167800903, 0.15298227965831757, -0.042482130229473114, 0.6268687844276428, -0.14954668283462524, 0.037598393857479095, 0.8489859700202942, -0.14398664236068726, -0.20492896437644958, -0.03629373013973236, -0.9476603269577026, 0.07366776466369629, 0.793714165687561, 0.34410616755485535, 0.615543007850647, 0.7504092454910278, -0.2664586305618286, 0.1309705227613449, -0.018117157742381096, 1.1411489248275757], [0.3639298677444458, 0.536266028881073, -0.3391982913017273, 0.26497167348861694, -0.044231660664081573, 0.17057038843631744, 0.5793472528457642, -0.5376452803611755, -0.1495044231414795, 0.09820061177015305, 0.49089276790618896, -0.915408194065094, -0.27383795380592346, 0.0755285918712616, 1.3812462091445923, -0.25985127687454224, 0.3240366280078888, 0.0145289096981287, -0.23275001347064972, 0.43211910128593445, -0.5648036599159241, 0.20086054503917694, -0.3478938639163971, -0.013205081224441528, -0.4404655992984772, 0.9090129137039185, 0.4460543990135193, 0.5212136507034302, -0.3730659484863281, -0.036742761731147766, -0.4213496744632721, -0.4368288218975067, 0.15505757927894592, 0.0193193182349205, 0.07141489535570145, 0.3023793697357178, 0.5207843780517578, 0.6385944485664368, -0.15055613219738007, -0.3593204617500305, -0.5115979909896851, -0.7677618861198425, -0.657129168510437, -0.23650376498699188, -0.5666263103485107, 0.04324110224843025, 0.25639039278030396, 0.22126659750938416, 0.08502727001905441, 0.2940349578857422], [0.7899814248085022, -0.42012715339660645, -0.2606201171875, -0.1954360008239746, -0.35978248715400696, 0.038903530687093735, -0.7725203633308411, -1.2285962104797363, 0.696244478225708, -0.004555654712021351, 0.13227732479572296, -0.6320931911468506, -0.19425362348556519, -1.156601071357727, -1.0219550132751465, 0.7983107566833496, 0.24810580909252167, 0.10560973733663559, -0.48465490341186523, -0.15300753712654114, -0.05309353023767471, 0.4266699552536011, -0.3474743664264679, -0.4088062345981598, 0.2618606686592102, -0.6245253086090088, 0.18606314063072205, 0.38376522064208984, 0.5714505910873413, -0.40197938680648804, -0.11018519103527069, 0.7867534756660461, 0.27657759189605713, 0.28981834650039673, -0.2768096625804901, -1.2142037153244019, -1.0561153888702393, -0.2120327204465866, 1.4023739099502563, -0.4597257375717163, 0.6636870503425598, -0.5526368618011475, -0.0306844599545002, 0.2827150523662567, -0.20091818273067474, -0.002351075876504183, -0.6768940091133118, -0.38769400119781494, 0.2940789461135864, 0.5728330016136169], [0.10236253589391708, 0.2788526117801666, 0.3221941888332367, 0.4030873775482178, 0.45500844717025757, 0.39525315165519714, -0.42570042610168457, 0.21139594912528992, 0.13447318971157074, 0.2058379203081131, -0.16045697033405304, 0.3354647159576416, 0.4800662100315094, 0.25038647651672363, -0.44548124074935913, -0.5431327223777771, -0.3303702771663666, -0.29995083808898926, 0.3535533547401428, -0.11742796003818512, -0.18080399930477142, -0.356564998626709, -0.4738544225692749, -0.24524573981761932, 0.4673154056072235, -0.21857231855392456, -0.14341284334659576, 0.10989172011613846, -0.40306636691093445, 0.35934343934059143, -0.19351056218147278, 0.2698107361793518, 0.26009249687194824, -0.3844544589519501, 0.24449443817138672, 0.02872871793806553, 0.10885431617498398, -0.2658967077732086, -0.1488000899553299, 0.2192753255367279, 0.3991609811782837, 0.5548125505447388, -0.4432237446308136, -0.04087964817881584, 0.6434310674667358, 0.21298657357692719, -0.10262858867645264, 0.26586830615997314, -0.018240071833133698, 0.05412590503692627], [-0.07634953409433365, -0.07888133078813553, -0.6366382241249084, 0.05080684274435043, 0.39911672472953796, -0.33248820900917053, -0.3550965487957001, 0.019810238853096962, 0.2679576575756073, 0.42368584871292114, 0.12297962605953217, -0.2722659409046173, -0.40374112129211426, -0.18959538638591766, 0.13231632113456726, -0.44086119532585144, 0.043071381747722626, -0.34302347898483276, 0.05696231499314308, 0.23105432093143463, 0.18650056421756744, -0.13448889553546906, 0.004963184241205454, -0.45283737778663635, 0.1300981342792511, -0.3384380638599396, -0.05743579566478729, -0.2342713177204132, 0.004492481704801321, 0.018297677859663963, 0.20950932800769806, -0.26293420791625977, 0.2757486402988434, 0.22463472187519073, -0.24305835366249084, -0.8633581399917603, -0.49648019671440125, -0.25416168570518494, 0.06916473060846329, -0.1465245932340622, 0.348186194896698, -0.1122865080833435, -0.2244182527065277, 0.2026388943195343, -0.08423563092947006, -0.24991105496883392, 0.020108917728066444, -0.28709131479263306, -0.03602059558033943, -0.4417528808116913], [-0.2499445378780365, -0.05893956124782562, 0.052961885929107666, 0.062231581658124924, 0.4321781098842621, -0.3604864776134491, -0.4438755512237549, 0.16236527264118195, 0.2999083697795868, 0.47303351759910583, -0.20894944667816162, -0.27702149748802185, -0.40468770265579224, -0.7324042916297913, 0.13579833507537842, 0.23379571735858917, 0.023490214720368385, -0.35328423976898193, 0.07244516909122467, 0.25776341557502747, 0.21472017467021942, -0.2623842656612396, -0.11838074028491974, -0.47687971591949463, 0.12124375998973846, -0.36879241466522217, -0.02910211682319641, -0.2970259487628937, 0.3293457329273224, 0.03407078981399536, 0.22918236255645752, 0.8067452311515808, 0.2587301433086395, 0.17829176783561707, -0.21307051181793213, 0.3472204804420471, -0.5414993166923523, -0.2722458243370056, 0.04561084881424904, -0.15717840194702148, 0.3869292438030243, -0.12143005430698395, -0.2586309015750885, -0.39229556918144226, -0.09874807298183441, -0.24594470858573914, -0.27968376874923706, -0.2768978178501129, -0.041510410606861115, -0.3827930688858032], [-0.1273678094148636, -0.013129171915352345, -0.08713722974061966, -0.017594212666153908, 0.1756141632795334, -0.050245385617017746, -0.008784353733062744, 0.1627562940120697, 0.12269309908151627, 0.19011220335960388, -0.1851460188627243, 0.1004607155919075, 0.1378898322582245, -0.13096760213375092, 0.006615179590880871, -0.22134578227996826, 0.0356622189283371, 0.10816027969121933, 0.054920509457588196, -0.19445845484733582, 0.10058484226465225, 0.17892681062221527, 0.20783686637878418, 0.19767293334007263, -0.02455151453614235, 0.1626451313495636, 0.044746749103069305, 0.025992516428232193, -0.10223370045423508, -0.053792890161275864, 0.2095213383436203, -0.15066395699977875, -0.17132870852947235, -0.11719030141830444, 0.165129616856575, 0.17467278242111206, 0.10609070211648941, -0.07629325985908508, 0.05397385358810425, 0.01799648627638817, 0.1739206314086914, -0.07902616262435913, -0.21098291873931885, 0.21456119418144226, 0.16417135298252106, 0.12253642827272415, -0.16782981157302856, 0.1690923124551773, 0.07610657066106796, -0.21645858883857727], [-0.10050638765096664, 0.1895499974489212, 0.12736454606056213, -0.05161560699343681, -0.16015993058681488, -0.09538647532463074, 0.015530675649642944, 0.19462351500988007, 0.1603248566389084, 0.18701837956905365, -0.0563688650727272, 0.025931498035788536, -0.18178531527519226, 0.09381420165300369, -0.17137224972248077, 0.12014932185411453, -0.08230564743280411, -0.15286873281002045, -0.15327613055706024, -0.06901828944683075, 0.1404656320810318, -0.04884431138634682, 0.05427144095301628, 0.1511499285697937, -0.10205388814210892, 0.17235343158245087, -0.1570364236831665, 0.1674281805753708, -0.13106340169906616, 0.16396716237068176, -0.1333404779434204, -0.18180447816848755, 0.12447705864906311, 0.10294421762228012, -0.15537865459918976, -0.1832001656293869, -0.1943286508321762, -0.062060996890068054, -0.17799034714698792, -0.1274004876613617, 0.16081857681274414, 0.1102944165468216, -0.12148142606019974, -0.14798949658870697, 0.02866872027516365, -0.16441862285137177, 0.19589470326900482, -0.07013476639986038, 0.12340129911899567, 0.14176706969738007], [-0.18651512265205383, -0.21812687814235687, -0.13253457844257355, -0.26954394578933716, 0.560930609703064, 0.4598158597946167, -0.01659633219242096, 0.45027101039886475, -0.06500886380672455, 0.5946918725967407, -0.31246882677078247, 0.28294652700424194, 0.2518504559993744, -0.12350864708423615, 0.323346883058548, -0.10505001246929169, -0.17907848954200745, 0.3226756155490875, -0.6336157321929932, -0.030113739892840385, 0.4881313145160675, 0.3500875234603882, -0.04732338339090347, -0.09001540392637253, -0.019997337833046913, 0.33276671171188354, -0.29270055890083313, -0.28266963362693787, -0.18604493141174316, 0.47503072023391724, 0.31533998250961304, 0.018483620136976242, -0.20782281458377838, -0.04349380359053612, -0.09783786535263062, -0.1296626627445221, 0.44837674498558044, -0.32193249464035034, 0.11377952247858047, -0.07201256603002548, -0.44963258504867554, -0.0543823316693306, -0.053092073649168015, 0.11053942143917084, 0.14760461449623108, 0.2916865646839142, 0.3899427652359009, 0.01744820550084114, 0.45727622509002686, -0.14568115770816803], [-0.17167595028877258, -0.16078677773475647, 0.14258316159248352, -0.0023582270368933678, 0.12698806822299957, -0.08869943022727966, 0.040882792323827744, 0.09178613126277924, 0.07383453100919724, -0.15423715114593506, -0.1694878488779068, 0.06610443443059921, 0.1146850734949112, 0.16823235154151917, 0.030234165489673615, 0.1395101696252823, -0.14445622265338898, -0.18317930400371552, 0.13342101871967316, -0.19701242446899414, 0.15994893014431, -0.18152576684951782, -0.1425212025642395, 0.14284507930278778, -0.11892955005168915, -0.09738609939813614, 0.008408253081142902, -0.12671242654323578, -0.12148254364728928, 0.1648087203502655, -0.16827087104320526, -0.16842137277126312, -0.059551697224378586, -0.10497068613767624, 0.17458420991897583, -0.18848955631256104, -0.12515784800052643, -0.117350272834301, 5.390681326389313e-05, 0.1460907757282257, 0.16393768787384033, -0.1694508194923401, -0.153525248169899, -0.08853547275066376, 0.16199561953544617, 0.09874130040407181, -0.15839573740959167, 0.003270328976213932, 0.16881929337978363, -0.1502247452735901], [-0.1401793360710144, -0.19028395414352417, -0.08816362917423248, -0.17943599820137024, 0.1436072736978531, -0.08393184840679169, 0.14254654943943024, 0.17663982510566711, 0.01344418153166771, -0.1426466554403305, -0.18872477114200592, 0.10216939449310303, 0.13906419277191162, 0.12812377512454987, -0.02085321955382824, -0.09012138098478317, 0.04461872950196266, -0.17826087772846222, -0.1734188050031662, -0.1600731909275055, -0.03267001360654831, 0.07891269028186798, 0.18022868037223816, 0.0828206017613411, -0.09342807531356812, 0.16459918022155762, 2.9447488486766815e-05, -0.11928397417068481, -0.1935635209083557, 0.14183935523033142, -0.12202683836221695, -0.05486202985048294, -0.07384171336889267, 0.11875658482313156, 0.16028575599193573, -0.14537733793258667, 0.13540472090244293, -0.16037040948867798, -0.17754939198493958, 0.1685224026441574, 0.14507292211055756, 0.06235436350107193, -0.1658107489347458, 0.06649428606033325, 0.12380627542734146, 0.11008287221193314, 0.19255973398685455, -0.14853303134441376, 0.09291718155145645, 0.1425391584634781], [0.6299678087234497, 0.5288099050521851, 0.20987382531166077, 0.45374491810798645, 0.2994144558906555, -1.1256420612335205, 0.027707576751708984, -0.4147002696990967, -0.8619117140769958, -0.5509501695632935, 0.18567818403244019, -0.15428069233894348, -0.5477559566497803, 0.5328492522239685, 1.0015817880630493, 0.45707353949546814, 0.40053585171699524, -0.4553529918193817, 0.740491509437561, 0.30726179480552673, -0.2657012939453125, -0.2468932569026947, -0.20055635273456573, -0.32882100343704224, -0.7183919548988342, 0.2894357740879059, 0.5532130002975464, -0.5200449228286743, -0.5418171286582947, -0.08209677785634995, -0.1258978247642517, 0.36158043146133423, -0.30450239777565, 0.8329127430915833, -0.4628593623638153, 0.5257361531257629, -0.04489988461136818, -0.1292007714509964, 0.26893502473831177, 0.279797226190567, -0.9834907054901123, -0.5884863138198853, 0.31698110699653625, 0.0037916507571935654, 0.43506208062171936, 0.5075374245643616, -0.22248460352420807, -0.11816155165433884, -0.27561578154563904, 0.7508386969566345], [-0.364442378282547, -0.04091654345393181, 0.5122368335723877, -0.35358116030693054, 0.062450166791677475, -0.26359835267066956, 0.025707155466079712, 0.07585962861776352, -0.30671703815460205, 0.034342434257268906, -0.5208719968795776, -0.14566637575626373, 0.3443690240383148, -0.20885059237480164, 0.08940412849187851, -0.3057219684123993, -0.15165570378303528, 0.06854632496833801, -0.16226717829704285, 0.021891765296459198, 0.286711722612381, 0.014087996445596218, 0.09484556317329407, -0.11250603199005127, -0.26710835099220276, -0.20397886633872986, 0.27439334988594055, 0.25513046979904175, -0.07520376145839691, 0.1482156217098236, -0.25171545147895813, 0.07135657221078873, 0.25774285197257996, -0.46013492345809937, 0.5874333381652832, 0.05296476185321808, 0.04660291224718094, 0.31886374950408936, 0.33468881249427795, -0.01261325366795063, -0.17844468355178833, 0.4341028034687042, -0.45054593682289124, 0.16974586248397827, 0.07485416531562805, -0.08178804069757462, 0.22021953761577606, -0.26446545124053955, 0.3046150207519531, -0.5682671666145325], [0.9682597517967224, 0.4679985046386719, 0.10576532036066055, 0.7317313551902771, 0.5916472673416138, 0.5346565842628479, -0.08228694647550583, 0.004986051470041275, 0.3600151240825653, 0.6866886019706726, 0.812267541885376, -0.2608117461204529, 0.017584284767508507, -0.45271795988082886, 0.23528070747852325, 0.029011597856879234, 0.7822166681289673, 0.44366002082824707, -0.03651127591729164, -0.0445234440267086, 0.2839939594268799, 0.7232272028923035, -0.8900595307350159, 0.18753458559513092, 0.7111996412277222, 0.2913684546947479, -0.2893921732902527, 0.42376047372817993, 0.21348881721496582, -0.22728121280670166, -0.545734167098999, 0.8554967045783997, -0.46489185094833374, 0.5864683985710144, 0.594963550567627, -0.5461143851280212, -0.5440983772277832, 0.6456078886985779, 0.7163602113723755, -0.26057374477386475, -0.24593812227249146, 0.039701662957668304, -0.11144692450761795, -0.6370169520378113, -0.5602479577064514, -0.06397787481546402, -1.0539096593856812, 0.17338599264621735, 0.920076847076416, -0.1163669228553772], [-0.158417209982872, 0.5437963008880615, 0.35850512981414795, 0.38873112201690674, 0.46605420112609863, -0.09674446284770966, -0.5192822217941284, 0.19873833656311035, 0.19532345235347748, -0.6641477346420288, 0.01906917430460453, 0.3793712854385376, 0.30542492866516113, 0.12236027419567108, -6.794929504394531e-06, -0.04815912991762161, 0.0590202659368515, -0.26687946915626526, -0.23477765917778015, 0.5528551936149597, -0.35613346099853516, -0.025384165346622467, 0.26366129517555237, 0.3252140283584595, 0.6607815027236938, -0.3468952775001526, 0.3851045072078705, 0.18763452768325806, -0.1500042974948883, 0.8792271018028259, -0.4743266701698303, -0.3679066002368927, -0.12070298194885254, 0.005204395856708288, 0.5384066104888916, 0.21335671842098236, -0.4333864450454712, 0.5291727781295776, -0.4375517964363098, -0.36275774240493774, 0.6109025478363037, -0.5437332391738892, -0.5330856442451477, 0.2377825230360031, -0.12810488045215607, 0.14985910058021545, 0.018557772040367126, -0.16482684016227722, -0.049340762197971344, 0.20791347324848175], [0.007534814532846212, -0.2762843370437622, -0.05683227628469467, -0.4966132938861847, -0.12239960581064224, 0.3387589454650879, -0.07677731662988663, 0.2449924647808075, 0.08228427171707153, 0.25327354669570923, -0.06458882242441177, 0.4493645131587982, 0.27489936351776123, 0.3435012102127075, -0.1523587703704834, -0.5686837434768677, 0.10754486173391342, 0.25764620304107666, -0.27747008204460144, 0.19781151413917542, 0.26578566431999207, -0.5072166323661804, 0.5516555905342102, 0.7956320643424988, -0.22676803171634674, 0.03000461682677269, 0.20097869634628296, -0.13920484483242035, 0.08609981834888458, 0.3411506712436676, -0.0016557443886995316, 0.08821649849414825, -0.09464430063962936, 0.030685631558299065, 0.3209136128425598, 0.19420914351940155, -0.44523659348487854, 0.16740980744361877, -0.003509038593620062, -0.10380809754133224, 0.16574646532535553, 0.13150960206985474, -0.25516024231910706, 0.48052531480789185, 0.37848758697509766, 0.10840354859828949, -0.003726788330823183, -0.06720072776079178, -0.1546509712934494, 0.10900680720806122], [-0.12799736857414246, -0.12392715364694595, 0.30927011370658875, 0.3297480046749115, -0.26024186611175537, -0.17294912040233612, -0.09161363542079926, -0.011164721101522446, -0.14689970016479492, -0.13727454841136932, -0.16812868416309357, 0.33371904492378235, 0.04200894758105278, 0.2026592642068863, -0.23568585515022278, -0.22405874729156494, 0.00603433046489954, -0.31988242268562317, 0.4184705317020416, 0.09410905838012695, -0.03598396107554436, -0.12704354524612427, 0.2666268050670624, 0.17348545789718628, -0.215612530708313, -0.0032035158947110176, -0.05856563150882721, 0.4322907626628876, -0.4178794324398041, 0.19705253839492798, -0.43056732416152954, -0.4247809052467346, -0.18584202229976654, -0.20427623391151428, 0.5405334234237671, 0.08636991679668427, -0.30966058373451233, 0.23023933172225952, 0.43184220790863037, 0.2608693838119507, 0.24433763325214386, -0.6338626146316528, -0.08757788687944412, -0.047123100608587265, 0.06989424675703049, 0.3164176344871521, 0.11632615327835083, 0.37148043513298035, 0.04320979863405228, 0.3430212736129761], [-0.15636321902275085, -0.5385369658470154, 0.20172761380672455, -0.16961877048015594, 0.14272421598434448, 0.06667401641607285, -0.014349199831485748, 0.028934109956026077, -0.1817016303539276, -0.28318431973457336, 0.22568172216415405, 0.48421505093574524, 0.004715120419859886, 0.3283441364765167, -0.053008563816547394, -0.15117667615413666, -0.08878839015960693, -0.4412374496459961, -0.4776093363761902, -0.8693570494651794, -0.26276475191116333, 0.07146912813186646, 0.20192644000053406, 0.018904104828834534, 0.08048146963119507, -0.32827723026275635, -0.47939854860305786, -0.21375708281993866, -0.4593665897846222, 0.43706366419792175, -0.3479001820087433, -0.18469011783599854, 0.2043822854757309, 0.4446644186973572, -0.10318396240472794, 0.26840201020240784, -0.2945515811443329, -0.3569679260253906, 0.3616078197956085, 0.535129725933075, 0.012050208635628223, -0.5197229385375977, -0.08865552395582199, 0.37938499450683594, 0.1761101931333542, 0.19012346863746643, 0.01221825648099184, -0.6520048975944519, 0.39270278811454773, 0.012940916232764721], [-0.012779206968843937, -0.03933635726571083, 0.15900388360023499, 0.1180151030421257, -0.06585275381803513, -0.1794663816690445, -0.06253977119922638, -0.05943302810192108, -0.1784166842699051, 0.12190171331167221, -0.1738595813512802, 0.08492021262645721, -0.15972822904586792, -0.18381564319133759, -0.1414378136396408, -0.002213682048022747, -0.1683608442544937, 0.17778348922729492, -0.17701630294322968, -0.005105880089104176, 0.18807601928710938, 0.14953885972499847, 0.1683226227760315, -0.15368613600730896, -0.19153505563735962, 0.17380952835083008, -0.06663578003644943, 0.18351538479328156, -0.11677757650613785, -0.0655970424413681, -0.06743042171001434, -0.1681903898715973, -0.14136730134487152, -0.11389642208814621, -0.1832972913980484, 0.1866931915283203, -0.09815727174282074, 0.18402577936649323, 0.05827442929148674, 0.2011592835187912, 0.06400807201862335, 0.07901390641927719, -0.20761337876319885, -0.05518171936273575, 0.13902553915977478, 0.1700229048728943, 0.20012158155441284, -0.1652768850326538, 0.014960486441850662, -0.020181091502308846], [0.771826446056366, 0.16932514309883118, 0.16320070624351501, -0.294660359621048, -0.0027529699727892876, -0.6679204702377319, -0.49369940161705017, 0.875812828540802, 0.5277184247970581, -0.613755464553833, 0.2046346366405487, -0.47773176431655884, 0.8128552436828613, 0.6115424633026123, -0.3667401373386383, -0.7303018569946289, -0.24807359278202057, 0.05492669716477394, -0.6817598342895508, -0.0517544224858284, -0.06642438471317291, 0.44348952174186707, -0.11006342619657516, -0.19543325901031494, -0.8104879260063171, 0.010243418626487255, -0.6415071487426758, -0.3058847188949585, -0.19629326462745667, -0.3397633135318756, -0.13804885745048523, -0.22869764268398285, 0.3357210159301758, -0.0012153161223977804, 0.20636361837387085, -0.24661916494369507, -0.14885398745536804, 0.5798300504684448, 0.4775596261024475, 0.1325993537902832, -0.3923528790473938, -0.4177933633327484, -0.05685973912477493, 0.6047722101211548, 0.0004528516437858343, -0.17403163015842438, -0.360160231590271, 0.517546534538269, 0.2174443155527115, -0.19364503026008606], [0.12195298075675964, -0.1937427669763565, -0.5951565504074097, 0.1592596173286438, -0.6187877058982849, 0.12479615211486816, -0.40646499395370483, 0.13061729073524475, 0.21042312681674957, -0.16482152044773102, -0.05680662393569946, -0.38513991236686707, 0.027037363499403, 0.2879839837551117, -0.21913214027881622, -0.37322792410850525, -0.08852899074554443, -0.7091141939163208, -0.039816051721572876, -0.18227171897888184, 0.15287399291992188, 0.026441479101777077, -0.11896904557943344, 0.2662017047405243, 0.15067340433597565, 0.3361041843891144, -0.08550496399402618, 0.3333059549331665, 0.04324581101536751, 0.4327694773674011, -0.29700854420661926, 0.11889908462762833, -0.3535883128643036, 0.207304909825325, 0.2958509624004364, -0.3074381649494171, 0.0991574302315712, -0.22536002099514008, 0.38207539916038513, 0.10327554494142532, -0.4260660707950592, -0.29059165716171265, 0.019685285165905952, -0.18903903663158417, 0.23232367634773254, 0.298178106546402, 0.3081774115562439, -0.44695964455604553, -0.18629781901836395, -0.17851662635803223], [-0.48657888174057007, 0.03488605096936226, -0.4101680815219879, -0.12836982309818268, -0.18496257066726685, -0.06416374444961548, -0.3819430470466614, -0.2745709717273712, 0.020695935934782028, 0.21766707301139832, 0.13323314487934113, 0.026379834860563278, 0.07842277735471725, 0.35085785388946533, 0.29209598898887634, -0.27515938878059387, -0.05398266762495041, 0.2595345377922058, -0.83980393409729, -0.38713890314102173, 0.3045385479927063, 0.15865115821361542, 0.14551261067390442, 0.1879672259092331, 0.1943068951368332, -0.24089694023132324, -0.4735337793827057, -0.1452774554491043, -0.32044970989227295, 0.46294865012168884, 0.2179449200630188, 0.09919971227645874, -0.034763216972351074, -0.38701969385147095, -0.0542185939848423, 0.15266576409339905, 0.1965733766555786, -0.015573474578559399, 0.23020462691783905, 0.10906684398651123, -0.47939079999923706, 0.2929333448410034, 0.47879451513290405, 0.26761752367019653, 0.3070245087146759, 0.39514583349227905, 0.26153069734573364, -0.3016848564147949, 0.39349010586738586, 0.3388517200946808], [0.3687945604324341, 0.17003774642944336, -0.45401400327682495, -0.4456406831741333, 0.28266578912734985, 0.21743696928024292, 0.17809119820594788, -0.06311723589897156, 0.15655986964702606, 0.46102017164230347, 0.21404699981212616, 0.3599252998828888, 0.3442244827747345, -0.5439276695251465, -0.026514176279306412, 0.1078023687005043, -0.6997910141944885, -0.8232953548431396, -0.8325650095939636, 0.40646257996559143, -0.6491451263427734, -0.34153226017951965, 0.28642040491104126, -0.5813020467758179, -0.23222051560878754, -0.3114467263221741, 0.377377986907959, 0.034956954419612885, 0.8121518492698669, -0.6995632648468018, -0.6073551177978516, -0.5115084648132324, -0.01114431768655777, 0.34834057092666626, 0.8741043210029602, 0.16604715585708618, 0.05185450613498688, -0.784887433052063, 0.3874308466911316, -0.2634374499320984, 0.35241398215293884, -0.5690633058547974, 0.2227177619934082, 0.27497780323028564, -0.6935063004493713, -0.10013777017593384, 0.5065851211547852, -0.03130195289850235, -0.5554395318031311, 0.6342962980270386], [-0.13899506628513336, 0.5190615057945251, -0.7837042808532715, -0.08317430317401886, -0.5540590882301331, 0.07485789060592651, -0.41923242807388306, 0.5770550966262817, 0.22555053234100342, -0.3664429485797882, -0.04456932097673416, -0.21418359875679016, 0.02539563924074173, -0.11617294698953629, 0.20873892307281494, -0.48862555623054504, -0.589724063873291, -0.676508367061615, -0.6435931921005249, 0.5350329875946045, 0.14954759180545807, 0.6201812028884888, 0.23018014430999756, 0.2711353003978729, -0.27840515971183777, 0.5147839188575745, -0.2854648232460022, -0.24681319296360016, -0.13779599964618683, 0.26044559478759766, 0.4282371699810028, -0.5135473012924194, 0.2157047539949417, -0.18030156195163727, -0.21165668964385986, -0.4791324734687805, 0.07538538426160812, -0.21517632901668549, -0.21358895301818848, -0.40889155864715576, -0.7329810857772827, -0.31105685234069824, -0.1073036640882492, 0.19365769624710083, 0.6759822368621826, -0.28816962242126465, 0.3619972765445709, -0.2978609502315521, 0.28762996196746826, 0.18326431512832642], [-0.25447365641593933, -0.23843584954738617, 0.22460606694221497, -0.4366265833377838, -0.1552876979112625, -0.13610386848449707, -0.614229142665863, -0.04330248385667801, -0.08658848702907562, 0.10329757630825043, 0.3511597812175751, -0.13482792675495148, 0.3746850788593292, 0.3888624310493469, -0.2950516939163208, -0.13891679048538208, -0.3375992774963379, 0.04310644418001175, -0.41807493567466736, 0.32757923007011414, 0.1202881932258606, -0.086998850107193, -0.021952372044324875, 0.2447025328874588, -0.015751104801893234, -0.3036803603172302, -0.2586079239845276, -0.4326268434524536, -0.12700311839580536, -0.16954250633716583, 0.325934499502182, 0.16378536820411682, -0.349332332611084, -0.29556983709335327, -0.5013250112533569, -0.20361806452274323, -0.34114184975624084, -0.20923933386802673, 0.2139904648065567, 0.19193269312381744, 0.07705698907375336, 0.22432422637939453, -0.05220114439725876, 0.10707293450832367, 0.2583758234977722, 0.31790226697921753, 0.6817730069160461, -0.34078046679496765, 0.30456769466400146, 0.09662427753210068], [-0.027834419161081314, -0.44339218735694885, -0.40614739060401917, 0.3328479528427124, -0.5898698568344116, -0.16547667980194092, -0.5402097702026367, -0.05249426141381264, 0.4042298495769501, 0.4716370403766632, -0.3654584288597107, 0.38791167736053467, 0.12253302335739136, 0.2834194600582123, 0.24790585041046143, -0.08802714943885803, 0.1075785830616951, 0.036629315465688705, -0.24838070571422577, 0.04726275056600571, -0.31571516394615173, -0.21411150693893433, 0.16957822442054749, 0.278729110956192, -0.09763456881046295, -0.033066220581531525, 0.4307430386543274, -0.28182998299598694, 0.04643183574080467, -0.12265006452798843, 0.5330409407615662, -0.7469190359115601, -0.27277660369873047, 0.43938422203063965, -0.2542288601398468, 0.07510649412870407, -0.3256480097770691, 0.09921012073755264, 0.29339805245399475, 0.275814950466156, 0.3864923417568207, 0.21237677335739136, -0.10583780705928802, -0.19394981861114502, -0.10610780119895935, 0.2629956007003784, -0.7088173031806946, 0.0572199709713459, -0.04808618500828743, -0.3427880108356476], [-0.1979585736989975, 0.6510075330734253, -1.3254979848861694, 0.33692213892936707, 0.2837183177471161, 0.21018168330192566, -0.25663214921951294, -0.6054871082305908, -0.6092813611030579, -0.59572833776474, 0.6614140272140503, -0.523424506187439, 0.5738416314125061, 0.07640188932418823, -1.6070083379745483, 0.5091794729232788, 0.25897905230522156, 0.7796606421470642, -0.29208284616470337, -0.9978760480880737, -0.7172436714172363, 0.2595779597759247, -0.43950900435447693, -0.017417563125491142, 0.40044349431991577, -0.01063647773116827, 0.5213254690170288, -0.22032809257507324, 0.1290280669927597, -0.10893227159976959, -0.037060339003801346, -0.36344707012176514, 0.11009283363819122, -0.8266645073890686, -0.9621722102165222, 1.0423234701156616, -0.048937637358903885, 0.1375114470720291, -0.21107056736946106, -0.4566475450992584, -0.6496208906173706, 0.03464500606060028, -0.2774442434310913, 0.11502064019441605, -0.4788706600666046, -0.28920477628707886, -0.40140390396118164, 0.39343151450157166, -0.8211384415626526, 0.4359034597873688], [-0.004371012561023235, -0.6889618635177612, 0.285922110080719, -0.039850346744060516, -0.34949791431427, -0.2918778955936432, 1.027459740638733, -0.6657140254974365, -0.1340084969997406, 0.35108518600463867, -0.169700026512146, -0.5385344624519348, -0.4949856996536255, -0.7622884511947632, 0.4057636857032776, -0.014849063009023666, -0.45677730441093445, -0.29634395241737366, -0.19299805164337158, 0.9398061633110046, -0.45779949426651, -0.15867745876312256, 0.104518823325634, -0.42700356245040894, 0.27626317739486694, -0.05667045712471008, 1.4450169801712036, 0.6186509132385254, 0.6044267416000366, -0.3686163127422333, -0.10495001077651978, 0.1642504334449768, 0.4411601126194, -0.7930998206138611, 1.174160361289978, -0.19636714458465576, -1.0811022520065308, -0.36778467893600464, 0.4401605427265167, 0.235290065407753, -0.28189119696617126, 0.3961943984031677, 0.4342461824417114, 0.698090672492981, -0.39931514859199524, -0.07258950918912888, -0.11993346363306046, 0.5647909045219421, -0.2572735548019409, -0.2173343002796173], [-0.19317296147346497, -0.16919304430484772, 0.13043181598186493, 0.04015273228287697, -0.05981440842151642, -0.20830146968364716, 0.06781426072120667, 0.0607650950551033, 0.0019395491108298302, 0.1704287976026535, -0.1874484270811081, 0.05762733146548271, -0.11967796087265015, 0.10983975231647491, -0.05796163156628609, -0.17816975712776184, 0.04894212633371353, 0.15396319329738617, -0.08574458956718445, -0.16220176219940186, 0.1880747526884079, -0.15020665526390076, 0.12523309886455536, 0.1480676233768463, 0.006405569612979889, -0.1484929770231247, -0.0649176687002182, 0.1495993286371231, -0.19795912504196167, 0.1675368845462799, 0.16271992027759552, -0.18822994828224182, -0.18377353250980377, -0.10638795793056488, 0.092008076608181, 0.060351382941007614, -0.049502115696668625, -0.11924046277999878, 0.020574580878019333, 0.14997732639312744, -0.10296272486448288, 0.050611212849617004, -0.20266275107860565, 0.16379523277282715, 0.0815231055021286, -0.0716128721833229, 0.12792643904685974, -0.12818367779254913, 0.12088228017091751, -0.1774032860994339], [0.5565565228462219, -0.08114124834537506, -0.08478491008281708, 0.17734360694885254, 0.0852091833949089, 0.20344509184360504, -0.045720137655735016, -0.061505503952503204, -0.2856653034687042, -0.33340346813201904, -0.13832738995552063, -0.045769255608320236, 0.5387626886367798, 0.10434942692518234, -0.21256205439567566, 0.06135907024145126, 0.0033272334840148687, -0.08193135261535645, -0.28114718198776245, 0.6059064865112305, 0.16696438193321228, 0.2282208502292633, -0.22694282233715057, 0.2695133090019226, -0.35277000069618225, 0.35472792387008667, -0.26298391819000244, -0.4074951410293579, 0.07229280471801758, -0.49560192227363586, 0.405219167470932, -0.3557012379169464, -0.6576263308525085, -0.6406549215316772, -0.46962371468544006, -0.19054223597049713, 0.0412987656891346, -0.22597190737724304, 0.4563613831996918, 0.3752211630344391, 0.28905004262924194, 0.2114352136850357, 0.7335308194160461, -0.3128558099269867, 0.08331673592329025, -0.07139384746551514, 0.2965449392795563, -0.3412495255470276, 0.08039015531539917, -0.3535688519477844], [0.37750744819641113, -0.24664700031280518, 0.36284729838371277, -0.5437861680984497, 0.08257576078176498, -0.3654231131076813, -0.6706945896148682, 0.4526975154876709, 0.6008967161178589, -0.860779881477356, -0.12342622876167297, -0.07431837916374207, -0.21174117922782898, -0.47753483057022095, -0.15583351254463196, -0.13651593029499054, -1.209282398223877, -0.3072440028190613, 0.5244631171226501, 0.5490738153457642, 0.04498939961194992, -0.2031220644712448, -0.2239922434091568, -0.4775448441505432, 0.7051725387573242, 0.2788141667842865, 0.14223122596740723, 0.13733352720737457, -0.3980812132358551, 0.9355076551437378, -0.9750858545303345, -0.5922415852546692, 0.6893177628517151, -0.47851887345314026, 0.18210236728191376, -0.0382990688085556, 0.24292215704917908, 0.3021024763584137, -0.450875461101532, -0.7227320671081543, -0.038216907531023026, -0.8262233138084412, 0.048093896359205246, -0.6133110523223877, -0.21052560210227966, 0.7137527465820312, 0.6568021178245544, 0.8213246464729309, -0.25285300612449646, -0.39057403802871704], [-0.6810663342475891, 0.5378817915916443, -0.5856935381889343, -0.5113485455513, 0.8607161045074463, -0.2332121580839157, -0.13316763937473297, 0.871366024017334, -0.010094487108290195, 0.48796889185905457, 0.07429605722427368, 0.26952245831489563, -0.3848755955696106, 0.015191886574029922, 0.07592153549194336, -0.24850034713745117, -0.174855038523674, -0.6390120387077332, 0.02037655934691429, 0.3552000820636749, -0.24242080748081207, -0.43242982029914856, 0.2766905725002289, 0.06932942569255829, 0.12322568148374557, 0.08304692059755325, 0.18815244734287262, -0.543318510055542, -0.39992380142211914, 0.2955765128135681, 0.30838483572006226, 0.12085721641778946, 0.1470867097377777, 0.1371641755104065, 0.48417744040489197, -0.11622286587953568, -0.5936749577522278, 0.3521113097667694, 0.15277013182640076, -0.23256555199623108, -0.40809378027915955, 0.3693895637989044, -0.4205995798110962, 0.3524383008480072, 0.08188676834106445, -0.21922087669372559, 0.4571533501148224, -0.1913902908563614, -0.30371347069740295, 0.5818046927452087], [0.5847324132919312, -0.3476584851741791, 0.12751783430576324, -0.47979649901390076, 0.6641203761100769, -0.025413336232304573, 0.317004919052124, 0.029568348079919815, 0.4092836380004883, 0.346068412065506, -0.1410176306962967, 0.08006610721349716, 0.5074231624603271, -0.10368620604276657, 0.0377168133854866, -0.35134103894233704, -0.9024466872215271, 0.1675572246313095, -0.37278589606285095, 0.22222284972667694, 0.15068824589252472, -0.11748062074184418, -0.4181039333343506, -0.4718742072582245, -0.3852895498275757, 0.3864552676677704, -0.37071511149406433, -0.2712821364402771, 0.4165957272052765, 0.8751484155654907, -0.17043307423591614, 0.3247453272342682, 0.5195173621177673, -0.17376455664634705, -0.0773029699921608, 0.7748366594314575, 0.31600847840309143, -0.39352163672447205, 0.2436966747045517, -0.3404942452907562, -0.49909013509750366, 0.07827894389629364, -0.4135729968547821, -0.8190947771072388, 0.5576527714729309, 0.0852888748049736, 0.06901580840349197, 0.8079488277435303, -0.3235023617744446, -0.3983335494995117], [-0.049322716891765594, -0.2986455261707306, 0.34186607599258423, 0.05393627658486366, -0.39426615834236145, -0.07095102220773697, -0.06983059644699097, 0.08933994919061661, -0.30779388546943665, 0.44088178873062134, -0.24678295850753784, 0.20927351713180542, 0.02889627031981945, 0.22968730330467224, -0.14145110547542572, -0.2951619625091553, -0.08853692561388016, -0.20493732392787933, -0.5697875618934631, -0.5329371094703674, 0.43722471594810486, 0.27833110094070435, 0.12827321887016296, -0.19477693736553192, -0.5270646810531616, -0.5030150413513184, -0.10586412996053696, 0.2960357069969177, -0.04186622425913811, -0.14531002938747406, 0.10974562913179398, -0.33495157957077026, 0.18883958458900452, 0.14607618749141693, 0.30602529644966125, -0.048974718898534775, -0.3769614100456238, 0.08772400766611099, 0.05932321771979332, 0.5167981386184692, 0.4243175983428955, -0.4885634779930115, 0.009182706475257874, 0.1374402642250061, 0.48987752199172974, 0.24889133870601654, -0.4219982624053955, -0.29241713881492615, 0.26508480310440063, 0.3386611342430115], [-0.11045945435762405, 0.39004990458488464, 0.2754760980606079, -0.890965461730957, 0.033792007714509964, 0.14259959757328033, -0.10176209360361099, 0.09068277478218079, -0.15272198617458344, -0.22024911642074585, -0.043602123856544495, 0.19360914826393127, -0.02005980908870697, 0.15679039061069489, 0.44295257329940796, -0.2427266389131546, -0.1453259438276291, 0.32501181960105896, -0.7860121130943298, -0.44413962960243225, 0.12913420796394348, -0.21412767469882965, 0.32078057527542114, 0.057176101952791214, -0.14106221497058868, 0.10761376470327377, 0.23774807155132294, 0.30455848574638367, -0.2580053210258484, 0.5341575145721436, -0.10757677257061005, -0.20270811021327972, 0.4836934506893158, 0.10701306164264679, 0.4087119996547699, -0.08330345898866653, -0.8269492387771606, -0.09389010071754456, -0.1795744150876999, 0.3371213376522064, 0.40791094303131104, -0.34963327646255493, -0.4935151934623718, 0.0359526127576828, 0.35404419898986816, -0.015143484808504581, 0.23076148331165314, 0.07408557087182999, -0.037683259695768356, 0.17525476217269897], [0.009902387857437134, 0.29848960041999817, -0.46865221858024597, 0.7925013899803162, 0.13141964375972748, -0.18744172155857086, 0.3831859230995178, -0.23966719210147858, 0.12761607766151428, 0.7882025837898254, -0.15145042538642883, -0.2756962776184082, -1.0156712532043457, -0.31391799449920654, 0.48283055424690247, -0.03735172748565674, -0.4464310109615326, 0.382735013961792, -0.5734264254570007, 0.9249265789985657, -0.21909308433532715, -0.273080050945282, 0.27978140115737915, 0.5341203808784485, 0.49445733428001404, -0.2018209844827652, 0.7157424688339233, 0.7249125838279724, 0.5420496463775635, -0.38257816433906555, -0.5883257985115051, 0.2550135850906372, -0.22858966886997223, -0.16387486457824707, 0.5764566659927368, -0.6387584805488586, -0.4888523519039154, 0.10759157687425613, -0.005143431015312672, 0.026358511298894882, -0.10040770471096039, 0.34376031160354614, 0.8238109350204468, -0.5645708441734314, -0.37587133049964905, -1.2665530443191528, -0.9594142436981201, 0.594350278377533, 0.058493275195360184, 0.658085823059082], [0.10500094294548035, -0.20345714688301086, -0.6474107503890991, -0.07941657304763794, -0.5693355202674866, -0.041162896901369095, -0.047235000878572464, 0.09058878570795059, 0.4789494574069977, -0.23079781234264374, -0.36137479543685913, -0.9908667802810669, -0.05003973841667175, -0.3582964837551117, 0.39178991317749023, 0.10026012361049652, -0.13278017938137054, -0.528915524482727, -1.2521095275878906, 0.22982151806354523, 0.5473900437355042, 0.5489944219589233, -0.27472826838493347, 0.20961333811283112, 0.1951472908258438, 0.08135810494422913, 0.13031066954135895, -0.23035410046577454, 0.047440025955438614, 0.8698059320449829, -0.20180940628051758, -0.13501310348510742, 0.288968563079834, -0.3870827257633209, 0.05767480283975601, 0.09817176312208176, 0.357927531003952, 0.047964565455913544, -0.041402485221624374, -0.37589892745018005, -1.0347273349761963, 0.07537665218114853, -0.011129632592201233, -0.29197078943252563, 0.768435537815094, 0.780003547668457, 0.04779285565018654, 0.31969332695007324, -0.7685402631759644, -0.30356740951538086], [-0.609656810760498, 0.3671616017818451, 0.4119130074977875, 0.15907453000545502, -0.4741711914539337, -0.08638780564069748, -0.284788578748703, 0.1153995618224144, 0.2940461039543152, 0.4397225081920624, -0.48005548119544983, 0.252781480550766, 0.38173192739486694, 0.3562203645706177, -0.3144916296005249, 0.02935858629643917, 0.12514348328113556, 0.1011955663561821, -0.21246136724948883, -0.22586499154567719, 0.10255073010921478, 0.07585833221673965, 0.21285481750965118, 0.38385888934135437, -0.08134925365447998, -0.25901705026626587, 0.19888511300086975, 0.39060071110725403, 0.37885886430740356, -0.35167914628982544, -0.06231553107500076, -0.08901280164718628, 0.13924680650234222, 0.1475444734096527, 0.43503960967063904, 0.39268431067466736, -0.1645050197839737, 0.33721405267715454, 0.3927479088306427, -0.05028447508811951, 0.036987416446208954, -0.6261513233184814, -0.0977352112531662, -0.04368770122528076, 0.19117678701877594, 0.4177340865135193, -0.33831241726875305, -0.30414849519729614, -0.17139889299869537, 0.3311237394809723], [-0.4485248625278473, -0.5512312650680542, 0.5695868134498596, 0.48502442240715027, 0.031301576644182205, -0.4324532449245453, -0.04934290051460266, 0.25773951411247253, 0.11059869080781937, 0.5545793771743774, -0.30444103479385376, 0.5280454754829407, 0.08420881628990173, 0.11354383081197739, -0.16036546230316162, 0.05278824642300606, -0.06857220828533173, 0.4318558871746063, 0.016167039051651955, 0.07893364876508713, 0.43332046270370483, 0.09964733570814133, 0.5676170587539673, 0.41802993416786194, -0.12198568880558014, -0.2332800328731537, 0.39528506994247437, -0.34006449580192566, 0.2326459288597107, 0.44603708386421204, -0.16368621587753296, -0.22415147721767426, -0.10304740071296692, -0.16483347117900848, 0.09038832783699036, 0.1489398032426834, -0.08532808721065521, 0.10133857280015945, 0.4527219235897064, 0.34872493147850037, 0.27758121490478516, -0.14871840178966522, -0.11048021167516708, -0.07279976457357407, -0.12682177126407623, -0.08539088815450668, -0.2956016957759857, -0.5532326698303223, 0.09625671803951263, 0.0054740505293011665], [-0.34250685572624207, -0.7624747157096863, -0.1851452887058258, 0.4414183795452118, -0.342979371547699, -0.5759486556053162, -0.35962340235710144, -0.044699396938085556, -0.11008968949317932, 0.5753568410873413, -0.15746645629405975, 0.37926745414733887, -0.3014117479324341, 0.06883931159973145, -0.45424389839172363, 0.3094402849674225, 0.02971239946782589, -0.3562212586402893, 0.07820489257574081, -0.16780363023281097, 0.4750705361366272, 0.45556414127349854, 0.38060200214385986, 0.25996148586273193, -0.4758095443248749, -0.06750704348087311, 0.22496868669986725, 0.02271878533065319, 0.045570746064186096, -0.016456088051199913, -0.3478536903858185, -0.045460063964128494, -0.26539409160614014, 0.014803812839090824, -0.026922494173049927, -0.08820543438196182, -0.21232861280441284, 0.561911404132843, -0.36556699872016907, 0.14986099302768707, -0.0037473991978913546, -0.32151445746421814, -0.24048392474651337, 0.24173422157764435, 0.4049205482006073, 0.26689183712005615, -0.3355133533477783, 0.22664688527584076, -0.15922942757606506, -0.196623757481575], [-0.2016780525445938, -1.097973108291626, -0.437814325094223, -0.46286168694496155, -0.07296348363161087, -0.8084062933921814, -0.2652692198753357, 1.073346734046936, 0.501376211643219, 0.5959473252296448, -0.208988755941391, 0.18740934133529663, -0.6440439224243164, -0.6725907325744629, -0.4000179171562195, 0.3987140953540802, -0.6036560535430908, -0.1253795623779297, 0.06643205881118774, 0.4602452516555786, 0.9382787346839905, -0.04527447000145912, 0.13688655197620392, -0.20662568509578705, -0.06163150444626808, 0.4689214825630188, 0.3467785120010376, -0.8151882290840149, 0.4756928086280823, 0.8030913472175598, -0.3071245551109314, 0.21464291214942932, 0.05600220710039139, -0.24284614622592926, -0.5971693992614746, -0.2857772707939148, 0.37671640515327454, 0.8561664819717407, -1.0677717924118042, -0.6903420090675354, -0.35994014143943787, 0.24801312386989594, -0.23297639191150665, -0.44691935181617737, 0.2581603229045868, 0.28351396322250366, 0.17088854312896729, 0.45682135224342346, -0.5757872462272644, 0.0454292818903923], [-0.029137348756194115, 0.12041626125574112, 0.745878279209137, -0.3409852385520935, -0.12489551305770874, -0.32291093468666077, -0.027034858241677284, -0.1426778882741928, 0.44985172152519226, 0.03933660686016083, -0.4206616282463074, 0.18060402572155, 0.9941539168357849, 0.08625328540802002, -0.5837637186050415, 0.612214982509613, 0.1228935718536377, -0.2677256166934967, 0.17910116910934448, -0.2959710955619812, 0.20837724208831787, -0.10152182728052139, -0.010616566054522991, -0.20096106827259064, -0.13980773091316223, -0.25825968384742737, 0.6060550808906555, 0.6274580955505371, 0.40610361099243164, 0.03172130510210991, 0.08639371395111084, -0.5241361856460571, 0.4505329728126526, -0.12783081829547882, 0.26967453956604004, 0.028620198369026184, -0.2938554883003235, -0.03436059132218361, 0.20188318192958832, 0.042929232120513916, -0.1782834231853485, -0.47561535239219666, -0.4313018321990967, -0.3807884156703949, 0.46063360571861267, -0.3161681294441223, -0.5469452142715454, 0.11044274270534515, 0.04235738515853882, -0.13155663013458252], [-0.1861020177602768, 0.3671090602874756, 0.05753123387694359, 0.15221449732780457, -0.17472676932811737, 0.30665653944015503, 0.019337553530931473, -0.11006483435630798, 0.1831088364124298, 0.042408548295497894, -0.6149929761886597, 0.23546363413333893, 0.4816097915172577, 0.2737395763397217, 0.08176364749670029, 0.27056801319122314, 0.058215685188770294, -0.5599502325057983, -0.012650325894355774, 0.05771377310156822, -0.11654169857501984, -0.35909730195999146, -0.0978952944278717, 0.5611050128936768, -0.19684232771396637, 0.26297643780708313, 0.06750107556581497, -0.4383792281150818, 0.8718066811561584, -0.4070814251899719, 0.7218367457389832, -0.2066340297460556, -0.04441220313310623, 0.36152300238609314, 0.2995285391807556, 0.11621483415365219, 0.22829388082027435, 0.21078798174858093, -0.019270706921815872, -0.15599818527698517, 0.6536876559257507, 0.008000591769814491, 0.6851107478141785, -0.37114399671554565, -0.015798283740878105, -0.04275210574269295, -0.5310178399085999, 0.7646719217300415, -0.5684112310409546, -0.2525504529476166], [0.012107934802770615, 0.40674468874931335, -0.05351769179105759, 0.27816540002822876, 0.2774951159954071, -0.02692640945315361, -0.4291839003562927, 0.12502869963645935, 0.06648728251457214, -0.41740065813064575, -0.37141934037208557, 0.26319998502731323, 0.11588775366544724, -0.08713363111019135, -0.5025154948234558, 0.388786256313324, 0.3294287621974945, 0.4224563241004944, 0.5201716423034668, 0.4038190543651581, 0.029920700937509537, 0.3970509171485901, -0.5250543355941772, 0.054723549634218216, 0.2596258819103241, -0.02073848806321621, 0.3661031126976013, -0.24857988953590393, -0.12243859469890594, 0.015952732414007187, 0.23863175511360168, -0.27090921998023987, -0.2669028043746948, 0.4191659092903137, 0.36310863494873047, 0.0927509218454361, 0.34144163131713867, -0.22173596918582916, -0.3206481337547302, 0.3840992748737335, 0.3932528495788574, -0.3055441379547119, 0.27086976170539856, 0.042156368494033813, 0.035859934985637665, -0.4184039235115051, 0.021128078922629356, -0.19742538034915924, 0.07316640764474869, -0.48019981384277344], [-0.02241433784365654, 0.0037895673885941505, 0.42909207940101624, -0.2385224550962448, -0.0930633470416069, -0.2603456974029541, 0.3678356409072876, -0.4795967638492584, 0.024820830672979355, -0.23481999337673187, 0.19911842048168182, 0.06611437350511551, 0.42899733781814575, -0.04972486570477486, -0.3051353394985199, -0.37001392245292664, -0.08111042529344559, 0.5564399361610413, 0.17577001452445984, 0.14536017179489136, -0.11911814659833908, 0.25251972675323486, 0.09779714792966843, -0.13720564544200897, -0.08226794004440308, 0.048020265996456146, -0.295027494430542, -0.037824664264917374, -0.17959299683570862, 0.14726927876472473, 0.7391074895858765, -0.077652707695961, -0.2273728847503662, -0.21588784456253052, 0.34902942180633545, 0.43355879187583923, -0.46624284982681274, 0.6319245100021362, 0.055371467024087906, 0.06342621147632599, 0.15080596506595612, -0.39138463139533997, -0.3499184846878052, 0.044935427606105804, 0.09292281419038773, 0.019194014370441437, 0.40515175461769104, -0.23822763562202454, 0.11173728108406067, -0.4601515531539917], [-0.37649884819984436, -0.6077041029930115, -0.5085014700889587, -0.0752958431839943, -0.336352676153183, -0.332550585269928, -0.13363434374332428, 0.3176764249801636, 0.19192032516002655, 0.07600824534893036, -0.3488021492958069, 0.006298725493252277, -0.25829145312309265, -0.34553804993629456, -0.6020241975784302, -0.22024841606616974, -0.030407419428229332, -0.3750837743282318, 0.3992771506309509, 0.5908494591712952, 0.5386497378349304, -0.24386176466941833, 0.06433970481157303, 0.13644680380821228, 0.006076176650822163, 0.0005945554003119469, -0.1607103943824768, 0.27012667059898376, -0.06424568593502045, 0.20262910425662994, -0.3681182861328125, -0.15472140908241272, -0.3945099115371704, 0.33037611842155457, 0.034350961446762085, -0.293427973985672, -0.2625100910663605, 0.21822525560855865, -0.22998078167438507, -0.08575859665870667, 0.12327085435390472, -0.42866912484169006, 0.06798408180475235, 0.2824850082397461, 0.041493043303489685, 0.1272716075181961, 0.35762685537338257, -0.12902317941188812, -0.03659422695636749, -0.7385832667350769], [-0.015629125759005547, -0.13889442384243011, -0.12755873799324036, -0.6174630522727966, -0.4739386737346649, 0.06848541647195816, -0.03296998515725136, 0.49521541595458984, 0.15897291898727417, -0.4521258473396301, 0.18689589202404022, -0.4670221209526062, 0.5542484521865845, -0.4404515326023102, 0.0024016823153942823, -0.24858731031417847, -0.6017563343048096, 0.5801577568054199, 0.207550048828125, 0.5437180995941162, -0.21293306350708008, -0.35211071372032166, -0.4469003677368164, 0.4663918912410736, 0.09161702543497086, 0.2284001260995865, -0.13564527034759521, -0.10156724601984024, -0.3911592662334442, -0.3530976474285126, -0.12915872037410736, 0.28581559658050537, -0.5106987953186035, 0.13042044639587402, -0.4542347490787506, 0.008138972334563732, -0.26763296127319336, -0.05228406935930252, -0.2513287663459778, -0.3091493546962738, 0.13840804994106293, 0.052664656192064285, -0.4901372790336609, -0.37570834159851074, 0.8283337950706482, -0.4324023723602295, 0.3022788465023041, 0.5102774500846863, -0.00637464877218008, 0.6366180181503296], [0.06280983239412308, -0.4277258813381195, 0.2759948670864105, -0.12220145016908646, -0.4903414845466614, -0.18912284076213837, 0.4507156312465668, -0.618719220161438, 0.5951083898544312, 0.5110812783241272, -0.4159925878047943, -0.15478302538394928, -0.4585649371147156, -0.28562745451927185, 0.2587783634662628, -0.1698751449584961, -0.4378027319908142, -0.4241795837879181, -0.5610901713371277, 0.8686115741729736, -0.2604638934135437, -0.7896689176559448, 0.0008545296732336283, 0.21123087406158447, -0.13676977157592773, -0.08749596774578094, 1.19516122341156, 0.022688893601298332, 0.5844805836677551, -0.394283264875412, 0.44585829973220825, -0.7277694940567017, -0.46633684635162354, 0.5664823055267334, 0.6576986908912659, -0.4456752836704254, -0.40525779128074646, -0.5347596406936646, 0.14611317217350006, -0.044380612671375275, 0.3944784700870514, 0.864051878452301, 0.7927042841911316, -0.27711018919944763, -0.8800387978553772, -0.6940565705299377, -0.647246778011322, 0.5865333080291748, -0.4141712486743927, 0.21133726835250854], [0.4065561890602112, 0.20245343446731567, -0.32453271746635437, 0.2028418928384781, 0.14701445400714874, -0.01791573502123356, -0.5240936875343323, 0.6339060664176941, 0.7009426355361938, 0.2476148158311844, -0.19665013253688812, -0.40317633748054504, -0.4989074468612671, -0.3879223167896271, 0.49174222350120544, 0.23223717510700226, -0.4818401038646698, 0.6085304617881775, -0.7025371193885803, -0.015164338052272797, 0.3895711302757263, 0.25924789905548096, -1.0007373094558716, 0.06208565831184387, -0.21117492020130157, 0.8842915296554565, -0.001913196174427867, 0.22161823511123657, 0.33099380135536194, 0.40572112798690796, -0.6460567116737366, -0.008282909169793129, -0.2547937035560608, -0.31370261311531067, 0.21988633275032043, -0.2203351855278015, 0.06376711279153824, 0.6407210826873779, -0.16807276010513306, -0.045468930155038834, -0.21967171132564545, 0.42158403992652893, 0.364059180021286, -0.8566926717758179, 0.08059853315353394, 0.11671964079141617, -0.6299591660499573, 0.8049331903457642, 0.08062779903411865, -0.10756758600473404], [0.22211170196533203, 0.05871758982539177, 0.30099937319755554, 0.24038003385066986, -0.27031409740448, -0.2482682466506958, -0.03203914314508438, 0.17938025295734406, 1.1064012050628662, -0.5680235028266907, 0.24911607801914215, 0.5587770938873291, -0.05126789212226868, 0.023010825738310814, -0.21593435108661652, -0.6342082619667053, 0.37746661901474, -0.15939784049987793, -0.06058361753821373, -0.4257281422615051, 0.2430645376443863, -0.7100749611854553, -0.3987032473087311, -0.438698947429657, -0.09750038385391235, -0.4251714050769806, -0.13614308834075928, 0.11843302845954895, -0.07010156661272049, -0.2949800193309784, 0.5229752063751221, -0.7180132865905762, 0.16553336381912231, -0.2655434012413025, 0.12854015827178955, 0.16687145829200745, -0.37042251229286194, -0.31348276138305664, 0.11111872643232346, 0.35570061206817627, -0.44201114773750305, -0.022831648588180542, 0.2671433687210083, 0.16203951835632324, -0.15083591639995575, 0.5492631196975708, 0.08849959820508957, 0.07183224707841873, -0.020689979195594788, -0.1824834644794464], [-0.029886428266763687, -0.00831186305731535, 0.1989908069372177, -0.012265284545719624, -0.17136217653751373, 0.09666988253593445, 0.07573815435171127, 0.029768982902169228, 0.13099133968353271, -0.17551328241825104, -0.18574336171150208, 0.11313469707965851, 0.2147185355424881, -0.15043801069259644, -0.08920948952436447, 0.1943298727273941, -0.14065593481063843, -0.20900791883468628, 0.1542304903268814, -0.20196141302585602, 0.033909138292074203, -0.04559925198554993, -0.17037557065486908, 0.16198590397834778, 0.004001378081738949, 0.08929426223039627, -0.026638900861144066, 0.11586139351129532, -0.09287061542272568, -0.11071707308292389, -0.10015051811933517, -0.20178188383579254, 0.07626555860042572, -0.055883102118968964, 0.06992772221565247, 0.17276091873645782, -0.152849942445755, 0.1700284779071808, -0.18921414017677307, -0.15117552876472473, 0.15941013395786285, 0.09229004383087158, -0.1576392650604248, 0.05956099554896355, 0.17721189558506012, -0.14153537154197693, 0.21164937317371368, -0.18688318133354187, 0.015936778858304024, 0.17856021225452423], [-0.3654327392578125, -0.3097720146179199, 0.3656054139137268, -0.258543461561203, 0.10410722345113754, -0.16884870827198029, 0.19453272223472595, 0.2629333734512329, 0.20911769568920135, -0.27187302708625793, 0.3774268627166748, 0.03671744838356972, 0.1609727442264557, 0.14995476603507996, -0.3290248215198517, 0.25116589665412903, -0.2655726373195648, 0.17826464772224426, -0.022036250680685043, 0.37094300985336304, 0.1105508804321289, 0.0746058002114296, 0.4157235622406006, -0.14064256846904755, 0.127360537648201, 0.027956759557127953, -0.1452576369047165, 0.3954792618751526, -0.39572834968566895, 0.12142984569072723, -0.2963120937347412, -0.21916763484477997, -0.16722261905670166, 0.12359163165092468, -0.2036372721195221, 0.10806342214345932, -0.10586829483509064, -0.4269196391105652, -0.21614427864551544, 0.26421302556991577, 0.29922807216644287, 0.4506511688232422, -0.4303775727748871, 0.14490129053592682, 0.2797774076461792, 0.3458057641983032, -0.4500904679298401, -0.3574303984642029, 0.279802143573761, -0.36246827244758606], [0.03579873964190483, -0.47150641679763794, 0.5460047721862793, 0.36657896637916565, -0.4268013834953308, 0.17656975984573364, -0.3040466010570526, 0.17101794481277466, -0.5103009343147278, 0.572749674320221, 0.3509036898612976, 0.5996463298797607, 0.005302543751895428, 0.3794326186180115, -0.0848843902349472, 0.5085243582725525, -0.27363938093185425, 0.08068651705980301, -0.4995661675930023, -0.5556207895278931, -0.0395687073469162, 0.25865933299064636, -0.10299421846866608, 0.3765682876110077, -0.23106658458709717, -0.017552252858877182, 0.04628860205411911, 0.181245356798172, 0.12044800072908401, 0.48138245940208435, 0.4780086278915405, -0.6434176564216614, 0.17010708153247833, -0.041918762028217316, 0.24893024563789368, 0.6828759908676147, -0.40442782640457153, 0.3373083472251892, 0.09283798187971115, -0.03170095756649971, 0.06311334669589996, -0.26701971888542175, -0.11887326091527939, 0.5634765625, 0.13782033324241638, 0.4633462429046631, -0.00915815681219101, -0.4012517035007477, -0.17569772899150848, -0.17332689464092255], [-0.20892813801765442, 0.05539694428443909, 0.3134017884731293, 0.29162701964378357, -0.10532544553279877, 0.2088698446750641, -0.25214362144470215, -0.06822099536657333, -0.24489560723304749, -0.3559957444667816, -0.207732155919075, 0.29735827445983887, 0.07615241408348083, 0.3283141851425171, -0.12646692991256714, 0.7563753724098206, -0.5472259521484375, 0.4431455433368683, 0.31836581230163574, -0.2286374866962433, 0.5061361193656921, -0.2073054313659668, -0.7299803495407104, 0.346952885389328, -0.24790480732917786, -0.1802864521741867, -0.3671457767486572, 0.030751613900065422, 0.2736355662345886, 0.40800487995147705, -0.2303651124238968, -0.27075961232185364, 0.2765696346759796, -0.43873417377471924, -0.6237793564796448, 0.08324497938156128, 0.6948039531707764, 0.28892505168914795, 0.05999627709388733, -0.7845221757888794, 0.014924265444278717, 0.3654530942440033, -0.12204180657863617, -0.6418622136116028, -0.3474074900150299, -0.6485713124275208, 0.0860850065946579, 0.064127117395401, 0.04609110206365585, -0.2710466980934143], [-0.47990530729293823, -0.20623160898685455, -0.23169375956058502, 0.2718123197555542, -0.4720333516597748, -0.5695429444313049, -0.1856359988451004, 0.4478207528591156, 0.204425647854805, -0.287253201007843, 0.2035495638847351, -0.0608050599694252, 0.1155676394701004, 0.3407112658023834, -0.028964035212993622, -0.1727493554353714, -0.08801867812871933, 0.35161617398262024, -0.5281087756156921, -0.06190551817417145, -0.24514394998550415, -0.5257996916770935, 0.3574444353580475, 0.19378182291984558, 0.31304076313972473, -0.00915653444826603, 0.06502149999141693, -0.2395487278699875, 0.18904882669448853, 0.13955222070217133, 0.37814489006996155, 0.20144973695278168, -0.4646475613117218, 0.2905358076095581, -0.4366605281829834, 0.13824833929538727, 0.040602169930934906, 0.5333000421524048, 0.28630995750427246, -0.06336614489555359, -0.011529764160513878, -0.2209903746843338, -0.4591347575187683, -0.4057459533214569, 0.13885392248630524, 0.10172650963068008, 0.4026350677013397, -0.20247498154640198, -0.283599853515625, -0.0821237713098526], [-0.1618461012840271, 0.08622384071350098, -0.2295393943786621, 0.3457983434200287, -0.3506699204444885, -0.08752254396677017, 0.6256282329559326, -0.5267205834388733, 0.10860859602689743, 0.10511371493339539, -0.27254393696784973, 0.6063967943191528, -0.16060806810855865, 0.32141298055648804, 0.011945944279432297, -0.033075038343667984, -0.15805429220199585, 0.5128061771392822, 0.5433967113494873, 0.05109909921884537, -0.3238643705844879, 0.493704617023468, -0.1461775302886963, -0.4395381212234497, 0.5383148193359375, 0.06917376071214676, -0.5914849638938904, -0.4744884669780731, 0.0638430193066597, 0.4789649546146393, 0.2784402668476105, -0.3216300904750824, -0.6559998989105225, 0.017059605568647385, -0.3167710304260254, 0.07339246571063995, -0.2634555399417877, 0.5195394158363342, 0.2654435932636261, 0.3931220769882202, 0.3114038109779358, -0.2574973702430725, -0.4891405999660492, 0.1261107474565506, -0.16450628638267517, -0.5476348996162415, 0.6329384446144104, -0.03931177780032158, -0.1373881995677948, 0.05148252472281456], [-0.07837402820587158, 0.10379049926996231, 0.21577878296375275, 0.3328188955783844, -0.07007396966218948, 0.27957478165626526, 0.04172506928443909, 0.16403473913669586, 0.15310129523277283, -0.45997676253318787, -0.5174195766448975, -0.42173445224761963, 0.028101816773414612, 0.20545972883701324, -0.2990695536136627, -0.09665123373270035, -0.23633067309856415, 0.3198609948158264, -0.24084904789924622, 0.13027073442935944, 0.15676265954971313, 0.06507357954978943, -0.35211244225502014, 0.29758965969085693, -0.4172348082065582, 0.09513473510742188, -0.3276444971561432, 0.16079330444335938, 0.3080413043498993, 0.03637811914086342, 0.09747586399316788, 0.008448583073914051, 0.44421565532684326, 0.20964939892292023, 0.2461586743593216, -0.5239103436470032, -0.5464556217193604, -0.029928971081972122, -0.22551362216472626, -0.2813774049282074, 0.5607867240905762, 0.3170652687549591, -0.26082414388656616, 0.21239763498306274, 0.21204222738742828, 0.2474413365125656, -0.017811371013522148, -0.3562379479408264, 0.1398993581533432, 0.07125269621610641], [-0.29295676946640015, -0.14692829549312592, 0.3542555570602417, -0.13285715878009796, 0.06135895103216171, -0.3874240815639496, 0.5041519999504089, -0.041670408099889755, -0.23244638741016388, 0.5844584107398987, -0.17633625864982605, 0.1945139467716217, -0.025514494627714157, -0.05863812565803528, 0.06148495152592659, -0.3815159201622009, 0.16226208209991455, 0.06879552453756332, -0.26013725996017456, -0.08514292538166046, 0.37664923071861267, -0.3393327295780182, 0.2724005877971649, -0.5580134391784668, -0.12033552676439285, 0.3485981822013855, -0.22123736143112183, 0.13925379514694214, -0.16236086189746857, -0.2512129843235016, -0.24617160856723785, -0.6175846457481384, 0.21507833898067474, -0.19360096752643585, -0.04370211809873581, 0.2223484218120575, 0.22982341051101685, -0.04085667431354523, 0.6623690724372864, -0.0839109942317009, 0.29585161805152893, 0.36422014236450195, 0.0038635381497442722, -0.3595524728298187, 0.29899850487709045, 0.5469284057617188, -0.16396726667881012, 0.2682766020298004, 0.26260191202163696, -0.23137833178043365], [0.8915051221847534, 0.006862294860184193, 0.03730987757444382, 0.3489167094230652, 0.2496003359556198, 0.6158320903778076, 0.5164269208908081, -0.29693907499313354, -1.0250234603881836, 0.5489404797554016, -0.4433095455169678, 0.8566499948501587, 0.17814166843891144, 0.355728417634964, -0.13537007570266724, -0.15447556972503662, -0.5261383652687073, -0.7380148768424988, -0.40286985039711, -0.3891442120075226, -0.5970251560211182, -0.21915070712566376, 0.43870556354522705, 0.07780401408672333, -0.7273041009902954, 0.09882145375013351, -0.6256911158561707, -0.097981758415699, 0.878223180770874, 0.5036664009094238, -0.4578147530555725, 0.0836920216679573, -0.44079041481018066, 0.15538036823272705, 0.072564996778965, 0.5146862268447876, 0.011658042669296265, -0.28343603014945984, -0.24561160802841187, 0.4273074269294739, 0.07728933542966843, 0.49192342162132263, 0.5684094429016113, 0.18220452964305878, 0.6239814758300781, -0.15472497045993805, -0.7849310040473938, 0.06391587108373642, -0.6819117665290833, -0.23997057974338531], [-0.39572402834892273, -0.917185366153717, -0.5871285796165466, 0.08635451644659042, -0.08428287506103516, -0.8834647536277771, 0.7207961082458496, -0.5858914256095886, -0.21743285655975342, 0.8933588266372681, -0.12560907006263733, -0.13084587454795837, -1.121194839477539, -0.6107951998710632, -0.5210492610931396, 0.07681054621934891, -0.4752449095249176, -0.4792636036872864, -0.014139112085103989, 1.007033348083496, 0.24998706579208374, -0.43070343136787415, 0.37700173258781433, 0.31288594007492065, 0.5163697600364685, -0.15185754001140594, 1.069849967956543, 0.44932863116264343, 0.5777865052223206, -0.27723240852355957, -0.17238333821296692, 0.4238480031490326, -0.47107842564582825, -0.03157960623502731, 0.3064006268978119, -0.7107969522476196, -0.272591233253479, 0.22897540032863617, -0.9206271767616272, -0.24404282867908478, -0.1484214961528778, 0.0975399911403656, 0.5768731236457825, -0.019364265725016594, -0.24707229435443878, -0.7598682641983032, -0.11808613687753677, 0.6323529481887817, -0.6484829783439636, -0.5039815902709961], [-0.033639468252658844, -0.20557574927806854, -0.31170180439949036, 0.22530965507030487, -0.48892220854759216, 0.1954571157693863, 0.27125290036201477, -0.00712662423029542, -0.425931841135025, 0.23285755515098572, 0.12507757544517517, 0.22785638272762299, -0.22111208736896515, 0.004776150453835726, 0.08062083274126053, -0.20964977145195007, -0.057771578431129456, -0.5217410326004028, 0.15816685557365417, -0.42143917083740234, 0.18980714678764343, 0.2295716404914856, -0.059942618012428284, -0.36848628520965576, 0.3808061182498932, 0.18242225050926208, -0.3746573030948639, -0.14464646577835083, 0.2789059281349182, 0.5147016644477844, -0.1924036592245102, -0.3380504548549652, -0.372188001871109, 0.23661723732948303, -0.25201261043548584, 0.27755922079086304, 0.1503850668668747, -0.42366552352905273, 0.15990306437015533, 0.026539240032434464, 0.16620391607284546, 0.16913774609565735, -0.19855888187885284, 0.2508644163608551, -0.05684425309300423, -0.17634715139865875, 0.1260811984539032, -0.3874545693397522, -0.058400195091962814, -0.07456102222204208], [0.9681273102760315, 0.25397467613220215, 0.4821217656135559, -0.12974844872951508, 0.018131671473383904, 0.33052849769592285, 0.6434715390205383, -0.9353255033493042, 0.06908436864614487, 0.06864297389984131, 0.05377994850277901, 0.663345217704773, 0.018138473853468895, -0.4599539339542389, -0.46087977290153503, -0.004543991759419441, 0.829936146736145, 0.9668134450912476, 0.07227085530757904, -0.001846384722739458, -0.043503373861312866, 1.1981090307235718, 0.10429935157299042, 0.1751052290201187, 0.7254974246025085, 0.41732287406921387, -0.639942467212677, -0.8681910037994385, -0.1410561501979828, -0.19733242690563202, 0.7676379680633545, 0.44506117701530457, -0.45422959327697754, 0.4495871365070343, 0.36059364676475525, -0.5028342008590698, -0.9884421825408936, 0.7766081690788269, 0.7394530177116394, -0.7986729741096497, -0.2149290144443512, -0.12781324982643127, -0.5139169692993164, -0.17048510909080505, -0.6464549899101257, -0.38719063997268677, 0.04609343782067299, 0.1690938025712967, 0.496944397687912, -0.26735714077949524], [0.8778952956199646, -0.2732996940612793, 0.6403676867485046, -0.6931067705154419, 0.3178642988204956, -1.042884111404419, 0.24581165611743927, 0.33240827918052673, -0.6179559230804443, 0.029218316078186035, 0.2136051058769226, -0.9478942155838013, -1.1093981266021729, 0.17714038491249084, 0.901698887348175, 0.5018842816352844, 0.6489794254302979, 0.12221284955739975, 0.19832581281661987, -0.1306559443473816, 0.0011779756750911474, -0.6258557438850403, 0.5540456175804138, 0.13427135348320007, 1.0151423215866089, -0.5434237122535706, 1.142878770828247, 0.29968100786209106, 0.14982987940311432, -0.04336550831794739, -0.6745479106903076, 0.7886958122253418, -0.22908687591552734, 0.078770712018013, 0.8962181210517883, -0.1618143916130066, 0.3964338004589081, -0.9540557861328125, 0.3193480968475342, -0.5997717380523682, 0.5003308057785034, -0.5264894366264343, 0.4765775203704834, 0.39277228713035583, -0.0015888200141489506, -0.2857150733470917, 0.28624144196510315, -0.19893929362297058, -0.7429303526878357, 0.7760103940963745], [0.14701588451862335, 0.3056640028953552, 0.6481242775917053, -0.05062633752822876, -0.3836093842983246, -0.25703611969947815, -0.5032017230987549, 0.18041838705539703, -0.4133308231830597, -0.5085577964782715, 0.03695954382419586, 0.3882361352443695, 0.025515835732221603, 0.03843793645501137, -0.41776028275489807, 0.4838229715824127, -0.19783636927604675, 0.1973462700843811, 0.4973277151584625, -0.15843482315540314, -0.0867423340678215, 0.13112522661685944, -0.3975697159767151, 0.4309092164039612, -0.012592175044119358, -0.4343295097351074, -0.17845770716667175, -0.26377326250076294, 0.4589864909648895, 0.1441812366247177, -0.39643436670303345, -0.2482432872056961, -0.03041376732289791, -0.09183204174041748, -0.3760327398777008, 0.43906086683273315, 0.40953996777534485, -0.06556853652000427, 0.14534670114517212, -0.42977821826934814, 0.2380632758140564, 0.5812063217163086, 0.20294439792633057, -0.4244547188282013, -0.1377500593662262, -0.13512997329235077, 0.2598021626472473, 0.2688754200935364, -0.6626061797142029, -0.020967921242117882], [0.15041285753250122, -0.18376287817955017, 0.15243221819400787, 0.39182597398757935, 1.067449688911438, -0.17586472630500793, -1.2261792421340942, -0.6295861601829529, -1.3773053884506226, -1.1195378303527832, 0.32555314898490906, -0.6156820058822632, -0.3725300431251526, 1.0926403999328613, -0.4237322211265564, 0.4123126268386841, 0.3538021743297577, -0.0766177847981453, 0.42093324661254883, -0.15204888582229614, -0.6982073783874512, -0.08850258588790894, -0.7517968416213989, -0.6007940769195557, -0.314470112323761, 0.6449190378189087, 0.2827884554862976, -0.09000693261623383, 0.24026167392730713, -0.13435207307338715, 0.007083875127136707, -1.372840404510498, 0.14315088093280792, 0.21205180883407593, -0.7495419979095459, 0.22111555933952332, 0.4319039583206177, 0.46096014976501465, -0.35528239607810974, -0.44969266653060913, -0.6254971623420715, -0.37789320945739746, 0.26224493980407715, -0.2607448101043701, 0.0735139325261116, 0.13583090901374817, -0.6899725794792175, -0.05688590556383133, 0.6833395957946777, 0.4801129698753357], [0.42701733112335205, -0.6405338644981384, 0.34008705615997314, -0.7824888825416565, 0.4556654989719391, -0.13466574251651764, -0.45494669675827026, 0.19953295588493347, 0.40037107467651367, 0.13357111811637878, 0.0009065517224371433, -0.4399793744087219, 0.1570838987827301, 0.3690166175365448, -0.05936800688505173, 0.4148412048816681, -0.46741974353790283, -0.05797932669520378, -0.5976223349571228, -0.13799814879894257, 0.8822999596595764, 0.6401354670524597, -0.5787055492401123, 0.387013703584671, 0.017716698348522186, 0.11499299108982086, 0.09215240925550461, -0.07489413022994995, -0.24271328747272491, -0.180604949593544, -0.044962700456380844, 0.11680681258440018, -0.19774509966373444, -1.0231956243515015, -0.7874667048454285, -0.45827457308769226, 0.169610857963562, 0.10262243449687958, -0.022106528282165527, -0.2212037295103073, -0.1708044707775116, 0.031372085213661194, -0.25248581171035767, -0.6054723262786865, 0.08846968412399292, 0.37309780716896057, 0.7935639023780823, 0.5470271110534668, -0.6974878311157227, -0.42249488830566406], [-0.07268878072500229, 0.016788754612207413, -0.3332582414150238, -0.2110557109117508, -0.13160477578639984, -0.15632347762584686, -0.5350084900856018, 0.15147922933101654, 0.09239961206912994, 0.5564976334571838, 0.027413170784711838, 0.25618454813957214, -0.21706858277320862, 0.5452282428741455, 0.3459724485874176, 0.05373455211520195, 0.024235717952251434, 0.41525718569755554, -0.34028974175453186, 0.12300505489110947, 0.17888998985290527, 0.0853290855884552, 0.3010372519493103, 0.44246765971183777, -0.3481130599975586, -0.10547570884227753, 0.1066623106598854, 0.2286916971206665, -0.02393439970910549, -0.05571755766868591, -0.1765245497226715, -0.13611970841884613, -0.08409199118614197, -0.03944668546319008, 0.43342939019203186, -0.03229054808616638, -0.3167107403278351, 0.45688560605049133, 0.16361017525196075, 0.32948997616767883, 0.08050280064344406, -0.10191075503826141, -0.05130071938037872, -0.3206128776073456, 0.18087154626846313, -0.05926937982439995, -0.7817992568016052, 0.12438617646694183, 0.21217463910579681, -0.3482654392719269], [0.40441930294036865, -1.1071696281433105, 0.40343621373176575, 0.28116095066070557, -0.167148157954216, 0.3596707582473755, 0.1162811741232872, -0.3588619530200958, 0.6917746663093567, -0.22011291980743408, 0.15397362411022186, 0.4446162283420563, -0.22766967117786407, 0.3420570492744446, -0.3083948493003845, -1.0738946199417114, -0.08112529665231705, 0.2747330069541931, -0.5535483956336975, -0.15404613316059113, 0.2673753798007965, 0.3134809136390686, 0.5338127613067627, 0.040346890687942505, -0.2880975306034088, -0.21269264817237854, -0.5182655453681946, -0.40371328592300415, -0.4603142738342285, -0.35743629932403564, -0.14916889369487762, 0.04788760095834732, -0.09463246166706085, -0.07392976433038712, -0.3199262320995331, 0.5850275754928589, -0.137741819024086, 0.06259649991989136, -0.018048802390694618, -0.029637876898050308, 0.23547537624835968, 0.3201525807380676, 0.35746508836746216, -0.05512747913599014, 0.2516242563724518, 0.6447389721870422, 0.6112226247787476, 0.3939034044742584, -0.03714099898934364, -0.004673848859965801], [-0.02539071813225746, -0.18011823296546936, 0.14459386467933655, 0.020231477916240692, -0.3663521409034729, 0.3368139863014221, -0.1351311206817627, 0.29369065165519714, -0.14822115004062653, 0.04349856078624725, 0.12384844571352005, 0.11268030107021332, -0.22959785163402557, 0.3549901843070984, -0.42198264598846436, 0.023633059114217758, -0.4226643443107605, -0.4900844395160675, -0.21377457678318024, -0.051464829593896866, 0.04054759070277214, -0.030587846413254738, 0.2588801383972168, -0.07855460047721863, 0.139670729637146, 0.0546158067882061, -0.23710255324840546, 0.42816993594169617, 0.06294459849596024, 0.588689386844635, -0.09956363588571548, -0.16782812774181366, -0.47786617279052734, 0.23659750819206238, 0.08853144198656082, 0.3449395000934601, -0.43821242451667786, 0.3482779264450073, 0.3493689298629761, -0.16929049789905548, 0.12447939068078995, 0.2239147424697876, 0.024375958368182182, 0.1379033625125885, -0.2171102613210678, 0.21373051404953003, 0.441448450088501, -0.6051924824714661, -0.01539368461817503, -0.6565055847167969], [-0.40077733993530273, -0.20135898888111115, -0.30653321743011475, -0.16391609609127045, -0.12460634112358093, -0.3742763102054596, -0.3647771179676056, 0.07064874470233917, -0.04733334109187126, -0.21038773655891418, -0.13783502578735352, 0.249740332365036, -0.07702090591192245, 0.17320144176483154, -0.29099422693252563, -0.20235322415828705, -0.3102276921272278, -0.06436224281787872, 0.018557552248239517, -0.22236430644989014, -0.007383216172456741, -0.34563711285591125, -0.03573760390281677, 0.3703722655773163, 0.08299976587295532, -0.38733193278312683, -0.13110628724098206, -0.3867987096309662, 0.26180315017700195, 0.3684704601764679, 0.20722955465316772, 0.24859997630119324, 0.3547055423259735, 0.30001920461654663, -0.05696326866745949, -0.0773005560040474, -0.33310869336128235, 0.2100917398929596, -0.24846826493740082, -0.4231472611427307, 0.019253967329859734, 0.35659870505332947, -0.1839061826467514, 0.17192204296588898, 0.19780324399471283, 0.10987944900989532, 0.2851390540599823, -0.2223532348871231, 0.13871614634990692, 0.32034778594970703], [-0.40178269147872925, 0.01712995022535324, -0.12854163348674774, -0.4272044003009796, -0.29407474398612976, -0.2728755474090576, 0.019090255722403526, -0.1491260677576065, 0.4812181890010834, -0.44453656673431396, 0.2313748449087143, -0.1314949244260788, 0.4498034715652466, -0.055677786469459534, -0.035264983773231506, -0.43430182337760925, -0.13687872886657715, -0.09864944219589233, 0.16556662321090698, -0.03259238973259926, 0.034386198967695236, -0.6376775503158569, -0.3161804676055908, 0.16832776367664337, -0.014101892709732056, -0.20853275060653687, 0.197845920920372, -0.20451581478118896, 0.03790832310914993, 0.15357668697834015, 0.610688328742981, -0.36495763063430786, -0.1786395162343979, -0.08679968863725662, 0.5557376146316528, -0.17848388850688934, 0.18210716545581818, -0.00363574898801744, 0.14700640738010406, -0.015227635391056538, -0.1445983499288559, -0.5665466785430908, -0.23583941161632538, -0.11342130601406097, -0.25025826692581177, -0.44649866223335266, 0.09767705202102661, -0.39549803733825684, 0.30078205466270447, -0.42068472504615784], [-0.24709531664848328, 0.07062805444002151, 0.15699070692062378, 0.3536838889122009, 0.5252552628517151, -0.40837031602859497, 0.10360037535429001, 0.21429063379764557, 0.3550872802734375, -0.3334311842918396, -0.0018827342428267002, 0.30796781182289124, -0.27625733613967896, -0.2533361315727234, -0.41599124670028687, -0.5897385478019714, -0.12622985243797302, -0.1531715840101242, -0.4478631615638733, -0.025944635272026062, -0.026277687400579453, -0.04300198331475258, 0.041493501514196396, -0.7083107233047485, 0.13701538741588593, -0.13737238943576813, -0.2799859344959259, -0.4929077923297882, 0.1106325164437294, -6.37066550552845e-05, 0.3696296513080597, 0.08239921927452087, 0.1603454351425171, -0.010209610685706139, -0.1622488796710968, -0.08458197861909866, -0.2127893567085266, 0.19713401794433594, -0.22386832535266876, 0.12273497879505157, 0.19921927154064178, -0.29148170351982117, -0.37468379735946655, 0.3660756051540375, 0.326560914516449, -0.06847824156284332, 0.25329309701919556, 0.33631449937820435, -0.06835350394248962, -0.17962723970413208], [0.19694164395332336, -0.29681897163391113, 0.39718833565711975, 0.5528082251548767, -0.3103069067001343, -0.8076028823852539, -0.15775993466377258, -0.2611927390098572, 0.7265622615814209, 0.18647976219654083, 0.7647562623023987, -0.263370543718338, 0.1634545624256134, -0.3596089482307434, 0.008975474163889885, -0.229685977101326, 0.1720224767923355, 0.041746292263269424, 0.016616791486740112, -0.5127344131469727, -0.19625116884708405, -0.140871062874794, 0.47498396039009094, -0.22877691686153412, 0.1595434844493866, -0.11857926845550537, 0.7529352307319641, -0.004164325073361397, -0.23630696535110474, 0.10882168263196945, 0.7450753450393677, -0.35263705253601074, -0.12957154214382172, -0.14246529340744019, 0.011943833902478218, 0.6201640963554382, 0.07164070010185242, 0.3039606809616089, -0.6022962331771851, -0.43607470393180847, -0.2974754571914673, 0.030516933649778366, -0.40061551332473755, -0.40173059701919556, -0.025588177144527435, 0.7031933069229126, 0.979468584060669, -0.13469819724559784, -0.26380154490470886, 0.2779141366481781], [-0.01811818592250347, -0.19564414024353027, 0.042620521038770676, -0.15003055334091187, 0.10779131948947906, -0.06645111739635468, 0.18921633064746857, 0.11212827265262604, 0.14830711483955383, 0.18139155209064484, -0.0434768944978714, 0.0870886817574501, 0.02715253084897995, 0.14253905415534973, -0.010272493585944176, -0.14734983444213867, 0.020424332469701767, -0.14591558277606964, -0.1260737180709839, -0.037431541830301285, 0.1518811136484146, -0.14534372091293335, 0.21044330298900604, -0.06859060376882553, -0.06842831522226334, -0.11546757817268372, -0.05188363790512085, -0.07899448275566101, -0.08572138845920563, 0.1552896946668625, 0.126496821641922, -0.1999981850385666, -0.15416380763053894, -0.10599075257778168, -0.10423943400382996, -0.155939519405365, -0.16148971021175385, 0.13520404696464539, -0.13995835185050964, 0.12441127747297287, 0.18550249934196472, 0.060025833547115326, -0.13041353225708008, 0.1587691307067871, 0.1465369313955307, 0.1998412013053894, 0.11277394741773605, -0.08851815015077591, 0.1727161556482315, -0.16477960348129272], [-0.03354614973068237, 0.11004550755023956, 0.17072360217571259, -0.4296535849571228, 0.3902660310268402, 0.5861326456069946, 0.7195227146148682, -0.12493009865283966, -0.01886560395359993, -0.08774974942207336, -0.21080739796161652, -0.3009572923183441, 0.35391440987586975, 0.04079285264015198, 0.09525635838508606, -0.8171827793121338, -0.1305377334356308, 0.014669506810605526, 0.1116369217634201, -0.40820401906967163, 0.0344366692006588, -0.6783860921859741, -0.5419448018074036, -0.5663855671882629, 0.08046969026327133, -0.10175246000289917, -0.29558175802230835, -0.37204083800315857, 0.272213876247406, 0.3206700384616852, 0.2218664288520813, 0.00785133522003889, 0.26952001452445984, 0.4948183596134186, 0.21185925602912903, 0.49346792697906494, 0.052197813987731934, -0.0762782096862793, 0.26630958914756775, 0.21818827092647552, -0.31617745757102966, -0.10867100954055786, -0.08489903807640076, -0.022923192009329796, 0.18238945305347443, -0.3179619312286377, 0.3337135910987854, 0.5080659985542297, -0.055110473185777664, -0.25100401043891907], [-0.17032839357852936, 0.07212996482849121, 0.5141014456748962, -0.28945451974868774, -0.24096013605594635, 0.42829903960227966, -0.04730226844549179, -0.010548548772931099, 0.2427079677581787, 0.6466156244277954, -0.2694743275642395, -0.17416514456272125, 0.11983618885278702, 0.5696741342544556, 0.3151648938655853, -0.5612619519233704, -0.10444239526987076, -0.09299856424331665, 0.246038019657135, -0.19494733214378357, -0.06720108538866043, -0.38625121116638184, 0.12862780690193176, 0.4142567217350006, -0.4723066985607147, 0.05558522790670395, 0.2578074038028717, 0.28661274909973145, 0.035513222217559814, 0.5866396427154541, 0.14262066781520844, 0.19316516816616058, -0.505102813243866, 0.3067306578159332, -0.27678805589675903, 0.4298918545246124, 0.1361893117427826, -0.5767850279808044, -0.2736159563064575, 0.16546474397182465, 0.07947897166013718, 0.22194838523864746, -0.26643475890159607, 0.04315336421132088, 0.842182993888855, 0.06500662863254547, 0.058427006006240845, -0.4418828785419464, -0.11495113372802734, -0.11241292208433151], [-0.464616596698761, -0.4408990144729614, 0.24058414995670319, -0.01701921410858631, 0.2418612241744995, -0.19404877722263336, 0.09261095523834229, 0.5543548464775085, 0.3586679995059967, 0.1281934380531311, -0.17965656518936157, 0.16698391735553741, 0.052328068763017654, 0.1922941505908966, -0.24767647683620453, -0.3267159163951874, -0.2807247042655945, -0.08113658428192139, 0.22386835515499115, -0.21392564475536346, 0.49205103516578674, -0.20462004840373993, 0.23316055536270142, 0.2666949927806854, -0.02384379133582115, -0.18700245022773743, -0.04568890109658241, -0.018221892416477203, 0.012869244441390038, 0.6267773509025574, -0.30887871980667114, -0.10769922286272049, -0.27287524938583374, 0.1599789410829544, -0.3157275319099426, -0.12485005706548691, -0.1484536975622177, -0.1999005377292633, 0.5911931991577148, 0.14803223311901093, 0.11055129021406174, -0.26789942383766174, 0.02267419546842575, -0.2848433554172516, -0.22884652018547058, -0.17826013267040253, 0.33112090826034546, -0.7910423874855042, 0.20509597659111023, 0.24501414597034454], [0.6028676629066467, -0.48937973380088806, -0.7082479000091553, -0.8407817482948303, -0.7036675214767456, -0.5721171498298645, -0.21154068410396576, -0.07034654915332794, 0.25322461128234863, 0.5007647275924683, -0.06091075763106346, 0.21680763363838196, -0.22380594909191132, -0.4015464186668396, -0.20853236317634583, -0.8674335479736328, -0.3743237555027008, -0.6166314482688904, -0.12180230021476746, -0.08496526628732681, 0.7757307887077332, -0.48138293623924255, 0.14530538022518158, 0.2152353674173355, 0.2939044237136841, -0.12666970491409302, -0.30350542068481445, -0.18320567905902863, -0.141954705119133, 0.30167102813720703, 0.49187546968460083, -0.39759135246276855, -0.43154236674308777, -0.4462292492389679, 0.1780606359243393, 0.09761533886194229, 0.6954428553581238, -0.08040159940719604, -0.6739295721054077, 0.0978880375623703, 0.3282741904258728, 0.2798291742801666, 0.07401834428310394, 0.3475448489189148, -0.16281643509864807, -0.2587560713291168, 0.3402811288833618, 0.10426091402769089, 0.6849027276039124, 0.13123482465744019], [-0.5059991478919983, -0.6289737224578857, 0.3827461004257202, 0.1612473428249359, 0.08156692981719971, -0.08332274854183197, 0.20591579377651215, 0.5697376132011414, 0.3940856158733368, 0.720202624797821, 0.23455902934074402, 0.3853684067726135, -0.11951752007007599, -0.7457823157310486, -0.5061197876930237, -0.15740349888801575, -0.07640298455953598, 0.5908012390136719, -0.17873063683509827, 0.07119547575712204, 0.5042308568954468, -0.7057406902313232, 0.2186632752418518, -0.1143745630979538, 0.1870582401752472, -0.15682612359523773, -0.10385891050100327, -0.4607437551021576, -0.004168983548879623, 0.5406802296638489, -0.38725611567497253, -0.2154310643672943, 0.012953429482877254, -0.41639038920402527, -0.1970568150281906, -0.7698094844818115, 0.6051898002624512, 0.3730526268482208, 0.09660281985998154, 0.2888757288455963, 0.15129980444908142, 0.27154237031936646, -0.03704565390944481, 0.4016309678554535, 0.1847137063741684, -0.6935815811157227, 0.1023358479142189, -0.5148066282272339, -0.3292795717716217, 0.4132416844367981], [-0.7687615156173706, -0.5128678679466248, -0.44857844710350037, 0.13060259819030762, -0.006360909901559353, 0.45467036962509155, -0.09124912321567535, 0.22857455909252167, 0.11025182902812958, 0.5596585273742676, 0.39194634556770325, 0.22298438847064972, 0.10984653234481812, -0.15064837038516998, -0.8084797859191895, -0.22706769406795502, 0.259883314371109, 0.7364374399185181, 0.7312949895858765, -0.11192947626113892, -0.2336675226688385, -0.034674569964408875, 0.9522700905799866, -0.43075820803642273, -0.47181209921836853, 0.33525750041007996, 0.5245974659919739, -0.1733432412147522, -0.4775541126728058, 0.2529490292072296, 0.06262082606554031, 0.08182172477245331, 0.6080290079116821, -0.5971295237541199, -0.28122520446777344, -0.4241512715816498, -0.14778384566307068, -0.5807753801345825, -0.032345499843358994, -0.2955954670906067, 0.14532923698425293, -0.38273969292640686, 0.6115497350692749, -0.09672898799180984, 0.10484229028224945, -0.7913693189620972, 0.1156378835439682, -0.40010666847229004, 0.48081710934638977, 0.7065404653549194], [-0.9033164381980896, -0.17682971060276031, 0.41192251443862915, 0.21340110898017883, 0.238809272646904, -0.6211597323417664, 0.3183704912662506, 0.6394249200820923, 0.7137721180915833, 0.17857757210731506, -0.1388462781906128, 0.37675467133522034, -0.47411927580833435, -0.0579211488366127, -0.19551461935043335, 0.12849844992160797, 0.19189022481441498, 0.5565930008888245, -0.08212865144014359, 0.9170102477073669, 0.320097953081131, 0.4298221170902252, 0.8469012379646301, 